0.000000000000000000e+00,0.000000000000000000e+00,0.000000000000000000e+00,-3.322332790016393478e+00,-1.093625133620491074e-01,0.000000000000000000e+00,0.000000000000000000e+00,-2.754111715867306742e-01,0.000000000000000000e+00,0.000000000000000000e+00,0.000000000000000000e+00,-4.069358081321419185e-01,-2.511437672419268097e+01,-8.919560036452377716e+00,-1.514632021056631084e+00,-2.638022942416611727e+00,-1.746852661386148753e-01,0.000000000000000000e+00,0.000000000000000000e+00,0.000000000000000000e+00,0.000000000000000000e+00,0.000000000000000000e+00,0.000000000000000000e+00,0.000000000000000000e+00,0.000000000000000000e+00,0.000000000000000000e+00,0.000000000000000000e+00,0.000000000000000000e+00,-7.843861681699106914e-01,0.000000000000000000e+00,0.000000000000000000e+00,0.000000000000000000e+00,0.000000000000000000e+00,-1.705970332266907794e-02,-1.714478775025023508e-03,-1.025451489284347817e+00,-3.809643255629342473e-01,0.000000000000000000e+00,-4.374309923645574791e-03,0.000000000000000000e+00,-6.546795915357715712e-02,0.000000000000000000e+00,0.000000000000000000e+00,-8.267072836184993223e-01,-2.947665306708879385e+00,0.000000000000000000e+00,0.000000000000000000e+00,0.000000000000000000e+00,0.000000000000000000e+00,0.000000000000000000e+00,0.000000000000000000e+00,-1.610423382240733892e+00,0.000000000000000000e+00,0.000000000000000000e+00,-1.348811100250411732e+00,0.000000000000000000e+00,0.000000000000000000e+00,0.000000000000000000e+00,0.000000000000000000e+00,0.000000000000000000e+00,0.000000000000000000e+00,0.000000000000000000e+00,-1.287551026602697102e-03,0.000000000000000000e+00,0.000000000000000000e+00,-6.439123094610537112e-01,0.000000000000000000e+00,-2.619054633108217622e+00,0.000000000000000000e+00,0.000000000000000000e+00,0.000000000000000000e+00,0.000000000000000000e+00,-1.350387775429706494e+01,0.000000000000000000e+00,-2.368846503167020501e+00,0.000000000000000000e+00,0.000000000000000000e+00,0.000000000000000000e+00,-1.745063845920538981e+01,-1.673405534406620321e+00,0.000000000000000000e+00,0.000000000000000000e+00,0.000000000000000000e+00,-1.307816521302209933e+00,0.000000000000000000e+00,-1.785662759265200705e+01
0.000000000000000000e+00,0.000000000000000000e+00,0.000000000000000000e+00,-4.380057840313172690e+00,0.000000000000000000e+00,0.000000000000000000e+00,0.000000000000000000e+00,0.000000000000000000e+00,0.000000000000000000e+00,0.000000000000000000e+00,-7.653711198981083541e-02,-1.825668132626404727e+01,-2.620009974217338211e+01,-1.763430467367746957e+01,-8.205228939242276809e+00,-3.502080740567255907e-02,-2.942358637634418184e+00,-5.795656988770163387e-02,0.000000000000000000e+00,-5.713645762362808966e-01,-4.543869826300703241e-01,0.000000000000000000e+00,0.000000000000000000e+00,0.000000000000000000e+00,0.000000000000000000e+00,0.000000000000000000e+00,0.000000000000000000e+00,0.000000000000000000e+00,0.000000000000000000e+00,0.000000000000000000e+00,0.000000000000000000e+00,0.000000000000000000e+00,0.000000000000000000e+00,-1.664870467784821673e-01,0.000000000000000000e+00,0.000000000000000000e+00,0.000000000000000000e+00,0.000000000000000000e+00,-1.794025145534566268e-01,-1.363084262506043975e+00,-2.117379271830876764e-01,0.000000000000000000e+00,0.000000000000000000e+00,0.000000000000000000e+00,-1.951491040641236907e+00,0.000000000000000000e+00,0.000000000000000000e+00,0.000000000000000000e+00,0.000000000000000000e+00,0.000000000000000000e+00,0.000000000000000000e+00,-6.248718480516068929e-01,0.000000000000000000e+00,-9.979642179699865778e-01,-1.463445590505802585e+01,0.000000000000000000e+00,0.000000000000000000e+00,0.000000000000000000e+00,0.000000000000000000e+00,-1.119327276200136279e+00,0.000000000000000000e+00,0.000000000000000000e+00,-1.852788066247325460e+01,0.000000000000000000e+00,-1.129303310839483654e+00,-7.702184632608091164e+00,-4.148969405377424202e+00,-5.915011149256622858e+00,-2.453187262686631342e+01,-2.358449349030733089e+01,-2.237964210417230149e+01,0.000000000000000000e+00,-6.218410034369194150e+00,-3.005556043660637222e+00,-1.739102790083538252e+01,0.000000000000000000e+00,0.000000000000000000e+00,-2.062025015899481062e+01,-2.939501806324855249e+00,0.000000000000000000e+00,-1.312071840901598740e+01,-9.188265044149964922e+00,-1.113872008643590622e-01,0.000000000000000000e+00,-8.034367188488674927e+00,-2.250676855941903654e+01
0.000000000000000000e+00,0.000000000000000000e+00,0.000000000000000000e+00,-8.836657501832798078e-02,0.000000000000000000e+00,0.000000000000000000e+00,0.000000000000000000e+00,0.000000000000000000e+00,-3.462480630047696378e-02,0.000000000000000000e+00,-2.027096634788736917e+00,-2.552452495112204206e-02,-1.390745394759742304e+01,-1.809029105139659777e+01,-3.769472163948123011e+00,-1.312330116186139861e+01,0.000000000000000000e+00,-2.243712110654622549e+01,0.000000000000000000e+00,0.000000000000000000e+00,-1.694637288224496718e-01,-1.316941658960456563e-01,0.000000000000000000e+00,0.000000000000000000e+00,0.000000000000000000e+00,0.000000000000000000e+00,0.000000000000000000e+00,-5.894980365407886946e-02,0.000000000000000000e+00,-2.652758950522473014e-01,0.000000000000000000e+00,0.000000000000000000e+00,0.000000000000000000e+00,0.000000000000000000e+00,0.000000000000000000e+00,0.000000000000000000e+00,0.000000000000000000e+00,-5.926979720146773323e-01,-2.196577913936108573e-01,0.000000000000000000e+00,-1.263250362560873308e+00,0.000000000000000000e+00,0.000000000000000000e+00,0.000000000000000000e+00,-1.138481271871284312e-01,0.000000000000000000e+00,-1.706728558026553877e+00,0.000000000000000000e+00,0.000000000000000000e+00,0.000000000000000000e+00,0.000000000000000000e+00,-7.790828682191939247e-01,0.000000000000000000e+00,0.000000000000000000e+00,-5.353254279159990858e+00,-1.106407158030459303e+00,-7.062151876519270566e+00,-1.420291659908824222e+01,-6.835868461986181366e+00,-1.272974202097817908e+01,0.000000000000000000e+00,-1.066675092740291220e+01,0.000000000000000000e+00,-5.095833039905168782e+00,0.000000000000000000e+00,-1.589751814134094055e+01,-1.672303477148506134e+00,-9.493525258309950532e-01,-5.581082478705265082e+00,-2.488772963885370615e-01,-5.322936077891933238e+00,-2.143042957493964007e+00,-8.776613131510657695e+00,0.000000000000000000e+00,-7.711633490582927131e+00,-4.518252979632488356e-03,0.000000000000000000e+00,-1.232482640236693072e+00,-6.439263656102421685e+00,-2.153018089784166644e+00,-2.397227736020984779e+01,-9.310898506979011557e+00,0.000000000000000000e+00,-1.068896881325032489e+01,-1.156319076080677100e+01,-2.373477413606314101e+01
0.000000000000000000e+00,0.000000000000000000e+00,0.000000000000000000e+00,0.000000000000000000e+00,-7.535938357836221568e-01,-7.180635875083997144e-01,-1.760234754067759866e-01,0.000000000000000000e+00,-2.767427937885185152e+00,-1.476630264131518322e+00,-2.323310344343143541e+01,-1.896149664060110096e+00,-1.947519235317542297e+01,-8.853894422762319749e+00,-1.292333118487695742e+01,-1.259697484264849621e+01,-9.388280316481552312e-02,-1.204203109671354888e+01,0.000000000000000000e+00,-3.764254732418075011e-02,-6.683317520986514770e-01,-5.003281905630594384e-01,-2.661215717246498969e-01,-4.661652305994206658e-01,0.000000000000000000e+00,0.000000000000000000e+00,-6.210288267857656530e-01,-1.819931918423692285e-01,-1.394307014414486630e-02,-6.858699746442800116e-01,-5.144913444939369640e-02,0.000000000000000000e+00,-1.758047304196764360e+00,-1.537182680876475471e-01,-4.507503085567322598e-01,-1.921385381447643023e-02,0.000000000000000000e+00,-9.793987567564363950e-01,0.000000000000000000e+00,0.000000000000000000e+00,0.000000000000000000e+00,-1.390787000216986424e-01,-1.315744955799590388e-01,0.000000000000000000e+00,-9.013539704068671554e-01,0.000000000000000000e+00,-2.040965176567670070e-01,0.000000000000000000e+00,0.000000000000000000e+00,-2.350814499517810685e-01,-4.604759691453108039e-01,-5.482736195443533855e-01,0.000000000000000000e+00,-2.085600289418280351e+00,-2.517106062623686569e+01,-1.844205678843512430e+01,-1.287531404232453802e+01,-1.718617891480950632e+01,-2.147312779721425002e+01,-1.521451842113031283e+01,-3.359918031542756811e+00,-1.671570777651149342e+01,-1.320188155897679572e+01,-1.589086081845708875e+01,-5.611259523380464742e+00,-2.034053606536548386e+01,-1.422848561971666648e+01,-1.834290924953163326e+01,-3.070414839456296008e+01,-2.383382205602431725e+01,-2.511660939258433345e+01,-1.688019349494113897e+01,-2.840695963221051201e+01,-7.907371094100448694e+00,-2.705864109307792731e+01,-6.805806326257320293e+00,-2.706012929607257700e-01,-2.296095596391229421e+01,-1.017457924280685688e+01,-2.426043328189289028e+01,-2.788868292037055596e+01,-2.191717751096872036e+01,-6.410154489952731849e-01,-1.594034040736582014e+01,-1.328212816832313514e+01,-2.353032645290824831e+01
0.000000000000000000e+00,0.000000000000000000e+00,0.000000000000000000e+00,0.000000000000000000e+00,0.000000000000000000e+00,-2.107459454540148436e-01,-4.663150560348247042e-01,0.000000000000000000e+00,0.000000000000000000e+00,0.000000000000000000e+00,-1.162133774188976432e+01,0.000000000000000000e+00,-1.300200080356800036e+01,-1.149202090870491055e+01,-1.145022309387197268e+01,-2.166653838189656955e+00,0.000000000000000000e+00,-4.062852030869305686e+00,0.000000000000000000e+00,-1.557377341507272694e+00,-1.042749176647113751e+00,0.000000000000000000e+00,-3.135592322804631737e-01,-1.127234263100325706e-01,0.000000000000000000e+00,0.000000000000000000e+00,-7.481437568708770858e-02,-1.979362315569292430e-01,0.000000000000000000e+00,-1.018071956291197511e+00,0.000000000000000000e+00,0.000000000000000000e+00,-2.053020928791666200e-01,-9.438966685297527082e-02,0.000000000000000000e+00,0.000000000000000000e+00,0.000000000000000000e+00,-3.302714656414763583e-01,0.000000000000000000e+00,-3.131972693080753989e-01,0.000000000000000000e+00,0.000000000000000000e+00,-1.525963393379323463e-01,0.000000000000000000e+00,-1.465433829529115384e+00,0.000000000000000000e+00,-5.616365964266935296e-02,0.000000000000000000e+00,0.000000000000000000e+00,0.000000000000000000e+00,0.000000000000000000e+00,-2.025748538396381804e+00,0.000000000000000000e+00,-3.836061453934414001e-01,0.000000000000000000e+00,-8.174628255123179699e+00,-6.350681412868946829e+00,-2.909704410026467070e+00,-2.330610433210396693e+01,-5.911646590033276638e+00,-7.441671196110378333e-03,-6.916523113779384779e+00,-2.354057952967969769e-01,-1.263381155783440235e+01,0.000000000000000000e+00,-2.598359066518538540e+00,-9.917775698015400820e+00,-1.913947149353216659e+01,0.000000000000000000e+00,-2.667860851242496523e+01,-2.360139687559522415e+01,-9.002398323703230787e+00,-2.700678100753520638e+01,0.000000000000000000e+00,-6.738212801976598776e+00,-6.247957245560396833e-02,0.000000000000000000e+00,-2.545988180626039110e+01,-2.639357462784555519e+00,-2.457989248759884404e+01,-2.422832658745495138e+01,-2.209466008630849032e+01,-1.421819915372739329e+00,-1.328087590210702551e+00,-1.243430274774315514e+01,-1.387013169223890507e+01
0.000000000000000000e+00,0.000000000000000000e+00,0.000000000000000000e+00,0.000000000000000000e+00,0.000000000000000000e+00,0.000000000000000000e+00,0.000000000000000000e+00,-1.121677448886235001e-03,0.000000000000000000e+00,0.000000000000000000e+00,-5.741247202794943938e+00,-2.330488506259555237e+01,-1.571428842467023124e+01,-9.649214788764311379e+00,-6.510519766732663527e+00,-8.687062487229944452e+00,-1.126234441269979847e+01,-1.087903864207410365e+01,0.000000000000000000e+00,0.000000000000000000e+00,-1.034622885914375567e+00,0.000000000000000000e+00,0.000000000000000000e+00,0.000000000000000000e+00,0.000000000000000000e+00,0.000000000000000000e+00,0.000000000000000000e+00,0.000000000000000000e+00,-1.231654599141187717e-01,0.000000000000000000e+00,0.000000000000000000e+00,0.000000000000000000e+00,0.000000000000000000e+00,0.000000000000000000e+00,0.000000000000000000e+00,-1.497663710105156566e-02,0.000000000000000000e+00,0.000000000000000000e+00,0.000000000000000000e+00,0.000000000000000000e+00,0.000000000000000000e+00,0.000000000000000000e+00,0.000000000000000000e+00,-7.508445675954854466e-04,-7.114888577499038913e-01,0.000000000000000000e+00,0.000000000000000000e+00,-8.026421440621643588e-02,-1.556904487001856130e-01,0.000000000000000000e+00,0.000000000000000000e+00,0.000000000000000000e+00,0.000000000000000000e+00,-1.732803158564572565e-01,0.000000000000000000e+00,0.000000000000000000e+00,0.000000000000000000e+00,-1.013457566716660985e+00,0.000000000000000000e+00,-1.251214269698407655e+01,-2.232099934159762211e-01,-1.510703756968274414e+00,-1.657723733353707019e+01,0.000000000000000000e+00,-1.052571117420169244e+01,-1.234917536333678001e+01,-1.809263326403119265e+00,-7.470259439292719073e+00,0.000000000000000000e+00,-6.724326578855706948e+00,-2.581896856702807952e+01,0.000000000000000000e+00,-3.139276576992271917e+00,-3.456942262314675052e-01,-2.710821215761190572e+01,0.000000000000000000e+00,-5.382204322431590526e+00,-1.162093437918630023e+01,-7.899424393218747120e+00,-2.187281890462206557e-01,-8.827868622407692101e+00,-2.440067166768157936e+00,-1.101987340984379138e+01,-3.869064197790953230e+00,-1.624159206871134131e+00,-1.559705614406568053e+01
0.000000000000000000e+00,0.000000000000000000e+00,0.000000000000000000e+00,0.000000000000000000e+00,0.000000000000000000e+00,0.000000000000000000e+00,0.000000000000000000e+00,0.000000000000000000e+00,0.000000000000000000e+00,0.000000000000000000e+00,-4.399978896067632816e-01,-7.744669634823718063e+00,-1.308047184853801248e+01,-2.993064771272436975e+00,-1.191993717418262833e+01,-7.066806321265990398e+00,-5.539756800025247285e-02,-1.524998715565407947e-01,0.000000000000000000e+00,0.000000000000000000e+00,0.000000000000000000e+00,0.000000000000000000e+00,0.000000000000000000e+00,0.000000000000000000e+00,0.000000000000000000e+00,0.000000000000000000e+00,0.000000000000000000e+00,-1.382671851820327022e-02,0.000000000000000000e+00,-2.026576570291341306e-01,0.000000000000000000e+00,0.000000000000000000e+00,0.000000000000000000e+00,0.000000000000000000e+00,0.000000000000000000e+00,0.000000000000000000e+00,0.000000000000000000e+00,-3.389479303648776365e-01,0.000000000000000000e+00,-8.745922680522363879e-03,0.000000000000000000e+00,0.000000000000000000e+00,0.000000000000000000e+00,0.000000000000000000e+00,-1.193105582832726663e-01,0.000000000000000000e+00,0.000000000000000000e+00,0.000000000000000000e+00,0.000000000000000000e+00,0.000000000000000000e+00,0.000000000000000000e+00,0.000000000000000000e+00,0.000000000000000000e+00,0.000000000000000000e+00,0.000000000000000000e+00,-6.702496595290046599e+00,-4.943833969087662039e-01,-1.012622930762293372e+01,-8.003120430563047671e-01,-1.009401244349027316e+01,-3.241761705697471796e-01,-8.900615014539333458e+00,-1.389039939785051025e+00,-1.134933769795181568e+01,-2.805968581013107421e-01,-1.083035333624034102e+01,-1.002491335234621950e+01,0.000000000000000000e+00,0.000000000000000000e+00,0.000000000000000000e+00,0.000000000000000000e+00,-2.149127233127266834e+00,-2.777717505578927604e+00,0.000000000000000000e+00,-1.430276938516178653e+00,-4.023176680632697177e+00,0.000000000000000000e+00,-6.976807908436953198e+00,-1.007813963180348971e+01,-2.113809647063764885e+01,-2.498248235624806313e+01,-6.838835472067062327e+00,0.000000000000000000e+00,-9.445721079337019432e+00,0.000000000000000000e+00,-1.123137557857683078e+01
0.000000000000000000e+00,0.000000000000000000e+00,0.000000000000000000e+00,0.000000000000000000e+00,0.000000000000000000e+00,0.000000000000000000e+00,0.000000000000000000e+00,0.000000000000000000e+00,0.000000000000000000e+00,-1.840369677945485338e-01,-6.266701114966735986e+00,0.000000000000000000e+00,-1.856668704089598387e+00,-9.301064130847138678e-01,-1.077821559913483718e+01,-3.152540462530242227e+00,0.000000000000000000e+00,-1.661124250213128484e-01,0.000000000000000000e+00,0.000000000000000000e+00,0.000000000000000000e+00,-6.243945377893368731e-02,0.000000000000000000e+00,0.000000000000000000e+00,0.000000000000000000e+00,0.000000000000000000e+00,0.000000000000000000e+00,0.000000000000000000e+00,0.000000000000000000e+00,-3.782646976327020405e-01,0.000000000000000000e+00,0.000000000000000000e+00,0.000000000000000000e+00,0.000000000000000000e+00,0.000000000000000000e+00,0.000000000000000000e+00,0.000000000000000000e+00,-1.780435644913947457e-01,0.000000000000000000e+00,0.000000000000000000e+00,0.000000000000000000e+00,0.000000000000000000e+00,0.000000000000000000e+00,0.000000000000000000e+00,0.000000000000000000e+00,0.000000000000000000e+00,0.000000000000000000e+00,0.000000000000000000e+00,0.000000000000000000e+00,0.000000000000000000e+00,0.000000000000000000e+00,0.000000000000000000e+00,0.000000000000000000e+00,0.000000000000000000e+00,0.000000000000000000e+00,-1.005107072875374985e-01,-4.993715144247381055e+00,-1.088357481146385730e+01,-9.365987187031642236e+00,-9.327160383787807874e+00,0.000000000000000000e+00,-2.645827321771073493e+00,0.000000000000000000e+00,-7.429113715953613806e+00,0.000000000000000000e+00,-1.708867358128525282e+01,-1.308054472144849711e+00,0.000000000000000000e+00,0.000000000000000000e+00,0.000000000000000000e+00,-2.378132895424846538e+01,-4.298476912437488195e+00,0.000000000000000000e+00,0.000000000000000000e+00,0.000000000000000000e+00,0.000000000000000000e+00,0.000000000000000000e+00,0.000000000000000000e+00,0.000000000000000000e+00,-1.926150557802696994e+01,-1.122073002131735642e+01,-8.769014359154679639e+00,0.000000000000000000e+00,-6.402719240035961157e+00,0.000000000000000000e+00,-6.196970256615998096e+00
0.000000000000000000e+00,0.000000000000000000e+00,0.000000000000000000e+00,0.000000000000000000e+00,0.000000000000000000e+00,0.000000000000000000e+00,0.000000000000000000e+00,0.000000000000000000e+00,0.000000000000000000e+00,0.000000000000000000e+00,0.000000000000000000e+00,-1.413393992657535314e+01,-9.760247078882986926e+00,-2.926365486260035009e+00,-7.524236230525971791e+00,-2.263553469841879662e-01,0.000000000000000000e+00,0.000000000000000000e+00,0.000000000000000000e+00,-7.899531869754801428e-02,-6.424936338112887668e-01,0.000000000000000000e+00,0.000000000000000000e+00,0.000000000000000000e+00,0.000000000000000000e+00,0.000000000000000000e+00,0.000000000000000000e+00,-4.588299526118827867e-03,-3.448988622127603654e-02,-4.028889974063841750e-01,0.000000000000000000e+00,0.000000000000000000e+00,0.000000000000000000e+00,-1.173695962767774999e-02,0.000000000000000000e+00,0.000000000000000000e+00,0.000000000000000000e+00,-1.333683501289714690e-01,-5.047704713133734783e-02,-5.309328356636850571e-03,-1.321890496041628824e-02,0.000000000000000000e+00,0.000000000000000000e+00,0.000000000000000000e+00,-1.103922877207450748e+00,0.000000000000000000e+00,0.000000000000000000e+00,0.000000000000000000e+00,0.000000000000000000e+00,0.000000000000000000e+00,0.000000000000000000e+00,0.000000000000000000e+00,0.000000000000000000e+00,0.000000000000000000e+00,-3.969062395739949345e+00,0.000000000000000000e+00,0.000000000000000000e+00,-1.082939211038587007e-01,-3.352973121247261545e+00,-1.601201266975339932e+00,0.000000000000000000e+00,-1.683434203387739305e-03,-1.102501997605308093e+00,-9.255286993947062779e-01,0.000000000000000000e+00,-3.916847165968651456e+00,0.000000000000000000e+00,-2.485495258730352219e+01,-5.891632489040363296e+00,-2.278185957754443436e+01,-2.331099281462104855e+01,0.000000000000000000e+00,-2.496626521579325697e+01,-2.976939730497134562e+00,-2.658094149005048124e+01,-3.386112695612740198e-01,0.000000000000000000e+00,-4.303864793851591486e+00,-3.301155081168198446e+00,-9.424457068056051767e+00,-2.031201117142899548e+01,-2.086787462353724720e+01,0.000000000000000000e+00,-1.071416452588400681e-01,-1.367029550655622572e+01,-2.037460291251376177e+00
0.000000000000000000e+00,0.000000000000000000e+00,0.000000000000000000e+00,0.000000000000000000e+00,0.000000000000000000e+00,0.000000000000000000e+00,0.000000000000000000e+00,0.000000000000000000e+00,0.000000000000000000e+00,0.000000000000000000e+00,0.000000000000000000e+00,0.000000000000000000e+00,0.000000000000000000e+00,0.000000000000000000e+00,0.000000000000000000e+00,0.000000000000000000e+00,0.000000000000000000e+00,0.000000000000000000e+00,0.000000000000000000e+00,-2.457123845337366806e-03,0.000000000000000000e+00,0.000000000000000000e+00,0.000000000000000000e+00,0.000000000000000000e+00,0.000000000000000000e+00,0.000000000000000000e+00,0.000000000000000000e+00,0.000000000000000000e+00,0.000000000000000000e+00,0.000000000000000000e+00,0.000000000000000000e+00,0.000000000000000000e+00,0.000000000000000000e+00,-1.491435859083867221e+01,0.000000000000000000e+00,0.000000000000000000e+00,0.000000000000000000e+00,0.000000000000000000e+00,-2.679889223071761292e-02,-9.384180796491077559e-02,-7.599455307332629583e-02,0.000000000000000000e+00,0.000000000000000000e+00,0.000000000000000000e+00,-2.757601646316765454e+01,-4.291771860668014971e-01,0.000000000000000000e+00,0.000000000000000000e+00,0.000000000000000000e+00,0.000000000000000000e+00,0.000000000000000000e+00,0.000000000000000000e+00,0.000000000000000000e+00,0.000000000000000000e+00,0.000000000000000000e+00,0.000000000000000000e+00,0.000000000000000000e+00,0.000000000000000000e+00,0.000000000000000000e+00,0.000000000000000000e+00,0.000000000000000000e+00,0.000000000000000000e+00,-7.235144322686780427e+00,0.000000000000000000e+00,0.000000000000000000e+00,0.000000000000000000e+00,0.000000000000000000e+00,-1.085297307087118845e+01,0.000000000000000000e+00,-3.668260003824457272e+00,-6.328962993093700362e+00,0.000000000000000000e+00,-1.442789216841866029e+01,0.000000000000000000e+00,-9.872500373707866927e+00,0.000000000000000000e+00,0.000000000000000000e+00,-4.496423861230905428e-01,-7.098143344355846374e+00,0.000000000000000000e+00,-2.944724574321088806e+00,0.000000000000000000e+00,0.000000000000000000e+00,0.000000000000000000e+00,0.000000000000000000e+00,-5.679339968015434614e+00
0.000000000000000000e+00,0.000000000000000000e+00,0.000000000000000000e+00,0.000000000000000000e+00,0.000000000000000000e+00,0.000000000000000000e+00,0.000000000000000000e+00,0.000000000000000000e+00,0.000000000000000000e+00,0.000000000000000000e+00,0.000000000000000000e+00,0.000000000000000000e+00,-1.191353169395156542e+01,-1.194082661123707818e-02,0.000000000000000000e+00,0.000000000000000000e+00,0.000000000000000000e+00,0.000000000000000000e+00,0.000000000000000000e+00,-3.094625470844089232e+00,-1.342988686851291291e+01,0.000000000000000000e+00,0.000000000000000000e+00,0.000000000000000000e+00,0.000000000000000000e+00,0.000000000000000000e+00,0.000000000000000000e+00,-9.288618794008009161e+00,-3.518791553941485795e+00,-2.087566188553939384e+01,-4.849014542106221626e+00,0.000000000000000000e+00,-4.522902248375465284e+00,-2.107426883179128652e+01,-1.414659798733111451e+01,0.000000000000000000e+00,-1.090089560835323290e+01,-2.341150737544871241e+00,-5.874271029611572575e-02,-1.550482491907945892e+01,-9.656893829470396540e+00,-3.552379473523538111e-01,0.000000000000000000e+00,-1.503922802374876788e+01,-1.910289924471184975e+01,-5.633903863129930550e-02,-3.006174702982969960e-01,0.000000000000000000e+00,-5.225746505679532694e-01,0.000000000000000000e+00,-2.865607548812862393e-01,-9.497214744594305813e+00,0.000000000000000000e+00,-3.345067714974983897e+00,-3.619744894421741854e+00,0.000000000000000000e+00,0.000000000000000000e+00,0.000000000000000000e+00,0.000000000000000000e+00,0.000000000000000000e+00,0.000000000000000000e+00,0.000000000000000000e+00,0.000000000000000000e+00,0.000000000000000000e+00,0.000000000000000000e+00,0.000000000000000000e+00,0.000000000000000000e+00,-9.383441626921520395e+00,-4.738310279022383220e+00,0.000000000000000000e+00,0.000000000000000000e+00,0.000000000000000000e+00,-1.260395495692854162e+01,-2.030437713472412614e-02,-9.774312923577628709e+00,-2.446739082768784601e-01,0.000000000000000000e+00,0.000000000000000000e+00,-7.800441129541235696e+00,0.000000000000000000e+00,-3.962314680467079686e+00,-6.356284706691312181e+00,0.000000000000000000e+00,0.000000000000000000e+00,-6.663131852956327705e+00,-7.135939294084080176e-02
0.000000000000000000e+00,0.000000000000000000e+00,0.000000000000000000e+00,0.000000000000000000e+00,0.000000000000000000e+00,0.000000000000000000e+00,0.000000000000000000e+00,0.000000000000000000e+00,0.000000000000000000e+00,0.000000000000000000e+00,0.000000000000000000e+00,0.000000000000000000e+00,-6.338556131296614993e+00,0.000000000000000000e+00,0.000000000000000000e+00,0.000000000000000000e+00,0.000000000000000000e+00,-7.591134446247801426e-01,0.000000000000000000e+00,0.000000000000000000e+00,-3.100838553564623234e-01,-1.742988580527109832e+01,-1.889415940530767912e+01,-1.828522136975313472e+01,-3.786151989073021529e+00,-1.885752995468547866e+01,-1.488901727960419130e+01,-1.277228914982084262e+01,0.000000000000000000e+00,-2.275363684305936829e+01,0.000000000000000000e+00,-4.059911548174575557e+00,-2.507843838239019618e+01,-6.249943721752575954e+00,-7.061545591666502919e-02,-1.251951708202829472e-01,0.000000000000000000e+00,-2.104295621097991287e+01,-3.066582977158208156e-02,-2.912620650470518768e+00,-1.985102966906075739e-01,-3.906443764768884996e+00,0.000000000000000000e+00,-4.577303803303193752e-01,-1.852159425289899630e+01,-9.106912381035268567e+00,-2.083779905746836469e+00,-2.330921048408639198e-03,0.000000000000000000e+00,-2.935426081778159002e+00,0.000000000000000000e+00,-1.225325551338121066e+01,-6.097952532550102056e+00,0.000000000000000000e+00,-5.750977717666548195e+00,-6.323894015639191402e+00,0.000000000000000000e+00,0.000000000000000000e+00,-8.562700272927447287e+00,0.000000000000000000e+00,0.000000000000000000e+00,-1.391713040090066134e+00,0.000000000000000000e+00,-6.774984953353667017e+00,0.000000000000000000e+00,-9.832683805433420687e+00,-4.028042684929832973e+00,-1.528953571365804676e+00,-1.004460927067084874e+01,0.000000000000000000e+00,-9.678739637378237781e-02,-4.348248190513867684e+00,-1.560100903614326207e+01,0.000000000000000000e+00,-9.756176474314493419e+00,-6.727488951457454291e-01,0.000000000000000000e+00,0.000000000000000000e+00,0.000000000000000000e+00,-1.231258749341101755e+01,-1.635334166719155746e+01,-1.182384102278137661e+01,0.000000000000000000e+00,-6.122108773821961059e+00,-9.382795553990399995e+00,-1.536592990846508044e+01
0.000000000000000000e+00,0.000000000000000000e+00,0.000000000000000000e+00,0.000000000000000000e+00,0.000000000000000000e+00,0.000000000000000000e+00,0.000000000000000000e+00,0.000000000000000000e+00,0.000000000000000000e+00,0.000000000000000000e+00,0.000000000000000000e+00,0.000000000000000000e+00,0.000000000000000000e+00,-1.451684881682820283e+01,-1.098635671711462036e+00,0.000000000000000000e+00,0.000000000000000000e+00,-8.684769190991805665e-01,0.000000000000000000e+00,-1.049609749079334087e+01,-2.634932900064049832e+01,-2.016156628682810847e+01,-2.345214889217738019e+01,-1.540491739865090537e+01,-1.755962466265076216e+01,-1.653637164447447105e+01,-2.023420902007311639e+01,-1.779273427197118096e+01,-9.917080498048569837e+00,-2.475458745006451267e+01,-1.951196150398596174e+00,-1.308825342695969418e+01,-2.345471123687329751e+01,-2.747265926173055561e+01,-2.995174223225022203e+01,-2.042243915339958704e+01,-2.914539428369294427e+01,-2.466972395897806081e+01,-2.980887513776555053e+01,-2.476432179423546387e+01,-2.644092671513064374e+01,-2.447936419447724887e+01,0.000000000000000000e+00,-2.589786203491138394e+01,-2.599421137424129213e+01,-1.794474118337436863e+01,-2.314224787437927944e+01,-1.704774427305106954e+01,-2.258906088145594016e+00,-6.395776209719564953e+00,-2.731375106423204002e+01,-1.856368056057212712e+01,-1.435215944656244424e+01,-5.609071718520047156e+00,-1.546577512419408507e+01,-3.691423754584870043e+00,-2.842695983987056252e+00,-1.985759318057310763e-01,-1.090660289573015085e+01,-1.706070770554237281e+00,-6.365663754986435663e+00,-8.194656258071467874e-04,-1.960437223186727862e-01,-3.010632976314997489e-01,0.000000000000000000e+00,-7.553302999341591217e+00,-8.663555570679907447e+00,-1.258611953854462584e+01,-1.776535608425087531e+01,-8.707336885197348053e+00,-9.197546643682638745e+00,-2.732908827775601956e-01,-1.294393537803938266e+01,-1.534441719402100057e+00,-1.339323085828483428e+01,-1.247987119961836910e+01,0.000000000000000000e+00,-4.431287796385637856e-01,-1.796509471525156343e+01,-1.595993174657727032e+01,-1.650257798027096712e+01,-1.839736218983712845e+01,0.000000000000000000e+00,-6.081400018746955460e+00,-2.474606307197628752e+01,-1.740750743531669542e+01
0.000000000000000000e+00,0.000000000000000000e+00,0.000000000000000000e+00,0.000000000000000000e+00,0.000000000000000000e+00,0.000000000000000000e+00,0.000000000000000000e+00,0.000000000000000000e+00,0.000000000000000000e+00,0.000000000000000000e+00,0.000000000000000000e+00,0.000000000000000000e+00,0.000000000000000000e+00,0.000000000000000000e+00,-3.074602404817050161e+00,-2.287960171913722696e-01,0.000000000000000000e+00,0.000000000000000000e+00,0.000000000000000000e+00,0.000000000000000000e+00,0.000000000000000000e+00,-1.686894451980165499e+01,-1.966151065230179285e+01,-2.721805548853806656e+00,-1.569282787021103687e+01,-6.987960301398424834e-01,-8.696212095627824823e+00,-9.064724773032766691e+00,-1.656583987275160652e+01,-1.295398518297345802e+01,-1.909864522595153602e+00,-1.729733810046421572e-02,-2.214377926037432331e+01,0.000000000000000000e+00,0.000000000000000000e+00,0.000000000000000000e+00,-1.504227721833092346e+01,-1.187767204749255257e+01,-1.922430408809901436e+01,-1.040423085539392467e+01,-2.804995059101065635e+01,-1.821273597709119230e+01,0.000000000000000000e+00,-2.131624412916062283e+01,-2.033970309802886334e+01,-1.706078302959896931e+01,-1.529393984171171894e+01,-1.556224513683276101e+01,-2.969221877986221933e-02,-2.513090509056367661e-02,-1.587224351297082592e+01,-1.465873428836703773e+01,0.000000000000000000e+00,-4.824120189517309143e-01,-3.788307205556137980e+00,-3.045150226061818510e-01,-1.938315474891456613e+00,-1.405963683706845879e+00,-6.987178663010766400e+00,-5.866960136594645547e-01,-7.807508823071287019e+00,0.000000000000000000e+00,0.000000000000000000e+00,-2.376445375672047722e-01,0.000000000000000000e+00,-7.307699905797166551e+00,-5.211338900209834257e+00,-6.460382528159226645e+00,-7.777552583761483618e+00,-1.406133992934162358e-01,-2.655673566487283477e+00,-1.712608390818428847e-02,-9.059000701684954748e+00,-2.211856672440950383e-02,-4.078841538793799515e+00,-8.166760042824352084e+00,-1.733385038505920406e+00,-1.435250716403068706e-02,-9.278645403700881644e+00,-1.012290779533107710e+01,-9.848978600240638315e+00,-1.823447468952002737e+01,0.000000000000000000e+00,-3.217048851188492042e-01,0.000000000000000000e+00,-6.622043980484982661e+00
0.000000000000000000e+00,0.000000000000000000e+00,0.000000000000000000e+00,0.000000000000000000e+00,0.000000000000000000e+00,0.000000000000000000e+00,0.000000000000000000e+00,0.000000000000000000e+00,0.000000000000000000e+00,0.000000000000000000e+00,0.000000000000000000e+00,0.000000000000000000e+00,0.000000000000000000e+00,0.000000000000000000e+00,0.000000000000000000e+00,0.000000000000000000e+00,0.000000000000000000e+00,0.000000000000000000e+00,0.000000000000000000e+00,0.000000000000000000e+00,0.000000000000000000e+00,-7.178712437788105083e-01,0.000000000000000000e+00,-1.889181880233431476e+00,0.000000000000000000e+00,-2.561874097759920046e-02,0.000000000000000000e+00,-1.048966185057697054e+01,-1.300267519062351829e+00,-1.522606685493835954e+01,-6.582065453527844667e+00,-3.561850319405272192e+00,-7.586164146452423207e-01,0.000000000000000000e+00,0.000000000000000000e+00,-2.068298153319690635e-01,-6.605005489346261527e+00,-4.091809674046433365e+00,0.000000000000000000e+00,-1.347300042797590081e+00,-2.055410252568485419e+01,-2.158965167033188581e-01,0.000000000000000000e+00,-7.927973185126995226e-01,0.000000000000000000e+00,-3.604823038129784801e-02,-6.966809763508236664e+00,0.000000000000000000e+00,-2.743573371125688443e+00,-3.001643179225306657e+00,-2.279740828719396123e-02,-6.507196833244583090e+00,0.000000000000000000e+00,0.000000000000000000e+00,-7.819301935505393319e-02,0.000000000000000000e+00,0.000000000000000000e+00,0.000000000000000000e+00,-2.068744456115215069e+00,0.000000000000000000e+00,0.000000000000000000e+00,0.000000000000000000e+00,-4.530907054980446880e+00,0.000000000000000000e+00,0.000000000000000000e+00,0.000000000000000000e+00,0.000000000000000000e+00,-6.609648389296128634e+00,0.000000000000000000e+00,-3.700637880936488600e+00,-1.103426422376574045e+01,0.000000000000000000e+00,-8.744020875497488632e+00,0.000000000000000000e+00,-3.518156785856441982e+00,0.000000000000000000e+00,0.000000000000000000e+00,-5.699470939900561639e+00,0.000000000000000000e+00,-3.576627996012829769e+00,-1.111166714287444290e-01,-1.829947131422720830e+01,-3.818035297738047174e+00,0.000000000000000000e+00,-4.737304996965178150e-01,-4.616070740386372662e-01
0.000000000000000000e+00,0.000000000000000000e+00,0.000000000000000000e+00,0.000000000000000000e+00,0.000000000000000000e+00,0.000000000000000000e+00,0.000000000000000000e+00,0.000000000000000000e+00,0.000000000000000000e+00,0.000000000000000000e+00,0.000000000000000000e+00,0.000000000000000000e+00,0.000000000000000000e+00,0.000000000000000000e+00,0.000000000000000000e+00,0.000000000000000000e+00,0.000000000000000000e+00,0.000000000000000000e+00,0.000000000000000000e+00,0.000000000000000000e+00,0.000000000000000000e+00,-7.474583614460917680e+00,0.000000000000000000e+00,-6.994265405334463281e+00,-1.299319128261601675e+00,-8.260633357044323333e+00,0.000000000000000000e+00,-1.363109382865889074e+01,-2.116210674821513038e+01,-1.467856265663460746e+01,-1.109884514372122100e+00,-6.439195835347761410e+00,-2.194747560673480535e+00,0.000000000000000000e+00,0.000000000000000000e+00,-8.628638148655110029e+00,0.000000000000000000e+00,-1.336026676725581730e+01,0.000000000000000000e+00,-9.917143186339212602e-02,-4.661518185435422623e-01,-1.602458298328160780e+01,-2.008723551062443768e-01,-1.861894899011520721e+01,-1.037978248321524966e+00,-1.238807815671975732e+01,-1.503447491237550260e+01,0.000000000000000000e+00,-5.895955664848514743e+00,-3.481123659851957708e+00,0.000000000000000000e+00,-1.192026695029629124e+01,0.000000000000000000e+00,0.000000000000000000e+00,0.000000000000000000e+00,0.000000000000000000e+00,0.000000000000000000e+00,0.000000000000000000e+00,-6.687332127061858422e+00,0.000000000000000000e+00,0.000000000000000000e+00,0.000000000000000000e+00,0.000000000000000000e+00,0.000000000000000000e+00,-2.201873928329425301e-01,-4.247877709857370010e-02,0.000000000000000000e+00,-7.305717464128443916e-01,0.000000000000000000e+00,0.000000000000000000e+00,-1.544181670636061821e+00,0.000000000000000000e+00,-1.195028286644316573e+01,0.000000000000000000e+00,-5.110441682044860379e+00,0.000000000000000000e+00,0.000000000000000000e+00,-4.430923740536191757e-01,0.000000000000000000e+00,-6.483063457755195991e-01,-2.699516903010982238e-01,-1.797440581572463358e+01,-2.649045448074012765e-01,0.000000000000000000e+00,-1.008144734007568388e+01,0.000000000000000000e+00
0.000000000000000000e+00,0.000000000000000000e+00,0.000000000000000000e+00,0.000000000000000000e+00,0.000000000000000000e+00,0.000000000000000000e+00,0.000000000000000000e+00,0.000000000000000000e+00,0.000000000000000000e+00,0.000000000000000000e+00,0.000000000000000000e+00,0.000000000000000000e+00,0.000000000000000000e+00,0.000000000000000000e+00,0.000000000000000000e+00,0.000000000000000000e+00,0.000000000000000000e+00,0.000000000000000000e+00,0.000000000000000000e+00,0.000000000000000000e+00,0.000000000000000000e+00,-1.710798035454017541e+00,-5.960813294037965449e-01,-1.621768867401541359e+00,0.000000000000000000e+00,-1.856684866914916743e+00,0.000000000000000000e+00,-1.197174004129112124e+00,0.000000000000000000e+00,-2.623251049233951360e+00,0.000000000000000000e+00,-1.877592246388083419e-01,-1.020797670070948016e+01,0.000000000000000000e+00,0.000000000000000000e+00,0.000000000000000000e+00,0.000000000000000000e+00,-4.091187940648950416e+00,0.000000000000000000e+00,0.000000000000000000e+00,0.000000000000000000e+00,0.000000000000000000e+00,0.000000000000000000e+00,0.000000000000000000e+00,0.000000000000000000e+00,-1.801138950519469983e-01,0.000000000000000000e+00,-1.878587362521786375e+00,0.000000000000000000e+00,0.000000000000000000e+00,0.000000000000000000e+00,-5.451748467414158084e-02,0.000000000000000000e+00,0.000000000000000000e+00,0.000000000000000000e+00,-2.442656205264183335e-03,-1.877876049764305222e+00,0.000000000000000000e+00,-8.739114956277211022e+00,-1.857198843575662561e-01,0.000000000000000000e+00,-1.551467220972493066e-01,0.000000000000000000e+00,-3.935974333941236192e-01,0.000000000000000000e+00,-1.120342200677151734e+00,0.000000000000000000e+00,0.000000000000000000e+00,0.000000000000000000e+00,0.000000000000000000e+00,-2.387604896062754278e+00,-1.437349019327845701e-01,-3.169397508836847344e+00,0.000000000000000000e+00,-3.450096165648666613e+00,0.000000000000000000e+00,0.000000000000000000e+00,0.000000000000000000e+00,0.000000000000000000e+00,-7.247671686959996862e+00,-9.374702335168562328e+00,-6.027334218794818455e+00,0.000000000000000000e+00,-4.193974928769541144e+00,0.000000000000000000e+00,-4.719433960354151858e-01
0.000000000000000000e+00,0.000000000000000000e+00,0.000000000000000000e+00,0.000000000000000000e+00,0.000000000000000000e+00,0.000000000000000000e+00,0.000000000000000000e+00,0.000000000000000000e+00,0.000000000000000000e+00,0.000000000000000000e+00,0.000000000000000000e+00,0.000000000000000000e+00,0.000000000000000000e+00,0.000000000000000000e+00,0.000000000000000000e+00,0.000000000000000000e+00,0.000000000000000000e+00,0.000000000000000000e+00,0.000000000000000000e+00,-1.808046858487888819e+00,-1.899673332722218078e+01,-1.267959773983847460e-01,0.000000000000000000e+00,-4.355317712656368023e-01,-3.404598028735345672e+00,-6.598418926763434111e-01,-3.708161122067260784e+00,-4.698157724690680048e+00,-4.206153162114892652e+00,-7.425041272964728378e+00,0.000000000000000000e+00,0.000000000000000000e+00,0.000000000000000000e+00,-2.528427729366074317e+01,0.000000000000000000e+00,0.000000000000000000e+00,-2.878527424934611556e+00,-2.221329531585190531e-01,-3.126172340218895229e+00,-1.240837945111976914e+01,-1.236852474860620177e+01,-1.223482387996965137e+01,0.000000000000000000e+00,-4.232038644213658607e+00,-1.830186970597678808e+01,-6.645468926239622043e+00,-1.789915086971825531e+01,-4.912914235342983993e+00,0.000000000000000000e+00,0.000000000000000000e+00,-7.173068792758099832e+00,-2.330083942957801746e+00,0.000000000000000000e+00,-6.462963334857143582e-01,-2.923245351003199044e+00,0.000000000000000000e+00,0.000000000000000000e+00,0.000000000000000000e+00,-4.411722271135446682e+00,0.000000000000000000e+00,0.000000000000000000e+00,0.000000000000000000e+00,0.000000000000000000e+00,0.000000000000000000e+00,0.000000000000000000e+00,-2.255730456068051559e+00,0.000000000000000000e+00,-1.134902041945859352e+01,-3.509379803790550589e+00,0.000000000000000000e+00,-6.856174007437519820e-03,0.000000000000000000e+00,-1.223209130242130449e+01,-3.098719850057708725e-02,-7.788116196450277862e+00,-6.340078920939006935e+00,0.000000000000000000e+00,0.000000000000000000e+00,-7.084679267978995831e+00,-3.220292287534006981e+00,-5.938331123607576423e+00,-9.671679098744176528e+00,0.000000000000000000e+00,0.000000000000000000e+00,-4.090805181994664252e+00,0.000000000000000000e+00
0.000000000000000000e+00,0.000000000000000000e+00,0.000000000000000000e+00,0.000000000000000000e+00,0.000000000000000000e+00,0.000000000000000000e+00,0.000000000000000000e+00,0.000000000000000000e+00,0.000000000000000000e+00,0.000000000000000000e+00,0.000000000000000000e+00,0.000000000000000000e+00,0.000000000000000000e+00,0.000000000000000000e+00,0.000000000000000000e+00,0.000000000000000000e+00,0.000000000000000000e+00,0.000000000000000000e+00,0.000000000000000000e+00,0.000000000000000000e+00,0.000000000000000000e+00,0.000000000000000000e+00,0.000000000000000000e+00,0.000000000000000000e+00,0.000000000000000000e+00,0.000000000000000000e+00,0.000000000000000000e+00,0.000000000000000000e+00,0.000000000000000000e+00,0.000000000000000000e+00,0.000000000000000000e+00,0.000000000000000000e+00,0.000000000000000000e+00,0.000000000000000000e+00,0.000000000000000000e+00,0.000000000000000000e+00,0.000000000000000000e+00,0.000000000000000000e+00,0.000000000000000000e+00,0.000000000000000000e+00,0.000000000000000000e+00,0.000000000000000000e+00,0.000000000000000000e+00,-8.035744425456493867e-03,-2.547163475415316625e-01,0.000000000000000000e+00,0.000000000000000000e+00,0.000000000000000000e+00,0.000000000000000000e+00,0.000000000000000000e+00,0.000000000000000000e+00,0.000000000000000000e+00,0.000000000000000000e+00,0.000000000000000000e+00,0.000000000000000000e+00,0.000000000000000000e+00,0.000000000000000000e+00,0.000000000000000000e+00,0.000000000000000000e+00,0.000000000000000000e+00,0.000000000000000000e+00,0.000000000000000000e+00,0.000000000000000000e+00,0.000000000000000000e+00,0.000000000000000000e+00,0.000000000000000000e+00,0.000000000000000000e+00,-1.683218268501807460e-02,0.000000000000000000e+00,0.000000000000000000e+00,0.000000000000000000e+00,0.000000000000000000e+00,-4.565138336077951831e-01,0.000000000000000000e+00,0.000000000000000000e+00,0.000000000000000000e+00,0.000000000000000000e+00,0.000000000000000000e+00,0.000000000000000000e+00,-2.429795571878147209e-01,0.000000000000000000e+00,-6.663994670296822243e+00,0.000000000000000000e+00,0.000000000000000000e+00,0.000000000000000000e+00,0.000000000000000000e+00
0.000000000000000000e+00,0.000000000000000000e+00,0.000000000000000000e+00,0.000000000000000000e+00,0.000000000000000000e+00,0.000000000000000000e+00,0.000000000000000000e+00,0.000000000000000000e+00,0.000000000000000000e+00,0.000000000000000000e+00,0.000000000000000000e+00,0.000000000000000000e+00,0.000000000000000000e+00,0.000000000000000000e+00,0.000000000000000000e+00,0.000000000000000000e+00,0.000000000000000000e+00,0.000000000000000000e+00,0.000000000000000000e+00,0.000000000000000000e+00,0.000000000000000000e+00,0.000000000000000000e+00,0.000000000000000000e+00,0.000000000000000000e+00,0.000000000000000000e+00,0.000000000000000000e+00,0.000000000000000000e+00,-4.384393579499476501e-01,0.000000000000000000e+00,0.000000000000000000e+00,0.000000000000000000e+00,0.000000000000000000e+00,0.000000000000000000e+00,0.000000000000000000e+00,-1.142040507349023903e-01,0.000000000000000000e+00,0.000000000000000000e+00,-2.706424432227347646e-02,0.000000000000000000e+00,0.000000000000000000e+00,0.000000000000000000e+00,0.000000000000000000e+00,0.000000000000000000e+00,0.000000000000000000e+00,0.000000000000000000e+00,0.000000000000000000e+00,-4.326671141037910506e-01,0.000000000000000000e+00,0.000000000000000000e+00,0.000000000000000000e+00,0.000000000000000000e+00,0.000000000000000000e+00,0.000000000000000000e+00,0.000000000000000000e+00,0.000000000000000000e+00,0.000000000000000000e+00,0.000000000000000000e+00,0.000000000000000000e+00,0.000000000000000000e+00,0.000000000000000000e+00,0.000000000000000000e+00,0.000000000000000000e+00,0.000000000000000000e+00,0.000000000000000000e+00,0.000000000000000000e+00,0.000000000000000000e+00,0.000000000000000000e+00,0.000000000000000000e+00,-9.604906125558223096e+00,0.000000000000000000e+00,0.000000000000000000e+00,0.000000000000000000e+00,0.000000000000000000e+00,0.000000000000000000e+00,0.000000000000000000e+00,0.000000000000000000e+00,0.000000000000000000e+00,0.000000000000000000e+00,0.000000000000000000e+00,-8.264361955767712820e-01,0.000000000000000000e+00,0.000000000000000000e+00,0.000000000000000000e+00,0.000000000000000000e+00,0.000000000000000000e+00,-1.054486214397218458e+00
0.000000000000000000e+00,0.000000000000000000e+00,0.000000000000000000e+00,0.000000000000000000e+00,0.000000000000000000e+00,0.000000000000000000e+00,0.000000000000000000e+00,0.000000000000000000e+00,0.000000000000000000e+00,0.000000000000000000e+00,0.000000000000000000e+00,0.000000000000000000e+00,0.000000000000000000e+00,0.000000000000000000e+00,0.000000000000000000e+00,0.000000000000000000e+00,0.000000000000000000e+00,0.000000000000000000e+00,0.000000000000000000e+00,0.000000000000000000e+00,0.000000000000000000e+00,0.000000000000000000e+00,-4.123678855255314551e-02,0.000000000000000000e+00,0.000000000000000000e+00,0.000000000000000000e+00,-4.858946845500768941e-01,0.000000000000000000e+00,-8.707077582244224789e-01,0.000000000000000000e+00,-9.357492681314281274e-03,0.000000000000000000e+00,0.000000000000000000e+00,0.000000000000000000e+00,-4.857311500082550637e-01,-1.170088214298390938e-01,-2.448429424871217952e-02,0.000000000000000000e+00,0.000000000000000000e+00,0.000000000000000000e+00,-1.339986924081566944e+00,0.000000000000000000e+00,0.000000000000000000e+00,0.000000000000000000e+00,-1.372508791339619762e-02,0.000000000000000000e+00,-2.446931691012586840e-02,0.000000000000000000e+00,0.000000000000000000e+00,0.000000000000000000e+00,0.000000000000000000e+00,-1.727069514526077265e-01,0.000000000000000000e+00,-2.717208012401851613e-01,-2.243252461788308594e+01,0.000000000000000000e+00,0.000000000000000000e+00,-1.589829447597720780e+01,-2.390171654684945679e+01,-1.890810196262963316e+01,0.000000000000000000e+00,0.000000000000000000e+00,0.000000000000000000e+00,0.000000000000000000e+00,-8.054562408659631245e-01,-2.019458965788350824e+01,0.000000000000000000e+00,-6.724273582495079005e+00,-2.870786537062553379e+01,-7.320721790680271290e+00,-1.991320025780365199e+01,0.000000000000000000e+00,-6.288631795715284412e+00,-5.739399835383254822e-02,-2.398974550922568127e+01,0.000000000000000000e+00,0.000000000000000000e+00,-1.586064242572363092e+01,-1.926596676698390098e+01,-2.262226728899173978e+01,-2.896054394697108236e+01,-9.921445267537460921e+00,-3.378266998039507474e-01,0.000000000000000000e+00,0.000000000000000000e+00,-2.331508963277541824e+01
0.000000000000000000e+00,0.000000000000000000e+00,0.000000000000000000e+00,0.000000000000000000e+00,0.000000000000000000e+00,0.000000000000000000e+00,0.000000000000000000e+00,0.000000000000000000e+00,0.000000000000000000e+00,0.000000000000000000e+00,0.000000000000000000e+00,0.000000000000000000e+00,0.000000000000000000e+00,0.000000000000000000e+00,0.000000000000000000e+00,0.000000000000000000e+00,0.000000000000000000e+00,0.000000000000000000e+00,0.000000000000000000e+00,0.000000000000000000e+00,0.000000000000000000e+00,0.000000000000000000e+00,0.000000000000000000e+00,0.000000000000000000e+00,0.000000000000000000e+00,0.000000000000000000e+00,0.000000000000000000e+00,0.000000000000000000e+00,-2.844956456981480031e-01,0.000000000000000000e+00,-4.476917781667719143e-02,0.000000000000000000e+00,0.000000000000000000e+00,0.000000000000000000e+00,0.000000000000000000e+00,-2.338454426143661835e-01,0.000000000000000000e+00,0.000000000000000000e+00,0.000000000000000000e+00,-2.232578939993650965e-02,0.000000000000000000e+00,0.000000000000000000e+00,0.000000000000000000e+00,-1.257681895564518593e-01,0.000000000000000000e+00,0.000000000000000000e+00,0.000000000000000000e+00,0.000000000000000000e+00,-1.910485108739924665e-01,0.000000000000000000e+00,0.000000000000000000e+00,-1.365446431382226489e-02,0.000000000000000000e+00,0.000000000000000000e+00,0.000000000000000000e+00,0.000000000000000000e+00,0.000000000000000000e+00,0.000000000000000000e+00,0.000000000000000000e+00,-3.975439155755972759e-02,0.000000000000000000e+00,0.000000000000000000e+00,-1.376108498036082395e+01,0.000000000000000000e+00,-8.001216262395608680e+00,-1.037041417492990964e-03,0.000000000000000000e+00,0.000000000000000000e+00,0.000000000000000000e+00,-1.036057763368228990e+01,-8.752580774940623698e+00,0.000000000000000000e+00,0.000000000000000000e+00,0.000000000000000000e+00,0.000000000000000000e+00,0.000000000000000000e+00,0.000000000000000000e+00,-6.708997061344089019e+00,0.000000000000000000e+00,0.000000000000000000e+00,-4.994213455617253494e+00,0.000000000000000000e+00,-1.529555275832749572e+01,-9.686104773443448224e+00,0.000000000000000000e+00,-1.331502707251952522e+01
0.000000000000000000e+00,0.000000000000000000e+00,0.000000000000000000e+00,0.000000000000000000e+00,0.000000000000000000e+00,0.000000000000000000e+00,0.000000000000000000e+00,0.000000000000000000e+00,0.000000000000000000e+00,0.000000000000000000e+00,0.000000000000000000e+00,0.000000000000000000e+00,0.000000000000000000e+00,0.000000000000000000e+00,0.000000000000000000e+00,0.000000000000000000e+00,0.000000000000000000e+00,0.000000000000000000e+00,0.000000000000000000e+00,0.000000000000000000e+00,0.000000000000000000e+00,0.000000000000000000e+00,0.000000000000000000e+00,0.000000000000000000e+00,0.000000000000000000e+00,0.000000000000000000e+00,0.000000000000000000e+00,0.000000000000000000e+00,0.000000000000000000e+00,0.000000000000000000e+00,0.000000000000000000e+00,0.000000000000000000e+00,0.000000000000000000e+00,0.000000000000000000e+00,-6.731844263828160035e-02,-1.564554633543764270e-02,0.000000000000000000e+00,0.000000000000000000e+00,0.000000000000000000e+00,0.000000000000000000e+00,0.000000000000000000e+00,0.000000000000000000e+00,0.000000000000000000e+00,-2.540836100136182329e-01,0.000000000000000000e+00,0.000000000000000000e+00,0.000000000000000000e+00,0.000000000000000000e+00,0.000000000000000000e+00,0.000000000000000000e+00,0.000000000000000000e+00,0.000000000000000000e+00,0.000000000000000000e+00,0.000000000000000000e+00,0.000000000000000000e+00,0.000000000000000000e+00,0.000000000000000000e+00,0.000000000000000000e+00,0.000000000000000000e+00,0.000000000000000000e+00,0.000000000000000000e+00,0.000000000000000000e+00,-1.064332645179948500e+01,0.000000000000000000e+00,-3.201041225191636475e-02,0.000000000000000000e+00,0.000000000000000000e+00,0.000000000000000000e+00,0.000000000000000000e+00,0.000000000000000000e+00,-1.001243112655084566e+01,0.000000000000000000e+00,-4.110521917399172942e+00,0.000000000000000000e+00,-2.353594342204746326e+01,0.000000000000000000e+00,0.000000000000000000e+00,-7.299099488114608292e+00,0.000000000000000000e+00,0.000000000000000000e+00,-1.563315874034280739e+00,-3.716251884401987837e+00,0.000000000000000000e+00,0.000000000000000000e+00,0.000000000000000000e+00,-1.764183956224720617e+01
0.000000000000000000e+00,0.000000000000000000e+00,0.000000000000000000e+00,0.000000000000000000e+00,0.000000000000000000e+00,0.000000000000000000e+00,0.000000000000000000e+00,0.000000000000000000e+00,0.000000000000000000e+00,0.000000000000000000e+00,0.000000000000000000e+00,0.000000000000000000e+00,0.000000000000000000e+00,0.000000000000000000e+00,0.000000000000000000e+00,0.000000000000000000e+00,0.000000000000000000e+00,0.000000000000000000e+00,0.000000000000000000e+00,0.000000000000000000e+00,0.000000000000000000e+00,0.000000000000000000e+00,0.000000000000000000e+00,0.000000000000000000e+00,0.000000000000000000e+00,0.000000000000000000e+00,0.000000000000000000e+00,0.000000000000000000e+00,-3.658515110165665996e-01,0.000000000000000000e+00,0.000000000000000000e+00,0.000000000000000000e+00,0.000000000000000000e+00,0.000000000000000000e+00,-2.476546114473720042e-02,-3.547400088385457284e-01,-2.420696422318640087e-02,0.000000000000000000e+00,0.000000000000000000e+00,0.000000000000000000e+00,0.000000000000000000e+00,0.000000000000000000e+00,0.000000000000000000e+00,0.000000000000000000e+00,0.000000000000000000e+00,0.000000000000000000e+00,0.000000000000000000e+00,0.000000000000000000e+00,0.000000000000000000e+00,0.000000000000000000e+00,0.000000000000000000e+00,0.000000000000000000e+00,0.000000000000000000e+00,0.000000000000000000e+00,-3.918791273128620078e-01,0.000000000000000000e+00,0.000000000000000000e+00,0.000000000000000000e+00,0.000000000000000000e+00,-9.649263926003671443e+00,0.000000000000000000e+00,0.000000000000000000e+00,-1.265979485724370868e+01,0.000000000000000000e+00,-1.620921983548844869e+00,-1.062824329541892077e+01,-1.412755270640124072e+00,-2.245360208681013159e-01,-2.294058564643569298e+01,0.000000000000000000e+00,-4.931103515123655967e+00,0.000000000000000000e+00,-4.399974097340604295e+00,0.000000000000000000e+00,-1.409641922885083076e+01,0.000000000000000000e+00,-2.087035979156666790e-02,-9.031522190087784452e+00,-1.964063676714409468e+01,0.000000000000000000e+00,-6.222193464682503006e+00,-2.842152596232922157e+00,-9.478239237363929703e+00,-4.920660613463232025e+00,-3.535315186956608624e+00,-1.194204794818666393e+01
0.000000000000000000e+00,0.000000000000000000e+00,0.000000000000000000e+00,0.000000000000000000e+00,0.000000000000000000e+00,0.000000000000000000e+00,0.000000000000000000e+00,0.000000000000000000e+00,0.000000000000000000e+00,0.000000000000000000e+00,0.000000000000000000e+00,0.000000000000000000e+00,0.000000000000000000e+00,0.000000000000000000e+00,0.000000000000000000e+00,0.000000000000000000e+00,0.000000000000000000e+00,0.000000000000000000e+00,0.000000000000000000e+00,0.000000000000000000e+00,0.000000000000000000e+00,0.000000000000000000e+00,0.000000000000000000e+00,0.000000000000000000e+00,0.000000000000000000e+00,0.000000000000000000e+00,0.000000000000000000e+00,0.000000000000000000e+00,-1.914673679414435059e-01,0.000000000000000000e+00,0.000000000000000000e+00,0.000000000000000000e+00,0.000000000000000000e+00,0.000000000000000000e+00,0.000000000000000000e+00,-1.256164668297411746e-01,-4.347387475150062824e-02,0.000000000000000000e+00,0.000000000000000000e+00,0.000000000000000000e+00,0.000000000000000000e+00,0.000000000000000000e+00,0.000000000000000000e+00,0.000000000000000000e+00,-1.224094783031357166e-02,0.000000000000000000e+00,0.000000000000000000e+00,0.000000000000000000e+00,0.000000000000000000e+00,0.000000000000000000e+00,0.000000000000000000e+00,0.000000000000000000e+00,0.000000000000000000e+00,0.000000000000000000e+00,-1.396607961138313492e+01,0.000000000000000000e+00,0.000000000000000000e+00,0.000000000000000000e+00,-5.712696504345752407e-02,0.000000000000000000e+00,0.000000000000000000e+00,0.000000000000000000e+00,0.000000000000000000e+00,-5.984816668979425075e-02,0.000000000000000000e+00,-9.643715637603561541e-02,0.000000000000000000e+00,-2.049791337548759543e-02,0.000000000000000000e+00,0.000000000000000000e+00,-1.049181270416050360e+01,0.000000000000000000e+00,-7.731230865267216812e-01,0.000000000000000000e+00,-1.982646947822638595e+01,0.000000000000000000e+00,0.000000000000000000e+00,-7.685617782690639999e+00,-1.644352914183490455e+01,0.000000000000000000e+00,-1.808901866860101793e+00,-1.387734380732934092e+00,0.000000000000000000e+00,0.000000000000000000e+00,-6.419563059474821642e+00,-5.467417908554258688e+00
0.000000000000000000e+00,0.000000000000000000e+00,0.000000000000000000e+00,0.000000000000000000e+00,0.000000000000000000e+00,0.000000000000000000e+00,0.000000000000000000e+00,0.000000000000000000e+00,0.000000000000000000e+00,0.000000000000000000e+00,0.000000000000000000e+00,0.000000000000000000e+00,0.000000000000000000e+00,0.000000000000000000e+00,0.000000000000000000e+00,0.000000000000000000e+00,0.000000000000000000e+00,0.000000000000000000e+00,0.000000000000000000e+00,0.000000000000000000e+00,0.000000000000000000e+00,0.000000000000000000e+00,0.000000000000000000e+00,0.000000000000000000e+00,0.000000000000000000e+00,0.000000000000000000e+00,0.000000000000000000e+00,0.000000000000000000e+00,-6.537822976704653621e-01,0.000000000000000000e+00,0.000000000000000000e+00,0.000000000000000000e+00,0.000000000000000000e+00,0.000000000000000000e+00,-1.634546775475332336e-01,0.000000000000000000e+00,0.000000000000000000e+00,0.000000000000000000e+00,0.000000000000000000e+00,0.000000000000000000e+00,0.000000000000000000e+00,0.000000000000000000e+00,0.000000000000000000e+00,0.000000000000000000e+00,-3.967254245357906134e-02,0.000000000000000000e+00,0.000000000000000000e+00,0.000000000000000000e+00,-5.421338122727869385e-02,0.000000000000000000e+00,0.000000000000000000e+00,0.000000000000000000e+00,0.000000000000000000e+00,-3.562704127192938830e-01,-1.491951971458758663e+01,0.000000000000000000e+00,-3.075024432385851103e-01,-5.977764279118784607e+00,0.000000000000000000e+00,-6.067819863128304902e+00,0.000000000000000000e+00,0.000000000000000000e+00,-1.901197592714622076e+01,-1.554270705118341450e-02,-1.272575242976260412e+01,-1.315892437632756717e+01,-1.074785785115357051e+01,-8.532589647402129884e+00,-1.896497998422427500e+01,0.000000000000000000e+00,0.000000000000000000e+00,0.000000000000000000e+00,-7.685207043759911372e+00,0.000000000000000000e+00,-2.140672699873642415e+01,0.000000000000000000e+00,-2.947100634027600918e+00,-9.260784686766385221e+00,-1.314261655891953140e+01,0.000000000000000000e+00,-1.469868247062198918e+01,-7.293847812302761469e+00,-9.872483559758968852e+00,-7.408250993393806105e+00,0.000000000000000000e+00,-1.205163943034710705e+01
0.000000000000000000e+00,0.000000000000000000e+00,0.000000000000000000e+00,0.000000000000000000e+00,0.000000000000000000e+00,0.000000000000000000e+00,0.000000000000000000e+00,0.000000000000000000e+00,0.000000000000000000e+00,0.000000000000000000e+00,0.000000000000000000e+00,0.000000000000000000e+00,0.000000000000000000e+00,0.000000000000000000e+00,0.000000000000000000e+00,0.000000000000000000e+00,0.000000000000000000e+00,0.000000000000000000e+00,0.000000000000000000e+00,0.000000000000000000e+00,0.000000000000000000e+00,0.000000000000000000e+00,0.000000000000000000e+00,0.000000000000000000e+00,0.000000000000000000e+00,0.000000000000000000e+00,0.000000000000000000e+00,0.000000000000000000e+00,0.000000000000000000e+00,0.000000000000000000e+00,0.000000000000000000e+00,0.000000000000000000e+00,0.000000000000000000e+00,0.000000000000000000e+00,-3.672565841725579372e-02,0.000000000000000000e+00,0.000000000000000000e+00,0.000000000000000000e+00,0.000000000000000000e+00,0.000000000000000000e+00,-3.938652913624899332e-01,0.000000000000000000e+00,0.000000000000000000e+00,-2.365494559018007370e-01,0.000000000000000000e+00,0.000000000000000000e+00,0.000000000000000000e+00,0.000000000000000000e+00,0.000000000000000000e+00,0.000000000000000000e+00,0.000000000000000000e+00,0.000000000000000000e+00,0.000000000000000000e+00,0.000000000000000000e+00,-6.108762225483750363e+00,0.000000000000000000e+00,0.000000000000000000e+00,0.000000000000000000e+00,0.000000000000000000e+00,0.000000000000000000e+00,0.000000000000000000e+00,0.000000000000000000e+00,-7.816811320525956397e+00,0.000000000000000000e+00,0.000000000000000000e+00,0.000000000000000000e+00,0.000000000000000000e+00,0.000000000000000000e+00,-9.539099064526729066e+00,-8.013035391798572604e+00,-6.133760944263263681e+00,0.000000000000000000e+00,-5.245840754364963665e+00,0.000000000000000000e+00,-7.241369852754377945e+00,0.000000000000000000e+00,0.000000000000000000e+00,-9.112845110938497584e+00,0.000000000000000000e+00,0.000000000000000000e+00,-1.046075754453053364e+01,-3.098125142945944877e+00,-5.090047672056092765e+00,0.000000000000000000e+00,-1.719785859862740240e+00,-1.196740504267190630e+01
0.000000000000000000e+00,0.000000000000000000e+00,0.000000000000000000e+00,0.000000000000000000e+00,0.000000000000000000e+00,0.000000000000000000e+00,0.000000000000000000e+00,0.000000000000000000e+00,0.000000000000000000e+00,0.000000000000000000e+00,0.000000000000000000e+00,0.000000000000000000e+00,0.000000000000000000e+00,0.000000000000000000e+00,0.000000000000000000e+00,0.000000000000000000e+00,0.000000000000000000e+00,0.000000000000000000e+00,0.000000000000000000e+00,0.000000000000000000e+00,0.000000000000000000e+00,0.000000000000000000e+00,0.000000000000000000e+00,0.000000000000000000e+00,0.000000000000000000e+00,0.000000000000000000e+00,0.000000000000000000e+00,0.000000000000000000e+00,-1.035257812631239505e+00,0.000000000000000000e+00,-4.903349676271015305e-03,0.000000000000000000e+00,0.000000000000000000e+00,-5.407621876342135619e-03,-5.728602689946656890e-01,-1.030980158769953192e+00,-2.681452538477488434e-01,0.000000000000000000e+00,0.000000000000000000e+00,-3.989353679757631221e-01,0.000000000000000000e+00,-1.265519907672382205e-01,-5.167597649512977176e-01,-3.995888905082840559e-01,-9.621117322171752750e-01,0.000000000000000000e+00,0.000000000000000000e+00,0.000000000000000000e+00,-1.198047483276919872e-02,0.000000000000000000e+00,0.000000000000000000e+00,-9.768953870259178274e-02,0.000000000000000000e+00,-1.767725129661685379e+00,-1.036910781623384992e+01,0.000000000000000000e+00,0.000000000000000000e+00,0.000000000000000000e+00,0.000000000000000000e+00,0.000000000000000000e+00,0.000000000000000000e+00,0.000000000000000000e+00,-2.030207913481899240e+01,0.000000000000000000e+00,-2.239506108294505804e+00,-7.563664498241715606e-01,0.000000000000000000e+00,0.000000000000000000e+00,0.000000000000000000e+00,-5.395106990016428128e+00,-1.035165665034442206e+01,0.000000000000000000e+00,-4.642102910587763809e+00,0.000000000000000000e+00,0.000000000000000000e+00,0.000000000000000000e+00,-1.344944401159625880e+00,-1.311946006024008149e+01,-4.541368090369336308e+00,0.000000000000000000e+00,0.000000000000000000e+00,-5.955486259169560981e+00,-1.191973368799956745e+01,-1.165847495993423344e+01,-7.846491205144299208e-01,-1.667838843374603641e+01
0.000000000000000000e+00,0.000000000000000000e+00,0.000000000000000000e+00,0.000000000000000000e+00,0.000000000000000000e+00,0.000000000000000000e+00,0.000000000000000000e+00,0.000000000000000000e+00,0.000000000000000000e+00,0.000000000000000000e+00,0.000000000000000000e+00,0.000000000000000000e+00,0.000000000000000000e+00,0.000000000000000000e+00,0.000000000000000000e+00,0.000000000000000000e+00,0.000000000000000000e+00,0.000000000000000000e+00,0.000000000000000000e+00,0.000000000000000000e+00,0.000000000000000000e+00,0.000000000000000000e+00,0.000000000000000000e+00,0.000000000000000000e+00,0.000000000000000000e+00,0.000000000000000000e+00,0.000000000000000000e+00,0.000000000000000000e+00,0.000000000000000000e+00,-1.161868749283690549e+00,0.000000000000000000e+00,-3.208210615768083973e-01,-1.529095281210707813e-01,0.000000000000000000e+00,0.000000000000000000e+00,0.000000000000000000e+00,0.000000000000000000e+00,-6.657577481763129468e-01,0.000000000000000000e+00,0.000000000000000000e+00,-1.256820193859351648e-02,0.000000000000000000e+00,0.000000000000000000e+00,0.000000000000000000e+00,0.000000000000000000e+00,0.000000000000000000e+00,0.000000000000000000e+00,0.000000000000000000e+00,0.000000000000000000e+00,0.000000000000000000e+00,0.000000000000000000e+00,0.000000000000000000e+00,0.000000000000000000e+00,0.000000000000000000e+00,0.000000000000000000e+00,-3.138074507751765552e+00,-1.165131181591294940e+01,-1.267945385300051520e+01,-2.778256112507813569e+00,-1.169642258845279770e+01,-1.848864747829509048e+00,-8.262576170007381648e+00,0.000000000000000000e+00,-1.336088760890097538e+00,0.000000000000000000e+00,-6.648536585403395094e+00,-1.250149670918871525e+00,-8.252615037611098714e+00,0.000000000000000000e+00,-3.509699758704548089e-01,-1.886131948721315510e+00,-1.336115887326323748e-01,-1.682684640986393987e+01,0.000000000000000000e+00,-1.764506791645336392e+01,-7.210986413996322675e+00,0.000000000000000000e+00,0.000000000000000000e+00,0.000000000000000000e+00,-4.250358199593994080e+00,-1.958753318195364201e+01,-1.809449026755823198e+01,0.000000000000000000e+00,-1.222207250422617086e+01,0.000000000000000000e+00,-1.651387290324622015e+01
0.000000000000000000e+00,0.000000000000000000e+00,0.000000000000000000e+00,0.000000000000000000e+00,0.000000000000000000e+00,0.000000000000000000e+00,0.000000000000000000e+00,0.000000000000000000e+00,0.000000000000000000e+00,0.000000000000000000e+00,0.000000000000000000e+00,0.000000000000000000e+00,0.000000000000000000e+00,0.000000000000000000e+00,0.000000000000000000e+00,0.000000000000000000e+00,0.000000000000000000e+00,0.000000000000000000e+00,0.000000000000000000e+00,0.000000000000000000e+00,0.000000000000000000e+00,0.000000000000000000e+00,0.000000000000000000e+00,0.000000000000000000e+00,0.000000000000000000e+00,0.000000000000000000e+00,0.000000000000000000e+00,0.000000000000000000e+00,0.000000000000000000e+00,0.000000000000000000e+00,-1.383785953659731338e-01,0.000000000000000000e+00,0.000000000000000000e+00,0.000000000000000000e+00,-6.268018020588970174e-01,-1.050273628818094940e+00,-5.356950661605148767e-01,0.000000000000000000e+00,0.000000000000000000e+00,-5.217434463997361327e-01,0.000000000000000000e+00,0.000000000000000000e+00,-8.113244809680384417e-01,-8.418789643592392569e-01,-1.875865851746797874e+00,0.000000000000000000e+00,0.000000000000000000e+00,-9.050788115066737305e+00,-1.719074225362518527e-02,0.000000000000000000e+00,0.000000000000000000e+00,-2.783722713380524239e-01,0.000000000000000000e+00,-2.636981746943117155e+00,0.000000000000000000e+00,0.000000000000000000e+00,0.000000000000000000e+00,0.000000000000000000e+00,-6.488421434892983029e-03,-1.353227594466485684e+01,0.000000000000000000e+00,0.000000000000000000e+00,-1.731310239778696669e+01,0.000000000000000000e+00,-4.455188733484496844e+00,-1.013972082576284350e+01,-1.179019790760342357e+00,0.000000000000000000e+00,0.000000000000000000e+00,-9.772489966602510236e+00,-8.493736130410544760e+00,0.000000000000000000e+00,0.000000000000000000e+00,0.000000000000000000e+00,0.000000000000000000e+00,0.000000000000000000e+00,-4.260045652966778285e+00,-1.115413687727099301e+01,-1.332205822608457346e+01,0.000000000000000000e+00,-5.927004951953743550e+00,0.000000000000000000e+00,-1.486257664016618563e+01,-1.869238943148749854e+01,0.000000000000000000e+00,-1.923169878477150618e+01
0.000000000000000000e+00,0.000000000000000000e+00,0.000000000000000000e+00,0.000000000000000000e+00,0.000000000000000000e+00,0.000000000000000000e+00,0.000000000000000000e+00,0.000000000000000000e+00,0.000000000000000000e+00,0.000000000000000000e+00,0.000000000000000000e+00,0.000000000000000000e+00,0.000000000000000000e+00,0.000000000000000000e+00,0.000000000000000000e+00,0.000000000000000000e+00,0.000000000000000000e+00,0.000000000000000000e+00,0.000000000000000000e+00,0.000000000000000000e+00,0.000000000000000000e+00,0.000000000000000000e+00,0.000000000000000000e+00,0.000000000000000000e+00,0.000000000000000000e+00,0.000000000000000000e+00,0.000000000000000000e+00,0.000000000000000000e+00,0.000000000000000000e+00,0.000000000000000000e+00,0.000000000000000000e+00,0.000000000000000000e+00,0.000000000000000000e+00,0.000000000000000000e+00,0.000000000000000000e+00,-2.360448114333850086e-02,0.000000000000000000e+00,-3.166691387342565056e-01,0.000000000000000000e+00,0.000000000000000000e+00,0.000000000000000000e+00,0.000000000000000000e+00,0.000000000000000000e+00,0.000000000000000000e+00,0.000000000000000000e+00,0.000000000000000000e+00,0.000000000000000000e+00,0.000000000000000000e+00,0.000000000000000000e+00,0.000000000000000000e+00,-2.867024898442247643e-02,0.000000000000000000e+00,0.000000000000000000e+00,0.000000000000000000e+00,0.000000000000000000e+00,0.000000000000000000e+00,-2.156219534976616448e+00,-3.763489526833461302e-02,-8.989013919585058687e+00,-5.109821617644208835e+00,0.000000000000000000e+00,0.000000000000000000e+00,0.000000000000000000e+00,-2.185360526971734885e+00,0.000000000000000000e+00,-8.622030498961990475e+00,0.000000000000000000e+00,0.000000000000000000e+00,0.000000000000000000e+00,0.000000000000000000e+00,-9.128934718508077140e-01,0.000000000000000000e+00,-4.657539859700329465e+00,0.000000000000000000e+00,-1.690312633998168934e+01,0.000000000000000000e+00,0.000000000000000000e+00,0.000000000000000000e+00,0.000000000000000000e+00,-9.580389742597487768e+00,-1.878634878356510285e+01,-4.580555230984175275e+00,0.000000000000000000e+00,-6.778261323266090876e+00,0.000000000000000000e+00,-3.348564586321118419e+00
0.000000000000000000e+00,0.000000000000000000e+00,0.000000000000000000e+00,0.000000000000000000e+00,0.000000000000000000e+00,0.000000000000000000e+00,0.000000000000000000e+00,0.000000000000000000e+00,0.000000000000000000e+00,0.000000000000000000e+00,0.000000000000000000e+00,0.000000000000000000e+00,0.000000000000000000e+00,0.000000000000000000e+00,0.000000000000000000e+00,0.000000000000000000e+00,0.000000000000000000e+00,0.000000000000000000e+00,0.000000000000000000e+00,0.000000000000000000e+00,0.000000000000000000e+00,0.000000000000000000e+00,0.000000000000000000e+00,0.000000000000000000e+00,0.000000000000000000e+00,0.000000000000000000e+00,0.000000000000000000e+00,0.000000000000000000e+00,0.000000000000000000e+00,0.000000000000000000e+00,0.000000000000000000e+00,0.000000000000000000e+00,0.000000000000000000e+00,0.000000000000000000e+00,-5.848108211949726992e-02,0.000000000000000000e+00,0.000000000000000000e+00,0.000000000000000000e+00,0.000000000000000000e+00,-2.366018996467783575e-01,0.000000000000000000e+00,0.000000000000000000e+00,0.000000000000000000e+00,-2.106756496466344331e-01,-3.787050857319341213e-01,0.000000000000000000e+00,0.000000000000000000e+00,0.000000000000000000e+00,0.000000000000000000e+00,0.000000000000000000e+00,0.000000000000000000e+00,-1.081728196324772684e-01,-2.469007721809685432e-02,0.000000000000000000e+00,-1.337697967546653821e+01,-5.966146396748452041e+00,-6.159830390127401856e+00,-5.901409023709452306e+00,0.000000000000000000e+00,-7.878960384823561647e+00,0.000000000000000000e+00,-8.861477703153221697e+00,-1.062282339448969459e+01,-9.886952008256105984e+00,-1.972980914654390572e-01,-1.100263020745432563e+01,-5.060214192532939137e+00,0.000000000000000000e+00,0.000000000000000000e+00,0.000000000000000000e+00,0.000000000000000000e+00,-4.996420423383822751e-01,-4.292085206078104953e+00,0.000000000000000000e+00,-1.529421990851567514e+01,-2.566988230469787954e-02,0.000000000000000000e+00,-2.018478405627805472e+01,-8.619042742855267392e+00,-3.314304786936870389e-02,-1.163823382583881028e+01,-4.121163708579034690e+00,-1.107217242401298485e+01,-9.494262675088386061e+00,-2.894464503759079044e+00,-1.129228140993597407e+01
0.000000000000000000e+00,0.000000000000000000e+00,0.000000000000000000e+00,0.000000000000000000e+00,0.000000000000000000e+00,0.000000000000000000e+00,0.000000000000000000e+00,0.000000000000000000e+00,0.000000000000000000e+00,0.000000000000000000e+00,0.000000000000000000e+00,0.000000000000000000e+00,0.000000000000000000e+00,0.000000000000000000e+00,0.000000000000000000e+00,0.000000000000000000e+00,0.000000000000000000e+00,0.000000000000000000e+00,0.000000000000000000e+00,0.000000000000000000e+00,0.000000000000000000e+00,0.000000000000000000e+00,0.000000000000000000e+00,0.000000000000000000e+00,0.000000000000000000e+00,0.000000000000000000e+00,0.000000000000000000e+00,0.000000000000000000e+00,0.000000000000000000e+00,0.000000000000000000e+00,0.000000000000000000e+00,0.000000000000000000e+00,0.000000000000000000e+00,0.000000000000000000e+00,0.000000000000000000e+00,0.000000000000000000e+00,0.000000000000000000e+00,0.000000000000000000e+00,0.000000000000000000e+00,0.000000000000000000e+00,0.000000000000000000e+00,0.000000000000000000e+00,0.000000000000000000e+00,-1.131470330353155293e-03,0.000000000000000000e+00,0.000000000000000000e+00,0.000000000000000000e+00,0.000000000000000000e+00,0.000000000000000000e+00,0.000000000000000000e+00,0.000000000000000000e+00,0.000000000000000000e+00,0.000000000000000000e+00,0.000000000000000000e+00,0.000000000000000000e+00,0.000000000000000000e+00,0.000000000000000000e+00,0.000000000000000000e+00,0.000000000000000000e+00,-8.859771741116688304e+00,0.000000000000000000e+00,0.000000000000000000e+00,-8.841921296619160486e+00,0.000000000000000000e+00,-1.005263512511259533e-01,-6.399709233598827929e+00,0.000000000000000000e+00,0.000000000000000000e+00,0.000000000000000000e+00,-2.221306220522028529e-01,0.000000000000000000e+00,0.000000000000000000e+00,0.000000000000000000e+00,0.000000000000000000e+00,-1.912632660922519157e-01,0.000000000000000000e+00,0.000000000000000000e+00,-9.801222085557597552e+00,0.000000000000000000e+00,0.000000000000000000e+00,-2.572291611302476078e+00,-4.459919258518754703e-03,-1.345691348210118754e+01,-3.133614481536109442e-02,0.000000000000000000e+00,-2.404217709158185201e+01
0.000000000000000000e+00,0.000000000000000000e+00,0.000000000000000000e+00,0.000000000000000000e+00,0.000000000000000000e+00,0.000000000000000000e+00,0.000000000000000000e+00,0.000000000000000000e+00,0.000000000000000000e+00,0.000000000000000000e+00,0.000000000000000000e+00,0.000000000000000000e+00,0.000000000000000000e+00,0.000000000000000000e+00,0.000000000000000000e+00,0.000000000000000000e+00,0.000000000000000000e+00,0.000000000000000000e+00,0.000000000000000000e+00,0.000000000000000000e+00,0.000000000000000000e+00,0.000000000000000000e+00,0.000000000000000000e+00,0.000000000000000000e+00,0.000000000000000000e+00,0.000000000000000000e+00,0.000000000000000000e+00,0.000000000000000000e+00,0.000000000000000000e+00,0.000000000000000000e+00,0.000000000000000000e+00,0.000000000000000000e+00,0.000000000000000000e+00,0.000000000000000000e+00,0.000000000000000000e+00,0.000000000000000000e+00,0.000000000000000000e+00,0.000000000000000000e+00,0.000000000000000000e+00,0.000000000000000000e+00,0.000000000000000000e+00,0.000000000000000000e+00,0.000000000000000000e+00,-1.290624722743696252e-02,0.000000000000000000e+00,0.000000000000000000e+00,0.000000000000000000e+00,-1.206206057433309775e+00,-1.087928350604280793e-03,0.000000000000000000e+00,0.000000000000000000e+00,0.000000000000000000e+00,0.000000000000000000e+00,0.000000000000000000e+00,-1.755354011139318615e+01,-8.645243931246525404e-02,0.000000000000000000e+00,0.000000000000000000e+00,0.000000000000000000e+00,-7.258127345968858890e+00,-1.906873935809162146e-01,0.000000000000000000e+00,0.000000000000000000e+00,0.000000000000000000e+00,-3.746959089901990003e-01,0.000000000000000000e+00,0.000000000000000000e+00,-1.087334046149229039e+01,0.000000000000000000e+00,0.000000000000000000e+00,0.000000000000000000e+00,0.000000000000000000e+00,-6.091069186296397042e+00,-1.161269229457270180e+00,-1.625402236841795300e+01,-1.699038117921407798e+00,0.000000000000000000e+00,0.000000000000000000e+00,-1.551719072013072775e+01,-6.785544505720874087e-01,-1.312178550657512233e+01,-1.830077435715402601e+01,0.000000000000000000e+00,0.000000000000000000e+00,-1.129966677989198587e+01,-2.210471154962833040e+01
0.000000000000000000e+00,0.000000000000000000e+00,0.000000000000000000e+00,0.000000000000000000e+00,0.000000000000000000e+00,0.000000000000000000e+00,0.000000000000000000e+00,0.000000000000000000e+00,0.000000000000000000e+00,0.000000000000000000e+00,0.000000000000000000e+00,0.000000000000000000e+00,0.000000000000000000e+00,0.000000000000000000e+00,0.000000000000000000e+00,0.000000000000000000e+00,0.000000000000000000e+00,0.000000000000000000e+00,0.000000000000000000e+00,0.000000000000000000e+00,0.000000000000000000e+00,0.000000000000000000e+00,0.000000000000000000e+00,0.000000000000000000e+00,0.000000000000000000e+00,0.000000000000000000e+00,0.000000000000000000e+00,0.000000000000000000e+00,0.000000000000000000e+00,0.000000000000000000e+00,0.000000000000000000e+00,0.000000000000000000e+00,0.000000000000000000e+00,0.000000000000000000e+00,0.000000000000000000e+00,0.000000000000000000e+00,0.000000000000000000e+00,-8.340364735856139466e-01,0.000000000000000000e+00,-4.476907726169773727e-02,-4.143840960898493783e-03,-1.852544237786355949e-02,0.000000000000000000e+00,0.000000000000000000e+00,-7.938596047076700302e-01,0.000000000000000000e+00,0.000000000000000000e+00,0.000000000000000000e+00,0.000000000000000000e+00,-3.216114524664258623e-01,0.000000000000000000e+00,0.000000000000000000e+00,0.000000000000000000e+00,-2.365476743913588642e+00,-2.475780427996664912e+01,0.000000000000000000e+00,0.000000000000000000e+00,-1.426144648820792504e+01,0.000000000000000000e+00,-1.171574917877031297e+01,0.000000000000000000e+00,0.000000000000000000e+00,0.000000000000000000e+00,0.000000000000000000e+00,-2.325938517799442384e-01,0.000000000000000000e+00,0.000000000000000000e+00,0.000000000000000000e+00,-2.319907876438268346e+01,-1.347570394357041845e+00,-1.112208834812046554e+01,0.000000000000000000e+00,-1.257385394186176875e+01,0.000000000000000000e+00,-2.609137088254562542e+01,0.000000000000000000e+00,0.000000000000000000e+00,-1.149082218728773341e+01,-1.583169279357353254e+01,0.000000000000000000e+00,-2.230236456526335331e+01,-1.883144663059859880e+01,-4.627546014853749223e-02,0.000000000000000000e+00,0.000000000000000000e+00,-2.342398872046938507e+01
0.000000000000000000e+00,0.000000000000000000e+00,0.000000000000000000e+00,0.000000000000000000e+00,0.000000000000000000e+00,0.000000000000000000e+00,0.000000000000000000e+00,0.000000000000000000e+00,0.000000000000000000e+00,0.000000000000000000e+00,0.000000000000000000e+00,0.000000000000000000e+00,0.000000000000000000e+00,0.000000000000000000e+00,0.000000000000000000e+00,0.000000000000000000e+00,0.000000000000000000e+00,0.000000000000000000e+00,0.000000000000000000e+00,0.000000000000000000e+00,0.000000000000000000e+00,0.000000000000000000e+00,0.000000000000000000e+00,0.000000000000000000e+00,0.000000000000000000e+00,0.000000000000000000e+00,0.000000000000000000e+00,0.000000000000000000e+00,0.000000000000000000e+00,0.000000000000000000e+00,0.000000000000000000e+00,0.000000000000000000e+00,0.000000000000000000e+00,0.000000000000000000e+00,0.000000000000000000e+00,0.000000000000000000e+00,0.000000000000000000e+00,-1.194882559312650194e+00,0.000000000000000000e+00,0.000000000000000000e+00,0.000000000000000000e+00,0.000000000000000000e+00,0.000000000000000000e+00,0.000000000000000000e+00,0.000000000000000000e+00,0.000000000000000000e+00,0.000000000000000000e+00,0.000000000000000000e+00,0.000000000000000000e+00,0.000000000000000000e+00,0.000000000000000000e+00,0.000000000000000000e+00,0.000000000000000000e+00,0.000000000000000000e+00,-1.981830002303257743e+01,0.000000000000000000e+00,0.000000000000000000e+00,0.000000000000000000e+00,0.000000000000000000e+00,-6.228449578882182536e-01,0.000000000000000000e+00,-5.493458540123074663e+00,-6.041864156194188595e+00,-1.098393995568222259e+00,0.000000000000000000e+00,0.000000000000000000e+00,0.000000000000000000e+00,0.000000000000000000e+00,0.000000000000000000e+00,-4.604552175291696692e+00,-9.091516290355054153e+00,0.000000000000000000e+00,-2.071837539069345269e+01,0.000000000000000000e+00,-1.004071663937327941e+01,0.000000000000000000e+00,0.000000000000000000e+00,-3.369661836459906801e-01,0.000000000000000000e+00,-1.057652746496978757e+01,0.000000000000000000e+00,-2.170008138510261020e+01,0.000000000000000000e+00,0.000000000000000000e+00,0.000000000000000000e+00,-1.916418076751108757e+01
0.000000000000000000e+00,0.000000000000000000e+00,0.000000000000000000e+00,0.000000000000000000e+00,0.000000000000000000e+00,0.000000000000000000e+00,0.000000000000000000e+00,0.000000000000000000e+00,0.000000000000000000e+00,0.000000000000000000e+00,0.000000000000000000e+00,0.000000000000000000e+00,0.000000000000000000e+00,0.000000000000000000e+00,0.000000000000000000e+00,0.000000000000000000e+00,0.000000000000000000e+00,0.000000000000000000e+00,0.000000000000000000e+00,0.000000000000000000e+00,0.000000000000000000e+00,0.000000000000000000e+00,0.000000000000000000e+00,0.000000000000000000e+00,0.000000000000000000e+00,0.000000000000000000e+00,0.000000000000000000e+00,0.000000000000000000e+00,0.000000000000000000e+00,0.000000000000000000e+00,0.000000000000000000e+00,0.000000000000000000e+00,0.000000000000000000e+00,0.000000000000000000e+00,0.000000000000000000e+00,0.000000000000000000e+00,0.000000000000000000e+00,-3.481884623934722311e-01,0.000000000000000000e+00,0.000000000000000000e+00,-1.092051337436021341e-01,0.000000000000000000e+00,0.000000000000000000e+00,0.000000000000000000e+00,0.000000000000000000e+00,0.000000000000000000e+00,0.000000000000000000e+00,0.000000000000000000e+00,0.000000000000000000e+00,-1.273225046082293310e-01,0.000000000000000000e+00,0.000000000000000000e+00,0.000000000000000000e+00,0.000000000000000000e+00,-1.845306441725648838e+01,-1.973545546944793783e-01,0.000000000000000000e+00,0.000000000000000000e+00,0.000000000000000000e+00,0.000000000000000000e+00,0.000000000000000000e+00,0.000000000000000000e+00,-6.415876658164061386e-01,-1.528000180209196646e-01,0.000000000000000000e+00,0.000000000000000000e+00,-1.299387985158111469e+01,-7.090369491183320605e+00,-1.613538489248975338e+01,-2.938983010131105966e-01,-9.288603860496889908e+00,0.000000000000000000e+00,-2.133730103240805676e+01,0.000000000000000000e+00,-2.292857003934928883e+01,-6.621913566816475588e-04,0.000000000000000000e+00,-4.227529544773435788e+00,-1.841716491704597780e-01,-6.985636829197312103e+00,-1.663804651590989536e+01,-1.608658111433646809e+01,0.000000000000000000e+00,-1.225527038357266640e+01,0.000000000000000000e+00,-2.464735478444239192e+01
0.000000000000000000e+00,0.000000000000000000e+00,0.000000000000000000e+00,0.000000000000000000e+00,0.000000000000000000e+00,0.000000000000000000e+00,0.000000000000000000e+00,0.000000000000000000e+00,0.000000000000000000e+00,0.000000000000000000e+00,0.000000000000000000e+00,0.000000000000000000e+00,0.000000000000000000e+00,0.000000000000000000e+00,0.000000000000000000e+00,0.000000000000000000e+00,0.000000000000000000e+00,0.000000000000000000e+00,0.000000000000000000e+00,0.000000000000000000e+00,0.000000000000000000e+00,0.000000000000000000e+00,0.000000000000000000e+00,0.000000000000000000e+00,0.000000000000000000e+00,0.000000000000000000e+00,0.000000000000000000e+00,0.000000000000000000e+00,0.000000000000000000e+00,0.000000000000000000e+00,0.000000000000000000e+00,0.000000000000000000e+00,0.000000000000000000e+00,0.000000000000000000e+00,0.000000000000000000e+00,0.000000000000000000e+00,0.000000000000000000e+00,0.000000000000000000e+00,0.000000000000000000e+00,-3.308261819151217531e-01,0.000000000000000000e+00,0.000000000000000000e+00,-2.853505470067460026e-01,-9.931745468432072732e-01,-1.610379637161364341e+00,0.000000000000000000e+00,0.000000000000000000e+00,0.000000000000000000e+00,-1.230640087838595215e-01,0.000000000000000000e+00,0.000000000000000000e+00,-2.883389724636729601e-01,0.000000000000000000e+00,-1.407449148832901820e+01,-1.216758652026611820e+01,0.000000000000000000e+00,0.000000000000000000e+00,0.000000000000000000e+00,0.000000000000000000e+00,-4.317791921948239242e+00,0.000000000000000000e+00,0.000000000000000000e+00,-1.562566401886035727e+01,0.000000000000000000e+00,-9.554761880751486913e+00,-3.577951296198773168e+00,-6.185577996576631377e-03,0.000000000000000000e+00,0.000000000000000000e+00,-1.053392083084844977e+01,-8.404070223570155207e+00,0.000000000000000000e+00,0.000000000000000000e+00,-1.398921537543155180e-01,0.000000000000000000e+00,0.000000000000000000e+00,-5.760006515270261751e+00,-1.488665801869044003e+01,-3.283366443950758384e+00,0.000000000000000000e+00,0.000000000000000000e+00,-1.947849235043693783e-01,-1.394606340465777095e+01,-5.294218658242386688e+00,0.000000000000000000e+00,-1.075377947189535632e+01
0.000000000000000000e+00,0.000000000000000000e+00,0.000000000000000000e+00,0.000000000000000000e+00,0.000000000000000000e+00,0.000000000000000000e+00,0.000000000000000000e+00,0.000000000000000000e+00,0.000000000000000000e+00,0.000000000000000000e+00,0.000000000000000000e+00,0.000000000000000000e+00,0.000000000000000000e+00,0.000000000000000000e+00,0.000000000000000000e+00,0.000000000000000000e+00,0.000000000000000000e+00,0.000000000000000000e+00,0.000000000000000000e+00,0.000000000000000000e+00,0.000000000000000000e+00,0.000000000000000000e+00,0.000000000000000000e+00,0.000000000000000000e+00,0.000000000000000000e+00,0.000000000000000000e+00,0.000000000000000000e+00,0.000000000000000000e+00,0.000000000000000000e+00,0.000000000000000000e+00,0.000000000000000000e+00,0.000000000000000000e+00,0.000000000000000000e+00,0.000000000000000000e+00,0.000000000000000000e+00,0.000000000000000000e+00,0.000000000000000000e+00,0.000000000000000000e+00,0.000000000000000000e+00,0.000000000000000000e+00,0.000000000000000000e+00,0.000000000000000000e+00,0.000000000000000000e+00,0.000000000000000000e+00,0.000000000000000000e+00,0.000000000000000000e+00,0.000000000000000000e+00,0.000000000000000000e+00,0.000000000000000000e+00,0.000000000000000000e+00,0.000000000000000000e+00,-5.436725777924679426e-02,-1.630688170731295350e-01,0.000000000000000000e+00,-1.828214883040739380e+01,0.000000000000000000e+00,0.000000000000000000e+00,-1.152697847158814549e-02,-3.833978500175248549e-01,-2.132682374475655784e+00,0.000000000000000000e+00,-2.196853818588086482e-01,-2.608163621199859250e+01,0.000000000000000000e+00,-1.377393196789979124e-02,-4.340685016613907266e+00,-1.319556948415052666e+00,-5.552756424855979311e+00,0.000000000000000000e+00,-2.592954877422186755e+01,-2.479581521343960304e+01,0.000000000000000000e+00,-7.097220813981553356e+00,-1.055829857171193709e+00,-2.079968634943969974e+01,-3.663007377986148838e-01,0.000000000000000000e+00,-1.087932925779579207e+01,-2.078076610704016858e+01,-3.847443996391464172e-01,-1.438381596898061332e+01,-1.675658763780345240e+01,0.000000000000000000e+00,0.000000000000000000e+00,-1.673790522931805924e+01,-2.381851908364566839e+01
0.000000000000000000e+00,0.000000000000000000e+00,0.000000000000000000e+00,0.000000000000000000e+00,0.000000000000000000e+00,0.000000000000000000e+00,0.000000000000000000e+00,0.000000000000000000e+00,0.000000000000000000e+00,0.000000000000000000e+00,0.000000000000000000e+00,0.000000000000000000e+00,0.000000000000000000e+00,0.000000000000000000e+00,0.000000000000000000e+00,0.000000000000000000e+00,0.000000000000000000e+00,0.000000000000000000e+00,0.000000000000000000e+00,0.000000000000000000e+00,0.000000000000000000e+00,0.000000000000000000e+00,0.000000000000000000e+00,0.000000000000000000e+00,0.000000000000000000e+00,0.000000000000000000e+00,0.000000000000000000e+00,0.000000000000000000e+00,0.000000000000000000e+00,0.000000000000000000e+00,0.000000000000000000e+00,0.000000000000000000e+00,0.000000000000000000e+00,0.000000000000000000e+00,0.000000000000000000e+00,0.000000000000000000e+00,0.000000000000000000e+00,0.000000000000000000e+00,0.000000000000000000e+00,0.000000000000000000e+00,-3.689589022171846366e-01,0.000000000000000000e+00,0.000000000000000000e+00,-1.958807439592304689e-01,0.000000000000000000e+00,0.000000000000000000e+00,0.000000000000000000e+00,0.000000000000000000e+00,0.000000000000000000e+00,0.000000000000000000e+00,0.000000000000000000e+00,0.000000000000000000e+00,0.000000000000000000e+00,0.000000000000000000e+00,0.000000000000000000e+00,0.000000000000000000e+00,0.000000000000000000e+00,0.000000000000000000e+00,0.000000000000000000e+00,0.000000000000000000e+00,0.000000000000000000e+00,0.000000000000000000e+00,0.000000000000000000e+00,0.000000000000000000e+00,0.000000000000000000e+00,0.000000000000000000e+00,0.000000000000000000e+00,-2.381329788890813148e+00,0.000000000000000000e+00,0.000000000000000000e+00,-5.264212013647972199e+00,0.000000000000000000e+00,-4.686915181293580535e-01,0.000000000000000000e+00,-9.827081103111183324e+00,0.000000000000000000e+00,0.000000000000000000e+00,-3.272454252934845625e-02,-3.568463987697008122e-01,0.000000000000000000e+00,-7.901069055926374096e-02,-5.753147650392299361e+00,0.000000000000000000e+00,-2.020190856303269111e+00,-6.801204771189237608e-01,0.000000000000000000e+00
0.000000000000000000e+00,0.000000000000000000e+00,0.000000000000000000e+00,0.000000000000000000e+00,0.000000000000000000e+00,0.000000000000000000e+00,0.000000000000000000e+00,0.000000000000000000e+00,0.000000000000000000e+00,0.000000000000000000e+00,0.000000000000000000e+00,0.000000000000000000e+00,0.000000000000000000e+00,0.000000000000000000e+00,0.000000000000000000e+00,0.000000000000000000e+00,0.000000000000000000e+00,0.000000000000000000e+00,0.000000000000000000e+00,0.000000000000000000e+00,0.000000000000000000e+00,0.000000000000000000e+00,0.000000000000000000e+00,0.000000000000000000e+00,0.000000000000000000e+00,0.000000000000000000e+00,0.000000000000000000e+00,0.000000000000000000e+00,0.000000000000000000e+00,0.000000000000000000e+00,0.000000000000000000e+00,0.000000000000000000e+00,0.000000000000000000e+00,0.000000000000000000e+00,0.000000000000000000e+00,0.000000000000000000e+00,0.000000000000000000e+00,0.000000000000000000e+00,0.000000000000000000e+00,0.000000000000000000e+00,0.000000000000000000e+00,-8.333468434188317370e-04,0.000000000000000000e+00,-7.488422077109286867e-01,-4.552394938918626066e-02,0.000000000000000000e+00,0.000000000000000000e+00,0.000000000000000000e+00,-9.766873060663744388e-01,0.000000000000000000e+00,0.000000000000000000e+00,-2.701951652115890806e-02,0.000000000000000000e+00,0.000000000000000000e+00,-2.178148414822784673e+01,0.000000000000000000e+00,-2.427885952083941135e+01,-9.101592028799480261e+00,-1.778748390327223561e+01,-2.408633522703047447e+01,0.000000000000000000e+00,0.000000000000000000e+00,-2.273491283190961099e+01,0.000000000000000000e+00,0.000000000000000000e+00,-2.307397151481089637e+01,0.000000000000000000e+00,-1.616700440061147859e+01,-2.398015223907090032e+01,0.000000000000000000e+00,-2.516139212048991070e+01,0.000000000000000000e+00,-2.119385842254227015e+01,-5.307871202975205982e+00,-2.369808018786708104e+01,-4.562982280963530535e+00,0.000000000000000000e+00,-2.178861883781318909e+01,-1.787949194866111569e+01,-9.080544823894856066e+00,-2.527704317130134015e+01,-2.239419388257307730e+01,-2.506552097386689937e+00,-2.341338221154741817e+01,-2.491364165386045570e+01,-2.281603420348269040e+01
0.000000000000000000e+00,0.000000000000000000e+00,0.000000000000000000e+00,0.000000000000000000e+00,0.000000000000000000e+00,0.000000000000000000e+00,0.000000000000000000e+00,0.000000000000000000e+00,0.000000000000000000e+00,0.000000000000000000e+00,0.000000000000000000e+00,0.000000000000000000e+00,0.000000000000000000e+00,0.000000000000000000e+00,0.000000000000000000e+00,0.000000000000000000e+00,0.000000000000000000e+00,0.000000000000000000e+00,0.000000000000000000e+00,0.000000000000000000e+00,0.000000000000000000e+00,0.000000000000000000e+00,0.000000000000000000e+00,0.000000000000000000e+00,0.000000000000000000e+00,0.000000000000000000e+00,0.000000000000000000e+00,0.000000000000000000e+00,0.000000000000000000e+00,0.000000000000000000e+00,0.000000000000000000e+00,0.000000000000000000e+00,0.000000000000000000e+00,0.000000000000000000e+00,0.000000000000000000e+00,0.000000000000000000e+00,0.000000000000000000e+00,0.000000000000000000e+00,0.000000000000000000e+00,0.000000000000000000e+00,0.000000000000000000e+00,0.000000000000000000e+00,0.000000000000000000e+00,-1.726253330395357000e-01,0.000000000000000000e+00,0.000000000000000000e+00,0.000000000000000000e+00,0.000000000000000000e+00,0.000000000000000000e+00,0.000000000000000000e+00,0.000000000000000000e+00,0.000000000000000000e+00,-1.483714270926446588e+00,0.000000000000000000e+00,0.000000000000000000e+00,0.000000000000000000e+00,0.000000000000000000e+00,0.000000000000000000e+00,0.000000000000000000e+00,-9.787231959750228045e-04,0.000000000000000000e+00,0.000000000000000000e+00,0.000000000000000000e+00,0.000000000000000000e+00,0.000000000000000000e+00,-6.215533741025377479e-01,0.000000000000000000e+00,-3.481948959811376199e-01,-4.615504704579651118e+00,-9.755728075097872320e+00,-1.677668323162899355e+01,0.000000000000000000e+00,-5.632299850188540180e-01,0.000000000000000000e+00,-1.234243109256598636e+01,-8.344777056881834409e-02,0.000000000000000000e+00,-2.877757853321610160e+00,0.000000000000000000e+00,-2.949957949362402299e-01,-8.344755822256253452e+00,-5.687321687566228690e+00,-1.098535241276667485e+01,-2.696190300476478896e+00,-6.007911502685514549e+00,-1.927795911996181388e+01
0.000000000000000000e+00,0.000000000000000000e+00,0.000000000000000000e+00,0.000000000000000000e+00,0.000000000000000000e+00,0.000000000000000000e+00,0.000000000000000000e+00,0.000000000000000000e+00,0.000000000000000000e+00,0.000000000000000000e+00,0.000000000000000000e+00,0.000000000000000000e+00,0.000000000000000000e+00,0.000000000000000000e+00,0.000000000000000000e+00,0.000000000000000000e+00,0.000000000000000000e+00,0.000000000000000000e+00,0.000000000000000000e+00,0.000000000000000000e+00,0.000000000000000000e+00,0.000000000000000000e+00,0.000000000000000000e+00,0.000000000000000000e+00,0.000000000000000000e+00,0.000000000000000000e+00,0.000000000000000000e+00,0.000000000000000000e+00,0.000000000000000000e+00,0.000000000000000000e+00,0.000000000000000000e+00,0.000000000000000000e+00,0.000000000000000000e+00,0.000000000000000000e+00,0.000000000000000000e+00,0.000000000000000000e+00,0.000000000000000000e+00,0.000000000000000000e+00,0.000000000000000000e+00,0.000000000000000000e+00,0.000000000000000000e+00,0.000000000000000000e+00,0.000000000000000000e+00,0.000000000000000000e+00,0.000000000000000000e+00,0.000000000000000000e+00,0.000000000000000000e+00,0.000000000000000000e+00,0.000000000000000000e+00,0.000000000000000000e+00,0.000000000000000000e+00,0.000000000000000000e+00,0.000000000000000000e+00,0.000000000000000000e+00,0.000000000000000000e+00,0.000000000000000000e+00,-3.926325918057802511e-01,0.000000000000000000e+00,-4.005968086475512613e-01,-5.547009868881354333e-03,0.000000000000000000e+00,0.000000000000000000e+00,0.000000000000000000e+00,0.000000000000000000e+00,0.000000000000000000e+00,-1.003628559622793404e+00,0.000000000000000000e+00,0.000000000000000000e+00,0.000000000000000000e+00,0.000000000000000000e+00,0.000000000000000000e+00,0.000000000000000000e+00,-1.656291677485354086e+01,0.000000000000000000e+00,0.000000000000000000e+00,0.000000000000000000e+00,0.000000000000000000e+00,0.000000000000000000e+00,0.000000000000000000e+00,0.000000000000000000e+00,-1.067912753648821145e+01,0.000000000000000000e+00,0.000000000000000000e+00,-4.665376370590004207e+00,0.000000000000000000e+00,-3.541845960500234480e-01
0.000000000000000000e+00,0.000000000000000000e+00,0.000000000000000000e+00,0.000000000000000000e+00,0.000000000000000000e+00,0.000000000000000000e+00,0.000000000000000000e+00,0.000000000000000000e+00,0.000000000000000000e+00,0.000000000000000000e+00,0.000000000000000000e+00,0.000000000000000000e+00,0.000000000000000000e+00,0.000000000000000000e+00,0.000000000000000000e+00,0.000000000000000000e+00,0.000000000000000000e+00,0.000000000000000000e+00,0.000000000000000000e+00,0.000000000000000000e+00,0.000000000000000000e+00,0.000000000000000000e+00,0.000000000000000000e+00,0.000000000000000000e+00,0.000000000000000000e+00,0.000000000000000000e+00,0.000000000000000000e+00,0.000000000000000000e+00,0.000000000000000000e+00,0.000000000000000000e+00,0.000000000000000000e+00,0.000000000000000000e+00,0.000000000000000000e+00,0.000000000000000000e+00,0.000000000000000000e+00,0.000000000000000000e+00,0.000000000000000000e+00,0.000000000000000000e+00,0.000000000000000000e+00,0.000000000000000000e+00,0.000000000000000000e+00,0.000000000000000000e+00,0.000000000000000000e+00,0.000000000000000000e+00,0.000000000000000000e+00,-7.336093831082794725e-02,-3.710771937978798451e-01,0.000000000000000000e+00,0.000000000000000000e+00,-1.982383939031627240e-01,0.000000000000000000e+00,0.000000000000000000e+00,0.000000000000000000e+00,-1.528229453253086671e-02,-1.417165412301866745e+01,-1.721793914745088028e+00,-1.597695089783550237e+01,-1.180330569507057881e+01,-1.222710250777547003e+01,-1.025954347832698232e+01,0.000000000000000000e+00,-2.070091771821132465e+00,0.000000000000000000e+00,-1.831559303294153729e+00,0.000000000000000000e+00,-4.255247428231636597e+00,0.000000000000000000e+00,-1.784248094640732418e+00,-2.203127783659753902e+01,-4.068956946146416342e+00,-1.733966140632898600e+01,-7.440602145112407584e+00,-1.344814999769075037e+01,-2.126265674318815080e+00,-2.204913643685647173e+01,-1.246496041441274460e+00,0.000000000000000000e+00,-1.016514637386665321e+01,-5.858800145957763661e+00,-2.357844795974786134e+00,-2.609897564599911846e+01,-1.759179652632191448e+01,0.000000000000000000e+00,-1.967959727360389977e+01,0.000000000000000000e+00,-2.224997307419007697e+01
0.000000000000000000e+00,0.000000000000000000e+00,0.000000000000000000e+00,0.000000000000000000e+00,0.000000000000000000e+00,0.000000000000000000e+00,0.000000000000000000e+00,0.000000000000000000e+00,0.000000000000000000e+00,0.000000000000000000e+00,0.000000000000000000e+00,0.000000000000000000e+00,0.000000000000000000e+00,0.000000000000000000e+00,0.000000000000000000e+00,0.000000000000000000e+00,0.000000000000000000e+00,0.000000000000000000e+00,0.000000000000000000e+00,0.000000000000000000e+00,0.000000000000000000e+00,0.000000000000000000e+00,0.000000000000000000e+00,0.000000000000000000e+00,0.000000000000000000e+00,0.000000000000000000e+00,0.000000000000000000e+00,0.000000000000000000e+00,0.000000000000000000e+00,0.000000000000000000e+00,0.000000000000000000e+00,0.000000000000000000e+00,0.000000000000000000e+00,0.000000000000000000e+00,0.000000000000000000e+00,0.000000000000000000e+00,0.000000000000000000e+00,0.000000000000000000e+00,0.000000000000000000e+00,0.000000000000000000e+00,0.000000000000000000e+00,0.000000000000000000e+00,0.000000000000000000e+00,0.000000000000000000e+00,0.000000000000000000e+00,0.000000000000000000e+00,-1.503969964750261901e-01,0.000000000000000000e+00,0.000000000000000000e+00,-2.010105007556606260e-02,0.000000000000000000e+00,0.000000000000000000e+00,0.000000000000000000e+00,0.000000000000000000e+00,-2.102413035586293333e+01,0.000000000000000000e+00,0.000000000000000000e+00,0.000000000000000000e+00,-2.140364819911991390e+01,-2.180310249055629868e+01,0.000000000000000000e+00,-5.502314565818137382e+00,0.000000000000000000e+00,-1.702829960269928999e-02,0.000000000000000000e+00,-2.320436431425321544e+01,0.000000000000000000e+00,-1.453451684840211833e+01,-2.447687713559361811e+01,-5.573391758840184895e-02,-1.467407246207854676e+01,-1.493560072543043660e+01,-2.584552986481536507e+01,-4.477874843436308039e-01,-2.498383037644312665e+01,0.000000000000000000e+00,0.000000000000000000e+00,-1.045077557798869705e+01,-1.564982865856805461e+01,-1.672890096079267508e+01,-2.364021683236917326e+01,-2.339319043546235122e+01,0.000000000000000000e+00,-2.335510008734418363e+01,0.000000000000000000e+00,-2.259268258722099532e+01
