0.000000000000000000e+00,-1.106503135405293992e-01,-1.784466575137094169e-01,5.573278922859208409e-03,-8.794930324681685119e-02,-2.778384824016988941e-01,-8.253600867834701704e-01,-5.757631726431280406e-01,-3.321757368869293625e-02,-2.309475274885208484e-01,-3.442522942170118228e+00,-1.457592513373041854e+00,-2.464881070342689107e+00,-5.486399691957183578e+00,-5.631973226583546488e-01,-2.502573860700214148e+00,-3.188822710360053936e+00,-2.034842212416725804e+00,-1.375524853003714298e+00,-4.640090193387231388e+00,0.000000000000000000e+00,-4.989127642848190547e+00,0.000000000000000000e+00,-1.481437234393679248e+00,-1.270792254708005276e-01,-4.814210846066924177e+00,0.000000000000000000e+00,-1.153841711728673891e+00,-2.208883146405632658e+00,-4.983433121126204846e+00,-4.289697926767599867e+00,-3.249829145566252020e+00,-1.179736371088999825e+01,-4.824368670062591846e+00,-9.283894092700437639e+00,-4.997718923522914913e+00,-4.390634890213505948e+00,0.000000000000000000e+00,-4.622611450462943417e+00,0.000000000000000000e+00,-6.143460243951750499e+00,-4.824811714936547702e+00,-5.891370062598804580e+00,-4.349189944551616449e+00,0.000000000000000000e+00,0.000000000000000000e+00,-4.152382836848524938e+00,-4.958593102939544472e+00,-5.745629949154154481e+00,-1.091801951686243832e+01,-1.540734323993497767e+01,-9.911394985893226206e+00,-5.557630076739504155e+00,-7.601078307590681149e+00,-1.426578899370343123e+01,-1.029023463158715401e+01,-1.278644789814963723e+01,-8.179939051609451894e+00,-6.508592106120663523e+00,-5.705730660328387494e+00,0.000000000000000000e+00,0.000000000000000000e+00,-1.604506802403960108e+01,-4.526120937832371460e+00,-5.130199441678012562e+00,-6.370301630616548749e+00,-1.308119487954526861e+01,-5.202697519986680064e+00,-5.418335773068745809e+00,-4.702702495152016660e+00,-1.255466115615829104e+01,-6.258210295473515039e+00,-7.312018095147351460e+00,-6.589727112640439088e+00,-1.581853695886112909e+01,-7.296044485229946197e+00,-8.298627704391471127e+00,-1.597296771336189458e+01,-1.098592570474021990e+01,-9.715520400553808500e+00,-1.413104611767444396e+01,-4.314677100183816449e+00,-3.876704515537624657e-02,-8.275450408844978734e-01,-5.541629405425266164e+00,-1.247194015544364909e+01,-5.188124661736481791e+00,-2.996304310925041459e-01,-9.730978029832700882e-01,-4.242633512433255483e+00,-1.466896125541580531e+01,-1.123074082600051504e+01,-1.915530638587890522e+01,-9.874111721097492023e+00,-5.107379159168636384e+00,-7.673451480621843679e+00,-9.717412825329168058e+00,-1.273848714487486156e+01,-4.867747064764373910e+00,0.000000000000000000e+00,-5.123893657716902972e+00,-4.750674881046704101e+00,-2.024401864029017784e+00,-1.642249422798823355e+00,-1.194360044451488134e+00,-4.065436025718399016e+00,-2.079559533968925678e+00,-1.888469104043144942e+00,-5.690042968827688785e-01,-4.621906758948661764e-01,0.000000000000000000e+00,-7.343390192494939628e-01,0.000000000000000000e+00,-1.114699001840710357e+00,0.000000000000000000e+00,0.000000000000000000e+00,-6.131344994824368122e-01,0.000000000000000000e+00,-3.913728913770826434e+00,-7.625463858434557984e+00,-1.124000762940594145e+00,-4.104910313830843371e+00,-8.278917568903821689e+00,-8.721046805220304066e+00,-7.090624621949793038e+00,-4.606708465528697616e+00,-9.597664946862959567e+00,-1.484604858042590569e+00,-1.100073705848362060e+00,-1.830461550324291808e+00,-3.885215575999841242e+00,-1.736613566970283351e+00,-2.868099157560727974e+00,-1.883041384890125514e+00,-9.755133015119948903e-01,-1.654572753492430603e+00,-1.732761158475663477e+00,-2.492729380852805043e+00,-1.088878157619914022e+00,-3.720149970141491291e+00,-4.537710592613843907e+00,-5.584721018408417947e+00,-5.346295072519319014e+00,-3.843115771689594951e+00,-1.821017884373572260e+00,-4.473181463206133301e+00,-4.432356424985645305e+00,-4.784231953287524597e+00,-5.657149756325333456e+00,-1.314816583380303383e+00,-5.631391341724728328e+00,-4.904230746925779982e+00,-5.844853189166120622e+00,-3.546845551516196071e+00,-4.110320439629039591e+00,-3.456652722924717924e+00,-4.466314374060462278e+00,0.000000000000000000e+00,0.000000000000000000e+00,0.000000000000000000e+00,0.000000000000000000e+00,-2.780260319755971654e-01,0.000000000000000000e+00,-4.917221708252239587e+00,-5.238709189864302118e+00,0.000000000000000000e+00,0.000000000000000000e+00,0.000000000000000000e+00,0.000000000000000000e+00,-4.624636159872347108e+00,0.000000000000000000e+00,0.000000000000000000e+00,0.000000000000000000e+00,0.000000000000000000e+00,-6.364133572567706842e+00,-5.858575178192309885e+00,-4.762918490956943529e+00,-4.822752310595890712e+00,-5.190019891348656600e+00,0.000000000000000000e+00,0.000000000000000000e+00,-5.004379614189530479e+00,0.000000000000000000e+00,0.000000000000000000e+00,-6.880151114906749577e+00,-4.540828937826081102e+00,-4.230388339295330091e+00,-5.689815670358075117e+00,-5.130372644933039794e+00,-4.746000110628453506e+00,0.000000000000000000e+00,0.000000000000000000e+00,-5.098026569995599999e+00,-6.301886391766478468e+00,-6.650188451420853575e+00,-6.274277635912445916e+00,-4.466736875401160489e+00,-5.702912482518713411e+00,-5.229399953615709862e+00,-4.701215481752178960e+00,-4.217095574692981685e+00,-4.433168776352282237e+00,-1.632997110143121322e+00,-5.328454320217045570e+00,-5.648054197923203290e+00,-6.547557139703612528e+00,-6.881746639367825935e+00,-5.106208224150206476e+00,-4.021682141604313365e+00,-5.678699192228876313e+00,-6.215644928765160948e+00,-5.654451422817744266e+00,-8.362337316445868751e+00,-7.241684253350567424e+00,-8.300656280007279619e+00,-6.995588926553911513e+00,-5.352350684023739369e+00,0.000000000000000000e+00,-7.555253922333677874e-01,0.000000000000000000e+00,-5.299913449171083091e-01,-4.820685464257876696e+00,-4.485977503629781538e+00,-2.369559736332342292e-01,-4.277672706151795623e+00,-2.450825549716101559e+00,-8.484520642168419613e+00,-6.633384438904840863e+00,-8.285031936349763981e+00,-6.075093976607462309e+00,-7.823609301862116894e+00,-6.023767202003244670e+00,-7.093388462942195716e+00,-4.481781292846227061e+00,-5.601815648745418486e+00,-5.388592747891322032e-01,-5.067675812055298934e-01,0.000000000000000000e+00,0.000000000000000000e+00,0.000000000000000000e+00,-1.460928099077170306e-01,0.000000000000000000e+00,0.000000000000000000e+00,0.000000000000000000e+00,0.000000000000000000e+00,-7.767244402583555196e-01,0.000000000000000000e+00,-4.144051235470956884e-01,0.000000000000000000e+00,-3.202775138986862502e-01,-9.317806469969599492e-01,0.000000000000000000e+00,-2.196255348107009620e-01,0.000000000000000000e+00,-3.307067951158064734e+00,0.000000000000000000e+00,-3.166088841291289646e-01,-3.957457764318208948e+00,-5.948490052640528214e-01,-1.227911103209266219e+00,-5.501340504717904700e+00,-2.632322389543130914e+00,-1.914476468683319554e+00,-5.354879933271882386e+00,-2.148849178379989233e+00,-1.006051704186144313e+00,-6.915846124935601802e-01,-6.106068493822593979e-01
0.000000000000000000e+00,0.000000000000000000e+00,-7.215502961339220755e-01,-4.864305870105067320e-01,-2.288515186880213104e-01,-3.747137342354557310e-01,-4.404857743428679306e+00,-4.206544276555857387e+00,-7.292530137167700932e-01,-2.269069129666986817e-02,-4.337133960748764672e+00,-4.223508293509152800e+00,0.000000000000000000e+00,0.000000000000000000e+00,-2.505830813742236374e-01,-8.314600553736104516e+00,-3.935607490769184924e+00,-2.014533722066865484e-01,-4.742645518928948256e+00,-4.022564627996425557e+00,0.000000000000000000e+00,0.000000000000000000e+00,0.000000000000000000e+00,-4.258964793796346626e+00,-2.397331210456413453e-01,0.000000000000000000e+00,0.000000000000000000e+00,-2.873924383027298690e-01,0.000000000000000000e+00,0.000000000000000000e+00,0.000000000000000000e+00,0.000000000000000000e+00,-1.352780503862917882e+01,-5.075822078486737610e+00,-9.364660634246945392e+00,-9.510118428110081013e+00,-5.937152707098571902e+00,-7.127298319712808805e+00,-5.643649249403463131e+00,-8.186994064134475835e+00,-5.986065994483211306e+00,-5.773304401082435255e+00,-5.704100020174427854e+00,-4.444806747717083617e+00,0.000000000000000000e+00,0.000000000000000000e+00,0.000000000000000000e+00,-5.707883747454543411e+00,-1.364591585366102500e+01,0.000000000000000000e+00,-1.908275198785664983e+01,-1.374642578909484136e+01,-5.816137281248408009e+00,-5.762683353627862992e+00,-1.086907859423332567e+01,-1.151658967493038155e+01,-9.223194290339401746e+00,-4.630496490383588792e+00,-9.804880961260595384e+00,-4.289810299714156727e+00,0.000000000000000000e+00,-1.468001374078892596e+01,0.000000000000000000e+00,-5.672968040984282645e+00,0.000000000000000000e+00,-7.285460290714407261e-01,-5.295196470039459591e+00,-3.415121663934112650e+00,-4.240438775961309581e+00,0.000000000000000000e+00,-1.209637330964203228e+00,-6.026899654172967580e+00,-5.259958875077466622e+00,-8.640298720228853924e+00,-7.766606100270911917e+00,-4.710020693061144570e+00,-3.497710297006838776e+00,-5.102472623894638737e+00,-6.591069120136669568e+00,-4.052322934453528980e+00,-7.281078762236915303e+00,-2.248136348844722576e+00,-3.794236622206873522e-01,-5.618329985028188700e-01,-6.990829916038020508e-01,-8.243556696088519820e-01,-6.044251963636200209e-01,-3.008176209715555660e-01,-8.527506207111267278e-01,-2.723579122750289239e-01,-9.076100704658689011e+00,-9.026974723356131491e+00,-5.811720531637810438e+00,-5.344877601983478499e+00,-8.535030719921721243e-01,-3.333673727143593002e+00,-6.538653203920549828e+00,-2.175819261548807226e+00,-2.383241130345506331e+00,-9.624678010874869460e-02,-7.829038849493794028e-02,-4.230872315557136609e+00,3.997779578670172806e-02,1.245580208878937223e-01,1.632723305199084221e-02,7.042178780691145260e-04,4.176981496739199523e-02,5.075531424819830495e-02,-2.362600843422102415e-02,-9.562070939692041138e-02,-1.234157326749175249e-01,1.235462214138740699e-03,-1.390270464300334963e-01,-3.160246867780771435e-02,3.083168359655449799e-03,9.953242462150531378e-02,-5.166301524981439797e-02,-4.284456536583717279e-01,-5.446515479273478455e+00,-5.570780518149682337e+00,-4.290164884968299397e+00,-5.378296858276103265e+00,-8.915923983453287960e+00,-5.916637821175225298e+00,-1.623371594018192532e+00,-3.331481194169243487e+00,-3.251773604111127369e+00,-7.885775431402515245e-01,-2.780715227402143497e-01,-9.837877648517064921e-01,-2.698490349431590385e+00,-8.499970671848927975e-03,-1.978707634493088452e-01,-9.765415576700627875e-01,-1.714742796385711199e-01,-5.651230473504633700e-01,-9.932238199992395877e-01,-1.843113782498774444e+00,-5.621363842429916158e-01,-7.142034720954889560e-01,-7.483266449632585138e-01,-4.513806288931118793e+00,-4.144608433002069603e+00,-3.851105931355858658e+00,-2.110897317711075971e-02,0.000000000000000000e+00,0.000000000000000000e+00,-2.773596148846296794e-01,0.000000000000000000e+00,-4.243215642772972807e+00,-4.096264308780535934e+00,-8.092972678956019683e-01,-4.172145241066763433e+00,-4.443255323508704890e+00,-8.010228024588551321e+00,-3.500104919905157264e+00,0.000000000000000000e+00,-3.597795665530044484e+00,0.000000000000000000e+00,-2.542947750294416664e+00,-7.648362545677782343e-02,-4.619218092041431412e+00,0.000000000000000000e+00,0.000000000000000000e+00,0.000000000000000000e+00,-4.599318917373751425e+00,-4.143047403585885746e+00,-1.200978736609812003e+01,-5.826656284024006816e+00,-5.230467564573977768e+00,-4.582135037862832938e+00,-3.083285985862178613e+00,-4.262868457274648470e+00,-4.379811399041090070e+00,-4.393344613287189837e+00,-5.274610920767961453e+00,-2.194635117882993036e+00,-4.950616180918253839e+00,-3.694230735594917991e+00,-3.937497210803236225e+00,0.000000000000000000e+00,-2.188512167674244946e+00,0.000000000000000000e+00,0.000000000000000000e+00,-7.723050950032398276e+00,-4.144732982064440741e+00,-4.546750035753225561e+00,-6.859840115196671917e+00,-4.449036798631926359e+00,-4.789075172170817574e+00,0.000000000000000000e+00,0.000000000000000000e+00,0.000000000000000000e+00,-6.215353179041964715e+00,-4.432678077516653659e+00,-3.937444941208593896e+00,-4.886195243426691093e+00,-5.024375774776545178e+00,-5.054448047382626541e+00,-4.729960868516196015e+00,0.000000000000000000e+00,-4.103441170482090783e+00,-3.674524080678966520e+00,-4.980595084851436205e+00,-3.615940673618019741e+00,-5.262010709714187939e+00,-6.591225074643929815e+00,-5.124674197140740795e+00,-4.540574136407918182e+00,-5.556819128477302527e+00,-4.993213898320129296e+00,-2.836396447932671983e+00,-5.565719470805777114e+00,-5.216115231594599777e+00,-5.914799552654621984e+00,-6.060692809968679207e+00,-6.718151769299392839e+00,-8.610755944759941605e-02,-1.406829726125675799e-02,-6.515446905580149495e-02,-8.266042065707146502e-01,-5.522481364311531138e+00,-4.788494786353371779e+00,-9.329943877922982631e-01,-2.871760931592866051e-01,-1.746162738640480550e+00,-6.862386357062172593e+00,-5.863554475521262077e+00,-6.708454098889599315e+00,-7.188196449746010686e+00,-3.021386720108358404e+00,-6.577344732688131579e+00,-4.734081204695245737e-01,-2.478025130554283084e+00,-3.308095644832438342e+00,-7.781546680591377996e-02,-5.082107896839910960e-02,0.000000000000000000e+00,-2.152379685366454798e-01,2.224480372703501775e-03,1.770026451397061287e-02,0.000000000000000000e+00,0.000000000000000000e+00,-2.463525351755773141e-01,-7.482979303948457117e-01,3.631135462565861661e-03,1.013119295557877719e-01,6.709755241993693720e-02,0.000000000000000000e+00,-2.227759362793808526e-02,3.163741426243656986e-03,2.609907127523284145e-02,2.296340613449246726e-01,0.000000000000000000e+00,-2.460191998910875588e-01,-4.390529791856065955e-01,-1.425089603346618272e+00,-2.022052424859554498e-01,-8.488128663161643994e-02,-1.734728891678710250e+00,-5.197123279006705232e+00,-2.036918255228599706e-01,-6.570422690313119096e-01,-1.900806667557245699e+00,1.428700895790935288e-01,-7.075130810585409345e-03,-2.626365132817463574e-02,-2.044363350181712391e-01
0.000000000000000000e+00,0.000000000000000000e+00,0.000000000000000000e+00,-1.593295504008362951e-01,-1.574438495928758008e-01,-2.406843813572660251e-01,-3.914367719934556261e-02,-6.676996981774983853e-02,-1.830695307894016355e-01,-4.697719076629236490e-02,0.000000000000000000e+00,-1.413088184192811021e-02,-7.385772486974758744e-01,0.000000000000000000e+00,-1.526011085013289525e+00,0.000000000000000000e+00,-2.396746210455603432e+00,-1.172144468528791172e+00,-1.664509833021923235e+00,0.000000000000000000e+00,0.000000000000000000e+00,0.000000000000000000e+00,0.000000000000000000e+00,-1.326284979049865420e+00,-4.009221387753026944e-01,0.000000000000000000e+00,0.000000000000000000e+00,-5.200951452246154183e-01,-2.897986531747178685e+00,0.000000000000000000e+00,0.000000000000000000e+00,0.000000000000000000e+00,0.000000000000000000e+00,-6.063796726962748629e+00,0.000000000000000000e+00,-5.410270336675003122e+00,-4.877907883643003650e+00,-7.022936519762192908e+00,0.000000000000000000e+00,0.000000000000000000e+00,0.000000000000000000e+00,-2.458049744792573099e-01,0.000000000000000000e+00,-2.826479235905633436e-01,0.000000000000000000e+00,0.000000000000000000e+00,0.000000000000000000e+00,-3.092904746381308634e+00,0.000000000000000000e+00,-1.340764599059819950e+01,-1.659515046724702714e+01,-8.338133716422486685e+00,-6.651093457423526978e+00,-4.897481319034270086e+00,-6.720318181470219976e+00,-7.643480455429104481e+00,-7.362036344853309267e+00,-4.488457582989759054e+00,-5.850420176117109961e+00,-5.179196293048355493e+00,0.000000000000000000e+00,-6.969878417409298699e+00,0.000000000000000000e+00,-5.989440851817224853e+00,-4.012038488144857418e+00,-5.271289425091750580e+00,-4.892000143393794076e+00,-5.032891106411579329e+00,-5.145789035502025932e+00,-4.010917218593215594e+00,-5.016364645958489632e+00,-4.898013670744711057e+00,-5.469585434577219019e+00,-5.506736391183836510e+00,-6.139789030190332397e+00,-5.313072404763616419e+00,-2.896454517390406047e-01,-6.378843767493399319e+00,-6.374531570743329212e+00,-5.544371055789960145e+00,-6.103486348219922419e+00,-6.161898488543581465e+00,-8.292370719437837101e-01,-2.814462990795080222e-01,-1.855553361818735592e-01,-6.577040498471217189e-01,-5.700587685667785287e+00,-9.741842556427757205e-02,-8.816615128144790203e-01,-4.759859815491971902e-01,-1.181256247351297617e+01,-5.328720318176653592e+00,-6.319766299836910406e+00,-4.996356943604085110e+00,-1.164969329145584820e-01,-5.857507004834211273e+00,-4.968458350567657611e+00,-1.611106931078260418e+00,-3.756320717261107500e+00,0.000000000000000000e+00,0.000000000000000000e+00,0.000000000000000000e+00,0.000000000000000000e+00,0.000000000000000000e+00,0.000000000000000000e+00,0.000000000000000000e+00,0.000000000000000000e+00,0.000000000000000000e+00,0.000000000000000000e+00,0.000000000000000000e+00,0.000000000000000000e+00,0.000000000000000000e+00,0.000000000000000000e+00,0.000000000000000000e+00,0.000000000000000000e+00,0.000000000000000000e+00,0.000000000000000000e+00,0.000000000000000000e+00,0.000000000000000000e+00,-5.085705139656661267e+00,-2.303443036607628058e-01,-9.153892806302352803e-01,-1.638759112130520279e+00,-4.987616724197424745e+00,-9.964916430896656463e-01,-3.571928027377863635e-01,-2.792722621461147248e-01,-2.173362518039713365e+00,0.000000000000000000e+00,-4.395661194180546655e-02,0.000000000000000000e+00,-3.157373259434242740e+00,0.000000000000000000e+00,-1.329261789107183400e+00,-1.854592024780405690e-01,-2.794044858806791765e-01,-5.883683728588715578e-01,-2.221678656263020191e+00,-4.829954558715164326e-01,-1.626761006181325797e+00,-1.071119904007242996e+00,-3.293995630242636086e+00,-5.022221659176665298e+00,-4.337163638736747373e+00,-4.010349985588456123e-01,-4.681719298786253702e+00,-4.172901895230839209e+00,-3.117811211736515986e+00,0.000000000000000000e+00,-1.560296461660894973e+00,-5.443940562833238239e+00,-4.802825296746171535e-01,-3.514156579588751494e+00,-3.961775264892394510e+00,0.000000000000000000e+00,-3.927009918168610447e+00,-5.132013682147818834e+00,0.000000000000000000e+00,0.000000000000000000e+00,0.000000000000000000e+00,-9.537555342264112390e-01,-7.491016198483662070e-01,0.000000000000000000e+00,0.000000000000000000e+00,0.000000000000000000e+00,0.000000000000000000e+00,0.000000000000000000e+00,0.000000000000000000e+00,-2.814164051729775462e+00,-4.881803260091861496e+00,0.000000000000000000e+00,0.000000000000000000e+00,0.000000000000000000e+00,-3.568483006385376299e+00,0.000000000000000000e+00,-1.056663457028271524e-01,0.000000000000000000e+00,-6.405234943375747170e-01,0.000000000000000000e+00,0.000000000000000000e+00,0.000000000000000000e+00,0.000000000000000000e+00,0.000000000000000000e+00,0.000000000000000000e+00,-7.043865594336362612e+00,-5.962457432293402526e+00,-5.074300644397173876e+00,-5.409021445965574770e+00,-5.823755984552435372e+00,-5.121099497048794191e+00,0.000000000000000000e+00,0.000000000000000000e+00,0.000000000000000000e+00,0.000000000000000000e+00,-4.301172863151163206e+00,-4.080234592802553628e+00,0.000000000000000000e+00,0.000000000000000000e+00,0.000000000000000000e+00,-4.773616262073781868e+00,0.000000000000000000e+00,-5.362898361114119439e+00,0.000000000000000000e+00,0.000000000000000000e+00,-5.387928577694582444e+00,-5.311703510239766501e+00,-5.540881139128946309e+00,-6.070199769377720322e+00,0.000000000000000000e+00,0.000000000000000000e+00,-4.699953284452824676e+00,-4.804334822394910276e+00,-5.054376121762367724e+00,-5.008150609436585299e+00,-6.580050137698870927e+00,-8.982801562572252152e+00,-4.271500478719517879e+00,-4.907956003060555683e-01,-2.403763308156805223e-01,-4.866910241671427995e-02,-1.850829046731816696e-01,-4.614722645437328852e-02,-3.539352049928443274e-03,-5.220371260113069178e-01,-1.747491197493876158e-01,-5.650354388028636793e-02,-1.415223334126986643e+00,-5.177881692772279720e+00,-5.403728189907691437e+00,-6.916322140865916346e+00,-1.881309336412853028e+00,-6.695452711043875738e+00,-5.112657296918505893e-03,-3.760152362368332501e-01,-5.910823197224272185e+00,0.000000000000000000e+00,0.000000000000000000e+00,0.000000000000000000e+00,0.000000000000000000e+00,0.000000000000000000e+00,0.000000000000000000e+00,0.000000000000000000e+00,0.000000000000000000e+00,0.000000000000000000e+00,0.000000000000000000e+00,0.000000000000000000e+00,0.000000000000000000e+00,0.000000000000000000e+00,0.000000000000000000e+00,0.000000000000000000e+00,0.000000000000000000e+00,0.000000000000000000e+00,0.000000000000000000e+00,0.000000000000000000e+00,0.000000000000000000e+00,0.000000000000000000e+00,-6.134816326573424572e-01,-8.129137517039826122e-01,-3.002611585024960172e-01,-9.960901328597477900e-01,0.000000000000000000e+00,-1.610255608857170451e+00,-1.048625467442513726e+00,-5.293502057349751766e+00,-7.528345129217626219e-01,0.000000000000000000e+00,0.000000000000000000e+00,0.000000000000000000e+00
0.000000000000000000e+00,0.000000000000000000e+00,0.000000000000000000e+00,0.000000000000000000e+00,-6.427594034856225214e-02,-7.468840802719953764e-01,-5.144661645299062336e-01,-1.402428201844338751e-01,-8.276936341677539055e-02,-6.975377545843850641e-03,0.000000000000000000e+00,-5.323241699045390130e-01,-2.432603749496964618e-01,0.000000000000000000e+00,-1.852039688103473969e-01,-7.045268218125821491e+00,-2.238301780555144838e+00,-5.528822466945553238e-01,0.000000000000000000e+00,-4.719777525622931513e+00,0.000000000000000000e+00,-4.255923582090266777e+00,0.000000000000000000e+00,0.000000000000000000e+00,0.000000000000000000e+00,0.000000000000000000e+00,-5.411934864533796130e+00,-1.079609358704214728e+01,0.000000000000000000e+00,0.000000000000000000e+00,0.000000000000000000e+00,0.000000000000000000e+00,0.000000000000000000e+00,-5.449400434821198402e+00,-1.048825957235701978e+01,-8.023098555364089890e+00,-6.442673926869689538e+00,0.000000000000000000e+00,-5.301811421981025951e+00,0.000000000000000000e+00,0.000000000000000000e+00,-5.554267810890139323e+00,0.000000000000000000e+00,-7.852932677837216602e-01,0.000000000000000000e+00,-4.620489005880547673e+00,-5.493036900938965239e+00,-5.899136230285439098e+00,-6.053200155061901455e+00,-1.145738225930193011e+01,-1.672288108277580676e+01,-1.460678544578109594e+01,-7.546588936213956877e+00,-8.185934114402824591e+00,-1.582795286413424485e+01,-1.032187086847154411e+01,-8.158992008836470688e+00,-8.173456250556760949e+00,-6.807918857472185614e+00,-5.922614750268031969e+00,-6.137518590524868145e+00,-5.698139728333930343e+00,-1.758964942242146279e+01,-6.511841021350439185e+00,-5.097222211247044221e+00,-5.633218965536113565e+00,-7.641881819690595101e+00,-6.535536532579549807e+00,-5.023736743982894382e+00,-8.643143843848552166e+00,0.000000000000000000e+00,-5.682767686135747454e+00,-6.398416136423559664e+00,-4.785297526325617667e+00,-1.289359803056434473e+01,-5.572461178758465472e+00,-7.007456493543737786e+00,-1.190306792096202493e+01,-7.524926461149021861e+00,-8.254683817958076375e+00,-8.064368390843204892e+00,-4.854968985431169948e+00,-1.853351884725526824e-02,-4.816049452267500142e-01,-4.128443400975770894e-01,-6.944468673774880862e+00,-5.328821729641996185e+00,-8.680679677841661446e-03,-5.907675281520896604e-02,-5.648050427046497068e-02,-1.378856572018479021e+01,-9.448229935102943955e+00,-1.617738375635574144e+01,-7.294875242192841114e+00,-6.192520063859916490e+00,-8.716334968122607663e+00,-6.907088045431355461e+00,-6.675319667833779391e+00,-5.835270176785708252e+00,0.000000000000000000e+00,0.000000000000000000e+00,-5.602820303081319508e+00,0.000000000000000000e+00,0.000000000000000000e+00,0.000000000000000000e+00,-5.410629580699898078e+00,0.000000000000000000e+00,0.000000000000000000e+00,0.000000000000000000e+00,0.000000000000000000e+00,0.000000000000000000e+00,0.000000000000000000e+00,0.000000000000000000e+00,0.000000000000000000e+00,0.000000000000000000e+00,0.000000000000000000e+00,-7.298196053121704940e-01,0.000000000000000000e+00,0.000000000000000000e+00,-5.879250768189041132e+00,-1.952443831987903611e+00,-5.353657205838234567e+00,-2.194748829834505699e+00,-8.391753374002803412e+00,-2.623597248688075201e+00,-4.998273125663321714e+00,-7.202322894853624646e+00,-2.408807343456749628e+00,0.000000000000000000e+00,0.000000000000000000e+00,0.000000000000000000e+00,-1.850131854323457725e+00,0.000000000000000000e+00,-1.447549020516640361e+00,-6.998303466489854685e-01,-8.518958875147896181e-01,-1.211749913230943498e+00,-2.064200989710061496e+00,-7.863483754817169880e-01,-8.489006536171408435e-01,-1.416694513481298046e+00,-4.677473959561526229e+00,-4.610949382119741813e+00,-4.719142321517357352e+00,-2.310192643178657690e+00,0.000000000000000000e+00,-3.865655912285351992e+00,0.000000000000000000e+00,0.000000000000000000e+00,-1.475632273469122402e-01,-4.501309601229603885e+00,-2.363856535256305236e+00,-4.358179995935936191e+00,-4.130508520386937832e+00,0.000000000000000000e+00,0.000000000000000000e+00,0.000000000000000000e+00,0.000000000000000000e+00,0.000000000000000000e+00,0.000000000000000000e+00,0.000000000000000000e+00,0.000000000000000000e+00,0.000000000000000000e+00,0.000000000000000000e+00,0.000000000000000000e+00,0.000000000000000000e+00,0.000000000000000000e+00,0.000000000000000000e+00,0.000000000000000000e+00,-4.848489930557178695e+00,0.000000000000000000e+00,0.000000000000000000e+00,0.000000000000000000e+00,-7.826929269911183651e-01,0.000000000000000000e+00,0.000000000000000000e+00,0.000000000000000000e+00,-7.685059622570037163e+00,0.000000000000000000e+00,0.000000000000000000e+00,0.000000000000000000e+00,0.000000000000000000e+00,0.000000000000000000e+00,0.000000000000000000e+00,-5.332351783802022460e+00,-5.674405784754226190e+00,-6.288184254063784451e+00,-5.723027893283242129e+00,-5.124544722408697517e+00,-5.888992669235342703e+00,0.000000000000000000e+00,0.000000000000000000e+00,0.000000000000000000e+00,0.000000000000000000e+00,-5.150370520797224572e+00,-7.740717507283481069e+00,-4.551249140839666474e+00,0.000000000000000000e+00,-5.382691927102575491e+00,-5.347968518536329263e+00,0.000000000000000000e+00,0.000000000000000000e+00,0.000000000000000000e+00,0.000000000000000000e+00,-8.232908277547133835e+00,0.000000000000000000e+00,-1.113631403806157572e+01,-1.052869491468965890e+01,0.000000000000000000e+00,0.000000000000000000e+00,-1.159421150741579432e+01,-7.618657253566987642e+00,-1.168524102729531755e+01,-5.604584235358601951e+00,-1.425174999482899452e+01,-1.035685986668601366e+01,-5.169776018935125173e+00,0.000000000000000000e+00,-1.439431697274303479e-01,0.000000000000000000e+00,-2.173557030594377437e-01,-5.762992731958984649e+00,0.000000000000000000e+00,0.000000000000000000e+00,0.000000000000000000e+00,-3.686985122771501144e-01,-6.143448727322644132e+00,-4.734925307508111914e+00,-5.030485049556020272e+00,-6.148485299009367466e+00,-5.474759977711856962e+00,-8.687510080070801166e+00,-6.860707536907952875e-01,0.000000000000000000e+00,-5.393080311742949107e+00,0.000000000000000000e+00,0.000000000000000000e+00,0.000000000000000000e+00,0.000000000000000000e+00,0.000000000000000000e+00,0.000000000000000000e+00,0.000000000000000000e+00,0.000000000000000000e+00,0.000000000000000000e+00,0.000000000000000000e+00,0.000000000000000000e+00,0.000000000000000000e+00,0.000000000000000000e+00,0.000000000000000000e+00,0.000000000000000000e+00,0.000000000000000000e+00,0.000000000000000000e+00,0.000000000000000000e+00,0.000000000000000000e+00,0.000000000000000000e+00,0.000000000000000000e+00,-3.191739497126040437e+00,0.000000000000000000e+00,-1.187930013884695324e+00,-1.466659763875332867e-01,0.000000000000000000e+00,-3.548174352687606614e+00,-2.891098745158847017e+00,-4.781585946095055384e+00,-8.618249107475036697e-01,0.000000000000000000e+00,0.000000000000000000e+00,0.000000000000000000e+00
0.000000000000000000e+00,0.000000000000000000e+00,0.000000000000000000e+00,0.000000000000000000e+00,0.000000000000000000e+00,-6.590325161829841960e-01,-6.704411460222279295e-01,-1.311128055733274955e+00,-1.618203197294211526e-02,-7.809862812139092281e-01,0.000000000000000000e+00,-1.009112216626381731e+00,-7.179514624682937773e-01,-6.162690735588554070e+00,-1.017289355799521067e+00,-5.147697108965870072e+00,-2.850681120073050856e+00,-3.527080610862268095e+00,0.000000000000000000e+00,-3.226848946824559583e+00,0.000000000000000000e+00,-6.132986385900553117e+00,0.000000000000000000e+00,-2.155435474335381851e+00,-2.447852513150731157e-01,-3.912104189882130267e+00,0.000000000000000000e+00,-3.038296388806231096e+00,-3.349425338191635682e+00,-4.407421848853946500e+00,0.000000000000000000e+00,0.000000000000000000e+00,-5.001653766089864561e+00,-6.949677011205877442e+00,0.000000000000000000e+00,-7.930609996215858715e+00,-5.141182358372294203e+00,-1.718253467311153138e+00,-5.118311288594513009e+00,0.000000000000000000e+00,-6.783789703760852774e+00,-8.252214891248788042e-01,-7.280415523485854301e+00,-8.763345982953587576e-01,0.000000000000000000e+00,0.000000000000000000e+00,-4.396367746680351907e+00,-5.051835741639974842e+00,-5.898683391056191994e+00,-1.014925063971267249e+01,-1.179211949159765460e+01,-6.781150902499776478e+00,-6.326859678198381687e+00,-5.373740146412973928e+00,-6.800421066729516184e+00,-8.345295691247413217e+00,-7.238283525299406662e+00,-4.813943202672127164e+00,-6.436774736747293169e+00,-5.079281922346073896e-01,0.000000000000000000e+00,-5.617107377030650106e+00,-6.983619639595370465e+00,-6.725223030300687910e+00,-7.627644174544405686e+00,0.000000000000000000e+00,0.000000000000000000e+00,-5.144500614315257181e+00,0.000000000000000000e+00,-3.579095831842042497e+00,-7.512964439298071007e+00,-6.206263444346572733e+00,-5.285326136855706736e+00,-7.949018928170579201e+00,-1.128232356578219964e+01,-7.518848317906005718e+00,-4.664187569274599987e+00,-1.197809685518457457e+01,-9.683551469247015930e+00,-8.385006413803012038e+00,-9.659103170717656894e+00,-7.027822494462855119e+00,-1.192621557442807179e+00,-4.848285570201815720e-01,-2.933436504590496985e-01,-3.196973297621239052e+00,-7.203191456695459571e+00,-1.082565501490846183e+00,-2.058090186343544126e+00,-2.435724939796028554e+00,-8.744692862832694757e+00,-8.353684629015399210e+00,-1.159107925356773805e+01,-8.159308157812525053e+00,-2.183697976168117894e+00,-2.757682260326145940e+00,-1.365086091740984831e+00,-8.061231897128752877e+00,-6.048862536631069986e+00,-1.705999751305268264e+00,-6.641078755689644453e-01,-5.646844016813136413e+00,-4.872971797882544642e+00,-3.579785678664518578e+00,-3.060313600311217463e+00,-2.907343846004844856e+00,0.000000000000000000e+00,-3.275290125956596743e+00,-2.696871726270168246e+00,0.000000000000000000e+00,-1.862628441896417630e+00,-4.985349153734868644e+00,-5.116112634571286399e+00,-3.465726176610988141e+00,0.000000000000000000e+00,0.000000000000000000e+00,-2.211283227794195394e+00,-2.843535032613860203e+00,-4.278861990537356164e+00,-8.787442516311301688e+00,-2.156106674362904041e+00,-4.344455859418458132e+00,-8.725779664609436992e+00,-7.378824615742548332e+00,-8.712674483566244632e+00,-4.552184578962313211e+00,-1.119223270350960320e+01,-4.343089983178509250e+00,-3.556769358930833125e+00,-4.638300639611336429e+00,-9.540102512426708259e+00,-5.156762649352494066e+00,-4.387028251702854931e+00,-1.781050404892907002e+00,-5.602315033804098343e-01,-1.377973285110682511e+00,-9.523233634442782591e-01,-3.184177233071829871e+00,-9.298665887580679357e-01,-3.418139420787218441e+00,-5.676552081711522924e+00,-4.366599292870583682e+00,-7.320898330706785195e+00,-8.586025820600337255e+00,-1.682305066259193183e+00,-5.868133395334257152e+00,-5.597687034960925345e+00,-4.372287172279794021e+00,-5.112000472191329692e+00,-3.931840221686836223e+00,-6.362826604615063886e+00,-3.048959992693288878e+00,-6.481283756549092168e+00,-4.711213189745684815e+00,-2.949520737415372462e+00,-4.689242816732207331e+00,-4.977784993902111488e+00,0.000000000000000000e+00,0.000000000000000000e+00,0.000000000000000000e+00,-1.359255615356613101e+00,-2.203275375724242036e+00,-4.032799336619898867e+00,-5.273977148900543810e+00,-5.282011065534203631e+00,0.000000000000000000e+00,0.000000000000000000e+00,0.000000000000000000e+00,0.000000000000000000e+00,-4.302565755443719553e+00,0.000000000000000000e+00,0.000000000000000000e+00,0.000000000000000000e+00,-1.678796522089404997e+00,-5.119167385188070796e+00,-2.054498077177784765e+00,-5.810361384321844014e+00,-4.467554057018318758e+00,0.000000000000000000e+00,-4.952356602185515655e+00,0.000000000000000000e+00,-5.602133199363178662e+00,0.000000000000000000e+00,0.000000000000000000e+00,-5.478972923235549075e+00,-5.704682263115251395e+00,-5.737748780487311961e+00,-6.519937641802600048e+00,-5.949262268950935351e+00,-5.609293408836458106e+00,0.000000000000000000e+00,0.000000000000000000e+00,-6.232974800298354268e+00,-5.499452023407664036e+00,-5.561419952494364161e+00,-4.864661343429216522e+00,-5.303517255078972426e+00,0.000000000000000000e+00,-6.802631466299980723e+00,-5.208412503710958319e+00,-6.136172381533825160e+00,-5.111644486313827507e+00,-5.624070886810343950e+00,-6.259795513029314584e+00,-6.653328255831429061e+00,-7.445613816282401487e+00,-6.009395798675367217e+00,-5.383413399763429474e+00,-6.178336922808679965e+00,-5.270703346126484057e+00,-9.150440136763029031e+00,-7.281087865993291608e+00,-8.219144448597079489e+00,-6.994582188184341298e+00,-8.472933737421712408e+00,-9.519683261844233968e+00,-6.257166313214084674e+00,-1.228593632372930733e+00,-1.631882989646806503e-01,-6.350736427430930808e-01,-8.530750953119001778e-01,-3.259897726540919582e-01,-3.965432408165790457e-01,-2.684326412487700431e+00,-2.174268738373946519e+00,-8.602237948620792274e-01,-3.026288802409721868e+00,-6.115469481284442566e+00,-6.812449349359164685e+00,-6.044662556333577186e+00,-1.323565814275561614e+01,-8.905302381833024583e+00,-6.010940205399438518e+00,-2.161520405969457048e+00,-4.454869145500449434e+00,-1.817538911903004539e+00,-2.291230134740471769e+00,0.000000000000000000e+00,0.000000000000000000e+00,-2.882164235847683553e+00,-5.407235693329308646e+00,0.000000000000000000e+00,-1.454487684969465455e+00,0.000000000000000000e+00,0.000000000000000000e+00,-2.556182402390589470e+00,0.000000000000000000e+00,-2.674603927680086368e+00,0.000000000000000000e+00,-2.388751199538301506e+00,-4.061708062921612239e+00,0.000000000000000000e+00,-1.243921707912947872e+00,0.000000000000000000e+00,-1.296438899685440571e+00,-5.382448291932461437e+00,-1.668008775388568399e+00,-5.370663450650535076e+00,-7.396390972945703357e-01,-3.839512549808677289e+00,-6.336028585806016800e+00,-7.228276846897413677e+00,-5.313392306639456386e+00,-8.505504573096866139e+00,-6.898626209266923048e+00,-5.254062513167127690e+00,-5.200408529192899643e+00,-3.159744329016800801e+00
0.000000000000000000e+00,0.000000000000000000e+00,0.000000000000000000e+00,0.000000000000000000e+00,0.000000000000000000e+00,0.000000000000000000e+00,-7.971613810945746836e-01,-3.469421122485333298e-01,-5.006558669253530908e-02,-2.796473859929767269e-01,-5.352835762218592919e+00,-2.412931833766715162e+00,-1.762052876484951458e+00,-6.547323988724871313e+00,-2.305927756574222887e+00,-3.052642129886609990e+00,-2.563771984669321879e-01,-1.353602807245841921e+00,-2.153472336450981128e+00,-2.137985090725350368e+00,-6.493407543404513760e+00,-5.044878969555521842e+00,0.000000000000000000e+00,-2.943417227694223648e+00,-2.260108781147853296e+00,-4.736924229551932264e+00,-6.556384920855423459e+00,-4.017822643029014706e+00,-5.493848680077975999e+00,-5.829136687938443195e+00,0.000000000000000000e+00,-5.079192112951250060e+00,-4.770951221120671271e+00,-4.838570460852116284e+00,-6.913753787559050679e+00,-6.731365187498208336e+00,-5.378919978058582352e+00,-6.687521654191954212e+00,-4.401745163620552681e+00,-5.661856851360251852e+00,-6.371709918529774974e+00,-5.582496403155166931e+00,-6.510297303909956312e+00,-3.144454237204155955e+00,0.000000000000000000e+00,0.000000000000000000e+00,0.000000000000000000e+00,-6.151786153917582212e+00,-5.330528427310577300e+00,-5.572704345062098774e+00,-5.982120905369590957e+00,-5.742034635980135526e+00,-5.616396041983471754e+00,-5.430022142144268926e+00,-6.808802685395251686e+00,-5.616005603114576417e+00,-5.511430325179602185e+00,-5.703004304172146099e+00,-4.241375291469051234e+00,-3.548277172411667735e+00,-3.181096020842665517e+00,-5.169079850887925431e+00,-6.660465498073849133e+00,-4.886086065830657965e+00,-3.795602042262173903e+00,-5.297886618811360471e+00,-6.886899069257483852e+00,-5.341893736912650681e+00,-5.332311456438744379e+00,-5.605265178224787093e+00,-5.972337826911439329e+00,-7.781368438981665747e+00,-6.661193590267197706e+00,-9.121533396154337225e+00,-1.203339802311599982e+01,-6.625396324319487995e+00,-1.119678486096731973e+01,-1.159110801271288693e+01,-1.018334485689072721e+01,-1.070718030850788161e+01,-9.669609636920050377e+00,-6.334565057804451449e+00,-2.729764010388440743e-01,-2.329786959193301144e+00,-9.012970981549239813e-01,-8.074444350379742730e+00,-5.467507946777793393e+00,-1.537174057048573239e+00,-3.362711691541532488e+00,-3.545058092857046983e+00,-4.157741281941000899e+00,-8.939518165944248196e+00,-8.137627483026387054e+00,-7.283924657557059312e+00,-5.081836611865174547e+00,-2.761763294579977934e+00,-5.672455322977279835e+00,-1.006230855493910603e+01,-5.450338726812946177e+00,0.000000000000000000e+00,0.000000000000000000e+00,-5.516324504538374640e+00,-2.729282599707049783e+00,-1.643504264654902070e+00,-2.826841177565220242e+00,0.000000000000000000e+00,0.000000000000000000e+00,-2.533769267590020302e+00,-3.454812253284603507e+00,0.000000000000000000e+00,0.000000000000000000e+00,-3.864233724488254307e+00,0.000000000000000000e+00,-1.216443014979102344e+00,0.000000000000000000e+00,0.000000000000000000e+00,-6.120684763727043176e+00,-5.127696045512172951e+00,0.000000000000000000e+00,-9.718324594063282973e+00,-3.732815046237131007e+00,-4.609951593071537346e+00,-6.527970899247956815e+00,-1.067607897103809655e+01,-7.307289488369989705e+00,-5.851713219079799799e+00,-9.397705374692034042e+00,-2.864395439446817182e+00,-5.427016102812691756e+00,-3.363378417584511393e+00,-4.839400830952135912e+00,-4.371010725334953939e+00,-3.369372347916022026e+00,-8.101650942494774688e-01,-8.517504400158041333e-01,-3.482972899874945405e+00,-3.137038389134107153e+00,-4.898104577868067189e+00,-4.786420931931917089e+00,-5.066939750918066032e+00,-8.103821065060088813e+00,-8.618349208857024379e+00,-1.119669555484820123e+01,-1.094187423639097290e+01,-3.638820866679106203e+00,-7.244479914495498107e+00,-5.926023510188202614e+00,-7.606243735578623877e+00,-5.625723101192575015e+00,-3.417808399796362639e+00,-6.201822615205142775e+00,-4.011580718476738028e+00,-1.143908232604615982e+01,-5.708163252257583586e+00,-7.020787258490670979e+00,-6.076564096897420164e+00,-4.743128294679055834e+00,0.000000000000000000e+00,-5.920451435735131440e+00,0.000000000000000000e+00,-3.040508546621694119e-01,-3.632990514931577319e+00,-4.722008837927517355e+00,-6.812784878378993270e+00,-5.357902909232943323e+00,-5.256798798918890014e+00,0.000000000000000000e+00,0.000000000000000000e+00,-5.997987002327632489e+00,-5.931401052086471282e+00,0.000000000000000000e+00,0.000000000000000000e+00,0.000000000000000000e+00,-1.224537000313517421e+00,-4.887327899449395829e+00,-8.877544843678599307e+00,-6.011249340394311247e+00,-4.939868947134886668e+00,-5.837026621922430714e+00,0.000000000000000000e+00,0.000000000000000000e+00,-5.351160217188161816e+00,0.000000000000000000e+00,0.000000000000000000e+00,-5.483378807014721801e+00,-5.002410156905399141e+00,0.000000000000000000e+00,-4.022751736671899891e+00,-4.981448782034242129e+00,-5.341927647144492752e+00,0.000000000000000000e+00,0.000000000000000000e+00,-5.562723108062193944e+00,0.000000000000000000e+00,-5.856151483718031514e+00,-4.839986626105371670e+00,-5.252123160155667492e+00,-4.767266738236945578e+00,0.000000000000000000e+00,-4.013464095030499834e+00,0.000000000000000000e+00,0.000000000000000000e+00,-2.649984057388566239e+00,-5.961026966518958581e+00,-6.460508458257286257e+00,-6.916570061375671763e+00,-7.050919839926695687e+00,-5.262718333028471918e+00,-6.254171649538346145e+00,-5.621756284000180237e+00,-6.885783984609121333e+00,-6.699737612019342592e+00,-8.417368797960792293e+00,-7.470906969653775320e+00,-1.091169628534920655e+01,-6.400835245234839377e+00,-4.813306264520557320e+00,-8.827912915053176546e-01,-4.090105773337496808e-01,-2.090733813249212147e+00,-1.717809104178517954e+00,-6.413197634727643148e+00,-6.404186888934877864e+00,-1.185797024029951574e+00,-3.139838169821311364e+00,-2.965501104111456065e+00,-6.259049046386961912e+00,-6.182502953419260372e+00,-9.635043839683310907e+00,-5.515539506629660416e+00,-9.157278298737871580e+00,-6.066890145166849990e+00,-5.448548368303526068e+00,-4.605416323673670043e+00,-5.165317091054031806e+00,-1.587131296497115596e+00,-1.225532034448079344e+00,-1.527525727395294020e+00,0.000000000000000000e+00,0.000000000000000000e+00,0.000000000000000000e+00,0.000000000000000000e+00,0.000000000000000000e+00,0.000000000000000000e+00,0.000000000000000000e+00,0.000000000000000000e+00,0.000000000000000000e+00,0.000000000000000000e+00,0.000000000000000000e+00,-3.939983413027606129e+00,-3.790307304774120034e+00,0.000000000000000000e+00,-1.567139507859536707e+00,0.000000000000000000e+00,-4.186425904254505781e+00,0.000000000000000000e+00,-2.473530774574996371e+00,-7.493978835064558197e+00,-2.160620124184295054e+00,-3.440487588019514043e+00,-5.602563611019645506e+00,-6.037235069016831268e+00,-4.950408883603370391e+00,-6.147517169677416682e+00,-5.915793695974252309e+00,-4.436679608242786621e+00,-5.458741571498666900e+00,-4.391737989574291845e+00
0.000000000000000000e+00,0.000000000000000000e+00,0.000000000000000000e+00,0.000000000000000000e+00,0.000000000000000000e+00,0.000000000000000000e+00,0.000000000000000000e+00,-1.588465621130961569e+00,-9.814338562173866021e-02,-4.727633495996556690e+00,-5.377917798829687790e+00,-8.830009543686328399e+00,-5.689543908557364915e+00,-6.651456488157564628e+00,-2.479241856284698287e+00,-2.362832205424461041e+00,-9.015928304618706646e-01,-4.298371500029036341e+00,-2.398567596985109684e+00,-2.800249557209600226e+00,-1.046501465149386156e+01,-5.467712736165523779e+00,0.000000000000000000e+00,-2.307275712998893891e+00,-1.255371306601076320e+00,-5.678157155760202635e+00,-5.775698396712119376e+00,-3.300839905904568550e+00,-7.509139991918013735e+00,-7.513702658735424755e+00,-6.601234081432678202e+00,-5.377498455448942671e+00,-6.056161553361676830e+00,-5.645841276542723719e+00,-9.649962986428407774e+00,-7.545311085510639337e+00,-6.368627326621320250e+00,-5.379064707700647929e+00,-4.344543447126111957e+00,-6.358947441035727621e+00,-6.785306631075097350e+00,-6.121424879447602940e+00,-5.633866548408003716e+00,-3.119369871405230477e+00,-3.969231958815470751e+00,-5.855628952491650274e+00,-8.091498231376320405e+00,-5.724031436176131749e+00,-8.290490304572674773e+00,-5.453221200634765786e+00,-6.617759665659519897e+00,-6.311189654757871637e+00,-6.888652733310665077e+00,-7.570519810114518577e+00,-8.421989388595926940e+00,-6.427747548183199378e+00,-8.759726819343924831e+00,-8.841939613152611344e+00,-6.641051023354903826e+00,-5.646519907734582233e+00,-5.398903747009525134e+00,-6.699736918854797274e+00,-9.526370240395522160e+00,-7.941431982382767707e+00,-8.673505708699064343e+00,-5.993333109376566270e+00,-9.648915970447312418e+00,-1.067312873997740752e+01,-9.436069868181753861e+00,-6.410062751910429846e+00,-9.342211485009972449e+00,-9.533134306909344602e+00,-7.257405228750342552e+00,-8.455317796139727449e+00,-1.771637000237546289e+01,-8.478877421496569866e+00,-1.213461645849936765e+01,-1.789608105250973225e+01,-1.200006526280819052e+01,-1.221474708795277486e+01,-1.461658930797235989e+01,-6.926971240132865582e+00,-4.632323136672398811e-01,-2.605213022006940271e+00,-6.221570245326808468e+00,-1.009037734052848911e+01,-6.031643857324930025e+00,-2.310594135950952754e+00,-4.648289738630352552e+00,-3.006784230622907117e+00,-4.950958419696800838e+00,-1.084889787939981431e+01,-1.388395352323734855e+01,-9.118068554030349659e+00,-5.288153106892153232e+00,-3.821751243854372593e+00,-8.407508039869306060e+00,-1.161061185697695208e+01,-5.890448740386725390e+00,0.000000000000000000e+00,-5.997638916940453591e+00,-6.206369026947076151e+00,-9.092449403280693510e-01,-3.353854514188008284e+00,-1.807200064959348262e+00,-5.753091531627223532e+00,-3.308860180789429783e+00,-2.428431179186961053e+00,-2.136325329431767894e+00,0.000000000000000000e+00,-2.569699926557314829e+00,-1.625185216564228652e+00,0.000000000000000000e+00,-1.679852614829289825e+00,0.000000000000000000e+00,0.000000000000000000e+00,-4.392809831510476215e+00,0.000000000000000000e+00,0.000000000000000000e+00,-1.190313855589645797e+01,-6.390719879500282197e+00,-6.076560856933292065e+00,-8.686795587312490241e+00,-1.229869874864642476e+01,-8.763625967605468858e+00,-6.409099926316390139e+00,-1.190010694520081280e+01,-2.424790845752367030e+00,-3.132638050844364308e+00,-2.631057073650280298e+00,-5.451371988321209727e+00,-4.272501278353864507e+00,-3.771371987614638766e+00,-3.405018157348799868e+00,-2.435245396357320846e+00,-1.922992964751497835e+00,-3.715094764335696631e+00,-6.123236123627529004e+00,-4.991965824440399047e+00,-8.509427385526722176e+00,-8.664862079804942496e+00,-8.828772654770714823e+00,-9.108037502078756731e+00,-8.171132736776669958e+00,-7.470997344670024631e+00,-6.156766944163679867e+00,-5.945682315899154524e+00,-5.846646882711044491e+00,-6.255988534562216152e+00,-5.686029621940246415e+00,-5.647331709811362899e+00,-6.374990739658854544e+00,-1.022198189537254009e+01,-4.657437796935234076e+00,-6.075107904866842823e+00,-6.092189750018733641e+00,-5.226533065083933671e+00,0.000000000000000000e+00,0.000000000000000000e+00,0.000000000000000000e+00,0.000000000000000000e+00,-6.151134526222951093e-01,-4.882884759542004183e+00,-7.448658340542579914e+00,-6.755634592040566488e+00,-5.391818689832653888e+00,0.000000000000000000e+00,0.000000000000000000e+00,0.000000000000000000e+00,-6.392823598668940122e+00,0.000000000000000000e+00,-5.592384768775074733e+00,0.000000000000000000e+00,-1.667992125788928082e+00,-6.568178048544142555e+00,-6.534825653220559971e+00,0.000000000000000000e+00,-6.342009069566401536e+00,-7.120329538122782687e+00,-6.045452011162556261e+00,0.000000000000000000e+00,-6.650092885324067282e+00,0.000000000000000000e+00,0.000000000000000000e+00,-6.234968760127584275e+00,-3.212341277828651531e+00,0.000000000000000000e+00,-4.824987771669666081e+00,-5.730818952158879931e+00,-5.291453883623739252e+00,0.000000000000000000e+00,-5.281668806482257672e+00,0.000000000000000000e+00,0.000000000000000000e+00,-4.053641878013566568e+00,-4.427488420554794857e+00,0.000000000000000000e+00,-5.106887828934609352e+00,-6.090304028369855516e+00,-5.812167599921935768e+00,-6.174036530779373422e+00,-5.501279383799978717e+00,0.000000000000000000e+00,-7.053104003733488447e+00,-6.590984272629358820e+00,-5.788204347382816195e+00,-5.294734094788543288e+00,-5.959894747282013405e+00,-5.503150820659893583e+00,-6.122677633492160432e+00,-5.580047223341322749e+00,-6.081600071054619860e+00,-6.213661728981072940e+00,-5.911828457162882522e+00,-6.572174713573958549e+00,-8.543750131562289241e+00,-6.486857686709238457e+00,-4.502985444358031386e-01,-2.026837270536445690e+00,-2.133165298346665573e+00,-4.070044619242545458e+00,-6.598675564616487854e+00,-5.039839537316690432e+00,-1.651054895071477846e+00,-3.450902127193091751e+00,-2.027381463901451575e+00,-5.273115267342290302e+00,-7.809542054529442723e+00,-7.698491323596192260e+00,-5.807724411441983925e+00,-1.172880460967420646e+01,-5.291226638073652566e+00,-6.457884551119222216e+00,-5.405637544978554310e+00,-5.046005168885151271e+00,-1.112060952812641723e+00,-1.872624075021076306e+00,0.000000000000000000e+00,0.000000000000000000e+00,0.000000000000000000e+00,0.000000000000000000e+00,0.000000000000000000e+00,0.000000000000000000e+00,0.000000000000000000e+00,0.000000000000000000e+00,0.000000000000000000e+00,0.000000000000000000e+00,-1.215991365688482873e+00,0.000000000000000000e+00,0.000000000000000000e+00,-3.387479286710236792e+00,0.000000000000000000e+00,-9.990730132836790345e-01,0.000000000000000000e+00,-4.937353037381170928e+00,0.000000000000000000e+00,-2.046495758483160454e+00,-4.469412393096187763e+00,-4.200608724690082063e+00,-1.975731662123414445e+00,0.000000000000000000e+00,-6.590517090002272482e+00,-3.928647983820610534e+00,-5.730957985328696935e+00,-4.293229860892735061e+00,-3.028387715055087970e+00,-3.342400194223905885e+00,-4.699316235749230408e+00
0.000000000000000000e+00,0.000000000000000000e+00,0.000000000000000000e+00,0.000000000000000000e+00,0.000000000000000000e+00,0.000000000000000000e+00,0.000000000000000000e+00,0.000000000000000000e+00,-1.064442424446649244e-01,-6.482457093207964149e+00,-3.036764106309396194e+00,-6.357494960572028120e+00,-5.312234995626037737e+00,-4.657269532981495708e+00,-5.932026424742214310e+00,-3.404586532230132523e+00,-1.122200205105530646e+00,-7.261763878407214712e+00,-7.403121523239002855e+00,-6.385175055978782765e+00,-1.289617731431128789e+01,-4.648940138976829672e+00,-5.701515742447171853e+00,0.000000000000000000e+00,0.000000000000000000e+00,-5.096944340772002313e+00,-5.375041104634217248e+00,0.000000000000000000e+00,-5.677975396863496726e+00,-7.907176348731031368e+00,-5.326694293796848001e+00,-5.016167345630187846e+00,-6.967704561994424672e+00,-8.707690700610259071e+00,-1.032499118402052751e+01,-5.612006401595780680e+00,-6.323264420154299792e+00,-5.243688122162287080e+00,-6.312524908335474194e+00,-6.873646285236081788e+00,-5.367063388405931335e+00,-1.124383812192034959e+01,-5.837800061075026470e+00,-8.183641020170545843e+00,-9.010314356801812252e+00,-1.456865717274733640e+01,-1.321999639287884065e+01,-6.132444203672981153e+00,-1.226584482304512136e+01,-5.578778381094162242e+00,-5.731804811647522868e+00,-6.572117640000156413e+00,-8.020091974604286023e+00,-8.535038485197860680e+00,-6.226353379970150037e+00,-6.802371490955286149e+00,-7.016262047475133379e+00,-6.893462116456530175e+00,-5.961319528992115480e+00,-5.679845413852912195e+00,-5.837656023434876218e+00,-8.971929901516576322e+00,-7.019288451665230966e+00,-1.471107305283307909e+01,-6.189484679820514756e+00,-5.596429356938875443e+00,-7.674283177116262067e+00,-1.421429138126845082e+01,-1.297850906267361637e+01,-6.238320810588478871e+00,-5.834688755167221075e+00,-8.419653308472987874e+00,-6.278224692120164541e+00,-7.642984016302813544e+00,-1.010951596550514431e+01,-7.047868178417433072e+00,-8.439683473660490876e+00,-1.002875720445266339e+01,-7.168415460550353835e+00,-8.698016937599851062e+00,-7.381235600012149511e+00,-6.135975028760992878e+00,-2.284495151064080520e+00,0.000000000000000000e+00,-6.456788269230551158e+00,-6.495905634667780149e+00,-6.379846316364293557e+00,-2.689819945496367826e+00,-3.950836927540558374e+00,-4.371890741143912962e+00,-1.552512672429790408e+00,-7.697106729919148904e+00,-8.383796652639931679e+00,-5.965978073903718482e+00,-6.035110694517324070e+00,-5.771883364259323024e+00,-5.959834185026457121e+00,-8.107034453208219915e+00,-5.051829819285806877e+00,0.000000000000000000e+00,0.000000000000000000e+00,-5.640729953650324369e+00,0.000000000000000000e+00,0.000000000000000000e+00,0.000000000000000000e+00,0.000000000000000000e+00,0.000000000000000000e+00,0.000000000000000000e+00,0.000000000000000000e+00,0.000000000000000000e+00,-1.755917100319691615e+00,-6.345102198834673413e-01,0.000000000000000000e+00,-2.590411294290397404e+00,0.000000000000000000e+00,0.000000000000000000e+00,-1.485489437534773804e+00,0.000000000000000000e+00,0.000000000000000000e+00,-1.271318129044626666e+01,-8.998783239752917495e+00,-8.507844188026549404e+00,-6.111950284442238868e+00,-7.920893064916993964e+00,-7.242117911832229638e+00,-5.998682933701156017e+00,-1.105530140743603340e+01,-2.751975617472944169e+00,-2.643102482331745939e+00,-4.598873426977307943e+00,-5.831388439002608060e+00,-3.654307929825296508e+00,-4.232152753130366207e+00,-1.446423737238405671e+00,-1.608740030252332920e+00,-1.101576284700738650e+00,-2.557038681914594491e+00,-3.663452977168689007e+00,-5.025502332465966226e+00,-6.005058947411542114e+00,-6.045025346712022518e+00,-6.858814557585279914e+00,-7.186663877364866337e+00,-5.338180407844886233e+00,-5.649285804991553306e+00,-5.826511262797188451e+00,-6.279906669226059890e+00,-6.138210064100211305e+00,-6.079365977310392744e+00,0.000000000000000000e+00,-4.687350401106191278e+00,-4.994301055773934905e+00,-8.495420592284146366e+00,-6.050715600784360326e+00,-7.210194122563036601e+00,-5.812223831635756177e+00,-5.971714210213341367e+00,0.000000000000000000e+00,0.000000000000000000e+00,0.000000000000000000e+00,0.000000000000000000e+00,-1.010878803636923529e+01,-6.779744372934273677e+00,-6.429803757588638646e+00,-5.769739645720825649e+00,-6.448231635151562280e+00,0.000000000000000000e+00,0.000000000000000000e+00,-5.065297340230415557e+00,-1.292887020387473029e+01,0.000000000000000000e+00,0.000000000000000000e+00,0.000000000000000000e+00,0.000000000000000000e+00,0.000000000000000000e+00,-7.159792481593505009e+00,0.000000000000000000e+00,-1.170502869799125989e+01,0.000000000000000000e+00,-7.697710449216421225e+00,0.000000000000000000e+00,0.000000000000000000e+00,0.000000000000000000e+00,0.000000000000000000e+00,0.000000000000000000e+00,0.000000000000000000e+00,0.000000000000000000e+00,-5.475714007692670471e+00,0.000000000000000000e+00,-4.839040705774581674e+00,0.000000000000000000e+00,0.000000000000000000e+00,0.000000000000000000e+00,0.000000000000000000e+00,-6.057142204876476477e+00,0.000000000000000000e+00,0.000000000000000000e+00,0.000000000000000000e+00,-5.032411847882896971e+00,-5.685623329856611896e+00,0.000000000000000000e+00,0.000000000000000000e+00,0.000000000000000000e+00,-4.068753527129048031e+00,0.000000000000000000e+00,-4.724610903976925513e+00,-6.267598140439887722e+00,-5.421818569255579590e+00,-5.552642506947735868e+00,-6.183157728459769409e+00,-6.240280042613406408e+00,-5.653638175157687407e+00,-6.275930687118957962e+00,-4.829739797100265797e+00,-6.082646483004387150e+00,-5.923108543455919417e+00,-6.368290806923690539e+00,0.000000000000000000e+00,0.000000000000000000e+00,0.000000000000000000e+00,-4.529133808229417468e+00,-6.378856611903338525e+00,-4.544633031655950894e+00,-2.829595614570098228e+00,-6.123253781405968432e+00,0.000000000000000000e+00,0.000000000000000000e+00,-8.428666020463076336e+00,-7.429837503599558524e+00,-5.705621020093385454e+00,-8.781991040816400584e+00,-7.981654034888966187e+00,-4.878355155296808299e+00,0.000000000000000000e+00,-8.583003233373455387e+00,0.000000000000000000e+00,0.000000000000000000e+00,0.000000000000000000e+00,0.000000000000000000e+00,0.000000000000000000e+00,0.000000000000000000e+00,0.000000000000000000e+00,0.000000000000000000e+00,0.000000000000000000e+00,0.000000000000000000e+00,0.000000000000000000e+00,0.000000000000000000e+00,0.000000000000000000e+00,0.000000000000000000e+00,0.000000000000000000e+00,0.000000000000000000e+00,0.000000000000000000e+00,0.000000000000000000e+00,0.000000000000000000e+00,0.000000000000000000e+00,0.000000000000000000e+00,-3.582829411549311782e+00,-4.941550006920973459e+00,-5.697400915789701870e+00,-3.037825363588789518e+00,-1.476715940175570374e+01,-6.317156049904446569e+00,-3.240553968962621045e+00,-4.345600662208092047e+00,-4.433778777041314179e+00,-4.169186369228164324e+00,-4.555294071406458478e+00,-3.338347258635633530e+00
0.000000000000000000e+00,0.000000000000000000e+00,0.000000000000000000e+00,0.000000000000000000e+00,0.000000000000000000e+00,0.000000000000000000e+00,0.000000000000000000e+00,0.000000000000000000e+00,0.000000000000000000e+00,-4.882167863302907307e+00,-3.102850993110386923e+00,-6.034587510014784328e+00,-1.193416751829835576e+01,-8.255175678306052589e+00,-6.632134033243338500e+00,-5.403038743356812112e+00,-2.631872686255735672e-01,-7.736164149577834159e+00,-6.543674546882297882e+00,-5.131337232080606547e+00,-1.559283932440274434e+01,-5.831749193890827243e+00,-6.353390378141424044e+00,-4.584451194945653008e+00,-6.391504629380562186e+00,-8.314974338056224212e+00,-8.445564172372588274e+00,-8.840509596089495048e+00,-1.170514709942720621e+01,-1.203317815789896628e+01,-6.532714381155544814e+00,-6.223556348897000490e+00,-1.117859099987494709e+01,-5.996516049452483621e+00,-8.229139087197701485e+00,-1.461139214283655541e+01,-7.421697784821418509e+00,-7.968015049654272097e+00,-6.144974669611014129e+00,-9.637269727643177575e+00,-1.036633595189120172e+01,-1.112305257142267578e+01,-7.640248863880996666e+00,-5.779822545483220608e+00,-6.222765782968322945e+00,-6.580636248243292741e+00,-1.029195610770037916e+01,-9.949086972257299877e+00,-1.121652923073302155e+01,-5.502094810392640589e+00,-5.357680876277187920e+00,-5.697692478643062941e+00,-6.381739821260622669e+00,-9.329971873680541705e+00,-8.181718079025880996e+00,-5.718102115012859699e+00,-9.218397202252727851e+00,-1.042393690354939473e+01,-6.138882172933632475e+00,-5.312458171269249796e+00,-8.447629886227925766e+00,-6.572922568508888119e+00,-6.659500170167073740e+00,-7.981183591156254309e+00,-1.175889495804042895e+01,-6.180173646761577544e+00,-6.674179598060101526e+00,-1.389643067638776763e+01,-1.230075308127848999e+01,-1.091029682949552893e+01,-6.901787804259631898e+00,-1.300756762870737049e+01,-1.021839611303426842e+01,-1.361487037148082280e+01,-1.200452551317642502e+01,-7.597356140541701386e+00,-1.361290421756717350e+01,-9.435667234770008349e+00,-1.030960614682894061e+01,-1.219691407280663320e+01,-9.922312212979713664e+00,-8.878652705128521561e+00,-1.452302920383280460e+00,-4.430370519753209280e+00,-6.365864513802525160e+00,-7.122310302231337431e+00,-6.704595317718608172e+00,-5.434942053968672582e+00,-7.366947750868613198e+00,-8.607507411625077154e+00,-4.458189240361205563e+00,-9.340012806838794646e+00,-8.006529419348892063e+00,-8.968436402686014830e+00,-5.351966792505182369e+00,-5.844990135358446359e+00,-5.309070769953820879e+00,-1.136480345594374519e+01,-6.568517552436295759e+00,0.000000000000000000e+00,0.000000000000000000e+00,-5.990276263044091110e+00,-4.399676141184214018e+00,-3.291434185690367720e+00,-1.891700473023484319e+00,-5.714358165950501167e+00,-6.048925497731265644e+00,0.000000000000000000e+00,-2.109604541324070937e+00,-3.632216260886396153e+00,-2.598294071655791626e+00,0.000000000000000000e+00,0.000000000000000000e+00,0.000000000000000000e+00,0.000000000000000000e+00,0.000000000000000000e+00,-3.047488150828494557e+00,0.000000000000000000e+00,-7.469240003190746435e+00,-1.217847084034557881e+01,-1.062684002355207369e+01,-7.673660997995984445e+00,-1.041776529466741685e+01,-8.693770377475514621e+00,-7.834771814648231469e+00,-7.429930610329930296e+00,-9.744123212850071880e+00,-3.896229739753801269e+00,-5.392465036920961019e+00,-6.617340962409119065e+00,-6.723419885891164682e+00,-4.997767840827913588e+00,-4.287301894987593620e+00,-1.840528909211036845e+00,-2.468906935933173230e+00,0.000000000000000000e+00,-3.254390161837300344e+00,-3.840733173172475645e+00,-7.007568222814412273e+00,-9.370274402548053772e+00,-1.120074724413235323e+01,-7.775540485113061173e+00,-1.682175098381358325e+01,-1.572749251223289768e+01,-1.687292618304324066e+01,-1.695401399386039287e+01,-1.246311495367596045e+01,-1.068464113551254613e+01,-7.221002838463158824e+00,-8.238581307622277805e+00,-5.186890140635457946e+00,-4.984267419059795756e+00,-1.707294836829716544e+01,-6.841149148020013726e+00,-9.262055462742161183e+00,-7.914039696103807309e+00,-7.108354150765442192e+00,0.000000000000000000e+00,0.000000000000000000e+00,0.000000000000000000e+00,-5.479259615445791987e+00,-7.571781808998720109e+00,-7.185607282182326472e+00,-7.555512443041773274e+00,-6.952037235409935789e+00,0.000000000000000000e+00,0.000000000000000000e+00,0.000000000000000000e+00,-1.193096499362707874e+01,-1.595543022323643179e+01,0.000000000000000000e+00,-5.914316418769166361e+00,0.000000000000000000e+00,-2.315008514093820580e+00,-5.957440385886854983e+00,-6.124239704633439807e+00,-6.855696864290194092e+00,-4.084377553162368280e+00,-4.914405984483514622e+00,0.000000000000000000e+00,0.000000000000000000e+00,-6.599886041830750116e+00,0.000000000000000000e+00,-6.707755383195178389e+00,0.000000000000000000e+00,-5.603617535858522736e+00,0.000000000000000000e+00,-4.988852445039098527e+00,-5.067805938112324604e+00,0.000000000000000000e+00,-5.098525567353460630e+00,0.000000000000000000e+00,0.000000000000000000e+00,0.000000000000000000e+00,-4.617881837723786909e+00,0.000000000000000000e+00,0.000000000000000000e+00,0.000000000000000000e+00,0.000000000000000000e+00,-5.077594039786187174e+00,0.000000000000000000e+00,0.000000000000000000e+00,-5.008479685268278025e+00,-5.421422882952050770e+00,-6.564024419976036917e+00,0.000000000000000000e+00,0.000000000000000000e+00,-7.285308122086867400e+00,-5.341103206639643552e+00,0.000000000000000000e+00,-5.416300808105613207e+00,-5.903956851257484040e+00,-7.704608248890304267e+00,-5.613046928046257378e+00,-6.339731871834424659e+00,-7.296402334634423781e+00,-5.193363630895681204e+00,-3.057740343418566820e+00,-5.393715572387369761e+00,-5.795655636729033944e+00,-3.836864968933731301e+00,-6.395636688001669512e+00,-5.336954052052414355e+00,-3.166206687739701042e+00,-6.178438054027161286e+00,-2.982092318444861778e+00,0.000000000000000000e+00,-1.561041395386098607e+01,-7.436098698430795295e+00,-5.498361023711331619e+00,-1.238056090629731187e+01,-5.135852808381625501e+00,-7.014996631718008580e+00,-5.198748338332591423e+00,-8.212653112812901668e+00,0.000000000000000000e+00,0.000000000000000000e+00,0.000000000000000000e+00,0.000000000000000000e+00,0.000000000000000000e+00,0.000000000000000000e+00,0.000000000000000000e+00,0.000000000000000000e+00,0.000000000000000000e+00,-1.584882832397019436e+00,-2.603514068736304310e+00,0.000000000000000000e+00,0.000000000000000000e+00,0.000000000000000000e+00,0.000000000000000000e+00,-1.012069257537302214e+01,0.000000000000000000e+00,0.000000000000000000e+00,0.000000000000000000e+00,0.000000000000000000e+00,0.000000000000000000e+00,-4.813180137300944850e+00,-6.916151477720570817e+00,-5.552212532689394742e+00,-3.921241542511424427e+00,-6.920192285129087573e+00,-1.058083773774564662e+01,-6.862988475870138494e+00,-1.349583316949780176e+01,-7.170124142755242680e+00,-6.549881638117720506e+00,-6.319042168210905253e+00,-4.683957769134908133e+00
0.000000000000000000e+00,0.000000000000000000e+00,0.000000000000000000e+00,0.000000000000000000e+00,0.000000000000000000e+00,0.000000000000000000e+00,0.000000000000000000e+00,0.000000000000000000e+00,0.000000000000000000e+00,0.000000000000000000e+00,-5.577922638463929772e+00,-1.783204114705269738e+00,-3.908502779539593686e+00,-6.792698374996504640e+00,-1.211448432280978871e+00,-5.331868078854776094e+00,0.000000000000000000e+00,-4.542947298082573027e-01,-6.122461500560684833e+00,-3.971711952839143578e+00,-6.603681914105216322e+00,-5.786937322557171193e+00,0.000000000000000000e+00,-3.690346726829474289e+00,-1.113156873252817869e+00,-5.078575223377013614e+00,-6.856115199446902508e+00,-4.183922805084558050e+00,-6.100904735892123121e+00,-4.997082803573929866e+00,-4.542112599965977715e+00,0.000000000000000000e+00,-7.241528748366166113e+00,-5.641555801922949698e+00,-5.467077678833064169e+00,-9.773478090609852842e+00,-6.597240464711941144e+00,-6.409510780223671489e+00,-6.085949790141763849e+00,-7.782300291231394773e+00,-6.450314759831006661e+00,-3.836730534432814199e+00,-7.441765662295614092e+00,-2.780952406510788677e+00,0.000000000000000000e+00,-6.516973012378735497e+00,0.000000000000000000e+00,-6.119492305689922418e+00,-5.349599327745838906e+00,0.000000000000000000e+00,-3.421042594714440027e-02,-5.855712525716562311e+00,-5.902601837460779599e+00,-6.141091738872854755e+00,0.000000000000000000e+00,0.000000000000000000e+00,0.000000000000000000e+00,-2.482380660283142401e-02,-9.394951472146174931e-02,-1.354227395885358176e-01,-5.321737218284711801e+00,-5.426713705652136177e+00,-6.217810237689795905e+00,-7.076195884546310211e+00,0.000000000000000000e+00,0.000000000000000000e+00,0.000000000000000000e+00,-1.456597485316966756e+00,0.000000000000000000e+00,0.000000000000000000e+00,0.000000000000000000e+00,-6.496855368000982622e+00,-4.386936203109882193e+00,-6.806791288760766889e+00,-6.039323532870713329e+00,-5.943718218717066293e+00,-1.890017622083388638e+00,-5.967450780478411154e+00,-5.361647018106892482e+00,-6.537208227067752730e+00,-6.384935978123058575e+00,-6.642955064830392331e+00,-7.521400227055111687e-01,-6.479160501934657646e-01,-1.008750077318605110e+00,-2.812751152065827709e-01,-5.608088075710485398e+00,-1.119741911019794145e+00,-2.385937385322783211e+00,-2.265884107789893243e+00,-3.468242120600183442e-01,-3.268631655380096923e+00,-6.489185933869852541e+00,-4.931397806633316172e+00,-2.780598019020729672e-01,-4.340762121672099294e-01,-4.460647966864738634e-01,-4.087844694782669208e+00,-5.608526428445784973e+00,-2.560335397211102038e+00,-7.209999236131409139e-02,-5.189665242825221902e+00,-4.730567779116938709e+00,-5.178677074731198537e+00,-1.836861780248552733e+00,-1.935117190734663817e+00,0.000000000000000000e+00,-4.801917353472259897e+00,-3.804467187442631015e+00,-4.072713410019244584e+00,-3.913956718840566840e+00,-3.958468749378960094e+00,-3.711457502799547559e+00,-5.044847132384863819e+00,0.000000000000000000e+00,0.000000000000000000e+00,-5.790999391005676955e+00,0.000000000000000000e+00,0.000000000000000000e+00,-9.592845368049532695e+00,-4.591810447787617377e+00,-4.621673748745926957e+00,-6.647379631964567714e+00,-8.583108936941588496e+00,-5.813803468377205519e+00,-1.146376395913364821e+00,-4.889496864680872079e+00,-6.022689808791650279e+00,-5.880008485232464999e+00,-6.627477796456664905e+00,-7.861102424337222061e+00,-5.190761408717488479e+00,-4.868848978221784307e+00,-3.841095620274743300e-02,-5.571439119549933539e-01,-1.433685863597466525e+00,-2.145662372304301346e+00,-1.470992023309439567e+00,-4.183665250365644184e+00,-4.889041568009587557e+00,-5.913282301320043288e+00,-5.355589480249594025e+00,-1.416303764085618511e+01,-1.252722151427902908e+01,-1.383459969634850495e+01,-1.247296726125343369e+01,-1.340748914246434609e+01,-8.809727404027997366e+00,-8.062408647762545399e+00,-5.712992353143253155e+00,-5.840262621191988579e+00,-7.309306621184562536e-01,-8.059338678098962205e+00,-6.906480982964918525e+00,-7.265318525389152349e+00,-6.737060460154198793e+00,-7.283198759829338620e+00,0.000000000000000000e+00,0.000000000000000000e+00,0.000000000000000000e+00,-7.006516736611943408e+00,-5.989076294223356633e+00,-8.100063311356734630e+00,-6.821050378064642317e+00,-5.601464974375502948e+00,-5.668992657761505960e+00,-5.321128036385957216e+00,0.000000000000000000e+00,-7.744804585617286463e+00,-6.731553607832230668e+00,0.000000000000000000e+00,-3.068513470735294124e+00,0.000000000000000000e+00,-5.769409424337250236e+00,-5.586493989929099513e+00,-3.673313401015231516e+00,-5.245144533156511635e+00,-6.414112427072940825e+00,0.000000000000000000e+00,-6.101388648992843500e+00,0.000000000000000000e+00,-3.568691363917692261e+00,0.000000000000000000e+00,0.000000000000000000e+00,-5.236152431387435691e+00,0.000000000000000000e+00,0.000000000000000000e+00,-8.444259633265398080e+00,-4.533434676503813598e+00,0.000000000000000000e+00,-4.918471404708783190e+00,-4.975398241853836723e+00,-5.701910863259898044e+00,-5.704953660029325135e+00,-6.565834877724561203e+00,-5.476036758045805364e+00,-7.956856351158831941e+00,0.000000000000000000e+00,0.000000000000000000e+00,0.000000000000000000e+00,0.000000000000000000e+00,-3.761207149660484306e-01,-4.721172800643962830e+00,-5.639306675156525728e+00,-1.346394456305844756e+00,0.000000000000000000e+00,-4.734347222039468228e+00,-5.082101122131652993e+00,-7.640490519685924298e+00,-5.315070361511473607e+00,-6.522314978140101083e+00,-6.663073604313783704e+00,-6.170844106990310607e+00,-5.506374512254407882e+00,-6.034467589308928126e+00,-6.319124024176880461e+00,-4.842468009572103327e+00,-5.200828733808736004e+00,-5.117386630783020252e+00,-2.119885132654204085e+00,-5.887459311084310976e+00,-1.352835223143483478e+00,-4.685856034757478028e+00,-2.673921012176470935e+00,-1.416557758872218242e+00,-1.667915190832491845e+00,-3.290690780907031154e+00,-4.480253872944660820e+00,-6.952586543792552476e+00,-1.083999848294570967e+01,-6.470822997187833714e+00,-6.126471493659385814e+00,-2.412905504337364615e+00,-2.129432570847416439e+00,-1.008794694454461238e+00,0.000000000000000000e+00,0.000000000000000000e+00,0.000000000000000000e+00,0.000000000000000000e+00,0.000000000000000000e+00,0.000000000000000000e+00,0.000000000000000000e+00,0.000000000000000000e+00,0.000000000000000000e+00,0.000000000000000000e+00,0.000000000000000000e+00,0.000000000000000000e+00,-1.250039298158876822e+00,0.000000000000000000e+00,0.000000000000000000e+00,-6.463644329556749391e+00,0.000000000000000000e+00,-4.165578657838875376e-01,-2.581075021728564511e+00,-1.710018555326434875e+00,-8.699161161514446405e+00,-8.959054286958851421e+00,-6.775180497344208241e+00,-6.277825619677742885e+00,-8.256997226779397181e+00,-8.573942873329199799e+00,-1.077487770778020781e+01,-6.891616959611348570e+00,-8.251155197120354501e+00,-7.333223457510431587e+00,-1.006455762517098229e+01,-8.383165392146558759e+00,-1.215228554218578338e+01
0.000000000000000000e+00,0.000000000000000000e+00,0.000000000000000000e+00,0.000000000000000000e+00,0.000000000000000000e+00,0.000000000000000000e+00,0.000000000000000000e+00,0.000000000000000000e+00,0.000000000000000000e+00,0.000000000000000000e+00,0.000000000000000000e+00,-1.117496903913249184e+01,-1.140750690201364925e+01,-5.856893743611582437e+00,-9.252700895633889644e+00,-5.530414290290297963e+00,-1.179790899507192314e+01,0.000000000000000000e+00,-7.886978949083280455e+00,-1.281985100593854554e+01,-1.631426840282662027e+01,-6.907273940576608595e+00,-6.706115647737711960e+00,0.000000000000000000e+00,0.000000000000000000e+00,-1.230797006181404463e+01,-6.257016607050583268e+00,-7.104303427461621467e+00,-1.079988776827902264e+01,-1.741720370921220606e+01,-6.393775409755157568e+00,-5.990280824858873032e+00,-8.097614213770114588e+00,-5.550300768792817863e+00,-5.619282390922427872e+00,-7.442580269747262278e+00,-6.747697666100506808e+00,-5.643679491040972884e+00,-4.948418362893927558e+00,-7.426911497366540438e+00,-6.876820961858310710e+00,-1.316931457477327427e+01,-6.199857672743349646e+00,0.000000000000000000e+00,-6.497672807050393295e+00,-1.309790100133809609e+01,-1.778736478541899402e+01,-9.032210122639568795e+00,-1.645613770022256261e+01,-6.404367391521650354e+00,-6.273829158157377073e+00,-5.660203333083286381e+00,-1.024226449337076694e+01,-1.055382144132194355e+01,-8.949070231698124545e+00,-7.482269743586542177e+00,-1.014851937450264785e+01,-9.781289503523510120e+00,-5.357729734089812901e+00,-5.701857052958728467e+00,-6.668165103347981848e+00,-7.646176442340792079e+00,-6.612317029079950892e+00,-1.274596798019147492e+01,-1.133977173097102309e+01,-5.127825594105553719e+00,-5.097631483085804049e+00,-1.856619830749439615e+01,-1.606202046458054866e+01,-1.157529026860370358e+01,-4.691662291982908073e+00,-5.845199830207558733e+00,-6.049810375171390753e+00,-7.002451292992534881e+00,-6.043484861936621932e+00,-5.907316095467702866e+00,-5.152300373386471399e+00,-5.376842153395289259e+00,-6.997791000736460987e+00,-5.545185309505291649e+00,-6.404711162031603067e+00,0.000000000000000000e+00,-5.728334157715874397e+00,0.000000000000000000e+00,-4.595373198172475249e+00,-6.412089203561034623e+00,-6.258343152421193878e+00,-3.866208618099610028e+00,-4.746002786909070181e+00,-3.560311002777534650e+00,-4.445083842418394937e+00,-5.363706897148377450e+00,-5.573373382014598754e+00,-6.000785787977731545e+00,-5.283118550895100185e+00,-4.072459102822167942e+00,-4.022199826051144456e+00,0.000000000000000000e+00,-4.808633655085877479e+00,0.000000000000000000e+00,0.000000000000000000e+00,-6.410217051570370472e+00,0.000000000000000000e+00,0.000000000000000000e+00,0.000000000000000000e+00,0.000000000000000000e+00,0.000000000000000000e+00,0.000000000000000000e+00,0.000000000000000000e+00,0.000000000000000000e+00,0.000000000000000000e+00,0.000000000000000000e+00,0.000000000000000000e+00,-5.573147821027283122e+00,0.000000000000000000e+00,0.000000000000000000e+00,0.000000000000000000e+00,0.000000000000000000e+00,0.000000000000000000e+00,-1.728371800174274497e+01,-1.187900450055204971e+01,-6.277307129742212943e+00,-6.386451773570131607e+00,-6.206306238202961900e+00,-5.804098859767259810e+00,-7.073369388868070651e+00,-7.331564642907321350e+00,-4.255095772301419998e+00,-5.594447069251250682e+00,-5.554968059065636510e+00,-4.751248158302171731e+00,-5.445672995580308928e+00,0.000000000000000000e+00,-4.824021614081501319e+00,-4.995102557711049052e+00,0.000000000000000000e+00,-3.275810529988956166e+00,-5.050641765031809172e+00,-5.476326459917011391e+00,-6.068064080479583566e+00,-7.973163726942348539e+00,-7.055518327473736306e+00,-1.560893937762264549e+01,-1.656814783831688587e+01,-2.532745319257415062e+01,-2.489583345921104751e+01,-2.227669569684043083e+01,-2.090346134399159084e+01,-9.216335616725217506e+00,-6.521897159673853750e+00,-6.815590516601508497e+00,-1.454319931464906190e+01,0.000000000000000000e+00,-5.372454862687292554e+00,-1.479169295786180527e+01,-1.138690586246521264e+01,-7.883509112519946349e+00,0.000000000000000000e+00,0.000000000000000000e+00,0.000000000000000000e+00,-7.082518727809868686e+00,-7.322020030589178496e+00,-1.241314460116777241e+01,-8.055631505054662966e+00,-8.801107618651801801e+00,-1.017091395207697424e+01,-6.240191882690239389e+00,0.000000000000000000e+00,-6.172833068609197227e+00,0.000000000000000000e+00,-7.065237132783163787e+00,0.000000000000000000e+00,0.000000000000000000e+00,-6.201677064212366197e+00,0.000000000000000000e+00,0.000000000000000000e+00,-5.729392933348854910e+00,0.000000000000000000e+00,0.000000000000000000e+00,-6.112770978626658192e+00,0.000000000000000000e+00,0.000000000000000000e+00,-5.760565796191678523e+00,0.000000000000000000e+00,0.000000000000000000e+00,-6.068044391735413434e+00,0.000000000000000000e+00,-5.993772935382712497e+00,-6.262184981723513566e+00,0.000000000000000000e+00,0.000000000000000000e+00,0.000000000000000000e+00,-8.359641095017110501e+00,0.000000000000000000e+00,0.000000000000000000e+00,0.000000000000000000e+00,-5.678441848385081592e+00,0.000000000000000000e+00,-5.475897648328770906e+00,0.000000000000000000e+00,0.000000000000000000e+00,0.000000000000000000e+00,-6.651882411953788043e+00,-7.584632320296569752e+00,0.000000000000000000e+00,0.000000000000000000e+00,0.000000000000000000e+00,-5.270604267598955062e+00,-5.096625548158059793e+00,0.000000000000000000e+00,0.000000000000000000e+00,-6.235748058259207305e+00,-7.742859895500559198e+00,-5.322652976095858968e+00,-7.951404854682347256e+00,0.000000000000000000e+00,0.000000000000000000e+00,0.000000000000000000e+00,-1.189869257246131795e+01,0.000000000000000000e+00,-5.225691227272031725e+00,0.000000000000000000e+00,0.000000000000000000e+00,-4.795929828171623832e+00,0.000000000000000000e+00,0.000000000000000000e+00,0.000000000000000000e+00,-5.723435519446571362e+00,0.000000000000000000e+00,0.000000000000000000e+00,0.000000000000000000e+00,0.000000000000000000e+00,0.000000000000000000e+00,0.000000000000000000e+00,-1.690500211246566309e+01,0.000000000000000000e+00,0.000000000000000000e+00,0.000000000000000000e+00,0.000000000000000000e+00,0.000000000000000000e+00,0.000000000000000000e+00,0.000000000000000000e+00,0.000000000000000000e+00,0.000000000000000000e+00,0.000000000000000000e+00,0.000000000000000000e+00,0.000000000000000000e+00,0.000000000000000000e+00,0.000000000000000000e+00,0.000000000000000000e+00,0.000000000000000000e+00,0.000000000000000000e+00,0.000000000000000000e+00,0.000000000000000000e+00,0.000000000000000000e+00,0.000000000000000000e+00,-7.565737324277927556e+00,-5.478446567887633734e+00,-6.725833174169532747e+00,-6.658077500613653221e+00,-5.853487316634123694e+00,-4.217775409722674951e+00,-5.319363334620384798e+00,0.000000000000000000e+00,0.000000000000000000e+00,-5.313407914681199884e+00,-5.004872868624100413e+00,-8.700217944631177147e+00
0.000000000000000000e+00,0.000000000000000000e+00,0.000000000000000000e+00,0.000000000000000000e+00,0.000000000000000000e+00,0.000000000000000000e+00,0.000000000000000000e+00,0.000000000000000000e+00,0.000000000000000000e+00,0.000000000000000000e+00,0.000000000000000000e+00,0.000000000000000000e+00,-1.095031105236733104e+01,-5.905757520925217108e+00,-6.518061677045901448e+00,-7.129277837673466678e+00,0.000000000000000000e+00,-9.141752848917716889e+00,-1.363740962498092557e+01,-1.457431695335028188e+01,-1.576047655206778408e+01,-6.195444359412542568e+00,-6.127377889595580385e+00,-4.783340388854629310e+00,-6.683159604769563167e+00,-5.826780360377772361e+00,-8.501787318104524260e+00,-5.267550645268292087e+00,-8.868787697864508601e+00,-6.096686407366517457e+00,-8.496944906817336829e+00,-6.430844284583971948e+00,-1.995852520720617562e+01,-1.024109337497804084e+01,-8.530993071880478951e+00,-1.453044013164582715e+01,-7.580994287925378217e+00,-7.251770514192675599e+00,-6.226824885460208847e+00,-8.836324989559646070e+00,-7.322055600651372842e+00,-9.180013413724408267e+00,-7.719863949236731138e+00,-5.563192124999890353e+00,-6.565616781814451741e+00,-6.124965385848336830e+00,-7.362000997169282357e+00,-6.287776745560572422e+00,-5.454266532243839727e+00,-5.248942559907112226e+00,-5.545702868165816923e+00,-6.412703162302634041e+00,-6.844677936418944952e+00,-5.493445988731613383e+00,-6.341933118086081400e+00,0.000000000000000000e+00,-5.192072723301605741e+00,-3.953798786335965154e+00,-6.241686134442937295e+00,-9.230720916817258370e+00,-9.588365998590679951e+00,-5.977694873966515665e+00,-4.853774645557866307e+00,0.000000000000000000e+00,-5.677689345211594407e+00,-5.501048012660965547e+00,-2.946754100705258672e+00,-4.136350639100828452e+00,-6.200702175788895154e+00,-6.831373357248394562e+00,-4.973273642110789261e+00,-3.608990361808297465e+00,-5.747371306080211184e+00,-8.451643144685986542e+00,-6.668393351494376731e+00,-6.675043066969607253e+00,-5.555322877750325183e+00,-5.682273319060216821e+00,-8.494418483497801375e+00,-6.506431664804758874e+00,-5.487363003782991022e+00,-8.512526658726637052e+00,-4.823892940475900559e+00,-3.946026239732020713e+00,-2.301134090464266535e+00,-6.095081836702628486e+00,-5.327633985132170125e+00,-6.976689962812883117e+00,-5.425245156060788609e+00,-4.837594742979873352e+00,-5.604370396315180081e+00,-7.192087905975929729e+00,-6.034426443364254489e+00,-5.842860956304503084e+00,-6.161816404963587956e+00,-5.421541477004603315e+00,-5.267675777108261848e+00,-8.335365260005929144e+00,-6.384884524797685756e+00,-4.775778713325271596e+00,0.000000000000000000e+00,0.000000000000000000e+00,-5.400168564645453806e+00,0.000000000000000000e+00,-6.005610899337144204e+00,0.000000000000000000e+00,0.000000000000000000e+00,0.000000000000000000e+00,-5.422150044252703971e+00,0.000000000000000000e+00,-5.024794387390251416e+00,0.000000000000000000e+00,0.000000000000000000e+00,-4.864182148691297947e+00,0.000000000000000000e+00,0.000000000000000000e+00,-6.487883243113357956e+00,0.000000000000000000e+00,0.000000000000000000e+00,-1.270872552698794777e+01,-9.053158213918273134e+00,-6.644699240991118749e+00,-2.050228214509768776e+01,-9.857484006580101266e+00,-7.027209877744769351e+00,-6.826188912700854594e+00,-1.046507611749311017e+01,-9.926810953519385805e+00,-1.277331883613948094e+01,-1.266607669656073298e+01,-1.444820581574337837e+01,-8.343889574181368118e+00,-5.744289316759009445e+00,-6.212915150101213507e-02,0.000000000000000000e+00,0.000000000000000000e+00,-4.344444542058533365e+00,-5.530785731238627712e+00,-6.816299122327207805e+00,-6.304446579077608526e+00,-6.285680038697659455e+00,-6.218387276260161300e+00,-1.281339108655879322e+01,-1.463573193644661252e+01,-2.222124659257726265e+01,-1.909455390382004225e+01,-2.182560760322751392e+01,-2.338548410705569580e+01,-2.038937951747512045e+01,-7.915402809795953232e+00,0.000000000000000000e+00,-7.115640265629952665e+00,0.000000000000000000e+00,-6.370928067590302390e+00,-8.145513780270297488e+00,-1.159019172759060012e+01,-8.777327461926820007e+00,0.000000000000000000e+00,-1.264265104676537277e+01,0.000000000000000000e+00,-1.826829903859898963e+01,-8.505850579926937272e+00,-2.300214045751811298e+01,-9.580098228907532487e+00,-1.084280276348010297e+01,-9.895405183656155401e+00,-1.053018995040322281e+01,-8.719368449041024149e+00,-5.988028879377860214e+00,-1.015395647985960714e+01,0.000000000000000000e+00,0.000000000000000000e+00,0.000000000000000000e+00,-1.976678959046893169e+00,-5.805020933205834233e+00,0.000000000000000000e+00,-5.278761263654671687e+00,-4.275702045122635298e+00,-1.179062709342587612e+00,-1.002378775186446447e+01,-6.492770013343101887e+00,0.000000000000000000e+00,-6.599551004670203724e+00,0.000000000000000000e+00,0.000000000000000000e+00,0.000000000000000000e+00,0.000000000000000000e+00,-9.563719389571884832e+00,0.000000000000000000e+00,-7.701232809373194321e+00,0.000000000000000000e+00,-4.897192682319175816e+00,-8.349103282399816806e+00,0.000000000000000000e+00,-6.672480764125104713e+00,0.000000000000000000e+00,-7.618838655438318064e+00,0.000000000000000000e+00,0.000000000000000000e+00,-5.955555691179423405e+00,0.000000000000000000e+00,-6.716093269314584724e+00,-6.590165139387703874e+00,-6.020035352055508326e+00,0.000000000000000000e+00,-6.190690424330124841e+00,-6.220080171504456246e+00,-6.955105369078673938e+00,-8.251258714623499912e+00,0.000000000000000000e+00,0.000000000000000000e+00,-5.209896904110491889e+00,-5.702044317358838654e+00,-5.583794151723489030e+00,-6.081085640637668099e+00,0.000000000000000000e+00,-1.346264649705491401e+01,-1.359766223189331846e+01,-1.300438252962229768e+01,0.000000000000000000e+00,-6.235740007110880612e+00,-1.063393068958198562e+01,-6.548567102452929056e+00,-2.688969689564943533e+00,-5.321884765313758869e+00,-5.570945612805323854e+00,-4.656006836164076290e+00,-6.848017017383231320e+00,-1.521944505774855827e+01,-6.769356517675704232e+00,-5.737791121324204546e+00,-7.040334381360090710e+00,0.000000000000000000e+00,0.000000000000000000e+00,-5.697897531583207886e+00,-2.004574307207500627e+00,0.000000000000000000e+00,0.000000000000000000e+00,0.000000000000000000e+00,0.000000000000000000e+00,0.000000000000000000e+00,0.000000000000000000e+00,0.000000000000000000e+00,0.000000000000000000e+00,0.000000000000000000e+00,0.000000000000000000e+00,0.000000000000000000e+00,0.000000000000000000e+00,0.000000000000000000e+00,0.000000000000000000e+00,-1.194006034777318170e+01,0.000000000000000000e+00,0.000000000000000000e+00,0.000000000000000000e+00,0.000000000000000000e+00,0.000000000000000000e+00,-9.257683530558827201e+00,-6.415468621328825449e+00,-1.071589886156095517e+01,-7.164608995166135585e+00,-8.893041220985741901e+00,-8.919042009879031951e+00,-5.679122299563322152e+00,-9.594518155405452831e+00,-1.342977811937805122e+01,-1.183769346013437307e+01,-1.144041706520384771e+01,-1.361408243821480646e+01
0.000000000000000000e+00,0.000000000000000000e+00,0.000000000000000000e+00,0.000000000000000000e+00,0.000000000000000000e+00,0.000000000000000000e+00,0.000000000000000000e+00,0.000000000000000000e+00,0.000000000000000000e+00,0.000000000000000000e+00,0.000000000000000000e+00,0.000000000000000000e+00,0.000000000000000000e+00,-8.601617721243973946e+00,-8.304258389504703075e+00,-5.699715281408751721e+00,-5.307149941825015205e+00,-1.215800471787511228e+01,-1.254554157073738274e+01,-1.176972139787189064e+01,-1.549710936761456637e+01,-7.855865846855488499e+00,-6.656823899284506574e+00,-5.874321455003842729e+00,-1.333855128413425462e+01,-9.931894850028889721e+00,-9.835449466079500880e+00,-1.100525627243798610e+01,-1.160039131083973629e+01,-1.022536701937691284e+01,-1.198618722550953741e+01,-8.229649841285567646e+00,-1.783915815579574016e+01,-7.360292161941222489e+00,-7.403013221773123931e+00,-1.080038703377043063e+01,-7.875040744220421551e+00,-8.797151768358299151e+00,-6.586343758066221632e+00,-8.549980330888192981e+00,-9.380065158221116306e+00,-1.033037079450529028e+01,-8.339246725842992092e+00,-4.084577665005813429e+00,-4.746239224467565521e+00,-6.014810466079449469e+00,-1.123461195794522993e+01,-1.114413177668511246e+01,-1.084165485759615244e+01,-5.656768764677284622e+00,-4.675561929710807085e+00,-5.549855337206516914e+00,-6.462693306383290093e+00,-8.103288498169625598e+00,-7.076224470493481356e+00,-7.587571904923748889e+00,-1.098950582811723642e+01,-1.088961147513013472e+01,-7.357535779948626065e+00,-6.606430707747096065e+00,-7.537204396305735798e+00,-5.080897363409902390e+00,-5.705416617095694143e+00,-7.150055896104977826e+00,-1.476096336578460999e+01,-6.825059914641797398e+00,-6.620502466015519616e+00,-1.313114133885362378e+01,-1.138038878476422688e+01,-1.388861181216462093e+01,-7.351525348768532808e+00,-9.641769741714448116e+00,-1.025995402567199477e+01,-1.010235867546776589e+01,-6.152394618861788622e+00,-6.738417018040663287e+00,-5.154343565670176375e+00,-5.214881861722614254e+00,-5.789919315035851000e+00,-5.061559083389101765e+00,-6.122609655814638785e+00,-8.144866910500939028e+00,-6.236206032116283993e+00,-4.424903296436994538e+00,-3.942684741213611677e+00,-6.248613403418750600e+00,-6.483321859234553841e+00,-9.420943180216324819e+00,-7.522777000422500748e+00,-1.087111531645203577e+01,-4.154555555446401982e+00,-6.880788708295506595e+00,-7.348615271451172326e+00,-7.054146523262701862e+00,-5.580562641190859097e+00,-5.961535857874728173e+00,-6.822749294245203266e+00,-7.894342462470147481e+00,-7.029462866233388674e+00,0.000000000000000000e+00,0.000000000000000000e+00,-5.655496416489867784e+00,-2.184419230056780847e+00,0.000000000000000000e+00,0.000000000000000000e+00,0.000000000000000000e+00,-3.728953106512923998e+00,0.000000000000000000e+00,0.000000000000000000e+00,0.000000000000000000e+00,0.000000000000000000e+00,0.000000000000000000e+00,0.000000000000000000e+00,0.000000000000000000e+00,0.000000000000000000e+00,0.000000000000000000e+00,0.000000000000000000e+00,0.000000000000000000e+00,-6.630520138332669511e+00,-1.482776114381516663e+01,-1.090680794590676506e+01,-6.197857700846368445e+00,-1.587925269049341992e+01,-8.218687762168944033e+00,-7.366528036009611036e+00,-5.897952998721686768e+00,-8.301462836951754909e+00,-8.092945682762323401e+00,-8.616192922613267413e+00,-9.789792902095742377e+00,-9.225088582404573856e+00,-7.128117030830923184e+00,-4.703033187769174006e+00,0.000000000000000000e+00,0.000000000000000000e+00,0.000000000000000000e+00,-6.425848390598840054e-02,-1.386880833747403952e-01,-4.720265498007399252e+00,-5.327428335089093636e+00,-6.472715348671795432e+00,-6.507168568237108985e+00,-1.258640135448543873e+01,-1.631543782688877542e+01,-2.423862602976440073e+01,-2.335934792132519533e+01,-2.277904549260016864e+01,-2.447781697648317945e+01,-1.385510388607702303e+01,-7.057190037685730388e+00,-9.137347411441009370e+00,0.000000000000000000e+00,0.000000000000000000e+00,-5.951805391168681680e+00,-1.127999064014147379e+01,-1.194534835360211034e+01,-8.832569142292982178e+00,0.000000000000000000e+00,0.000000000000000000e+00,0.000000000000000000e+00,-1.407630979516476977e+01,-7.202405636939202438e+00,-1.900011959026165087e+01,-9.654381327119647693e+00,-9.105716129793087532e+00,-7.939659649881853021e+00,-1.041903090098797158e+01,-5.985409100735505916e+00,-6.852161716862410934e+00,-1.429640953468388531e+01,0.000000000000000000e+00,-5.701754146653214228e+00,0.000000000000000000e+00,-3.166437428691201372e+00,-5.481732759867307792e+00,-6.067274886466981876e+00,-7.609054968402833019e+00,-3.028671900881990897e+00,-6.645681906431556207e+00,-7.204968863432276827e+00,0.000000000000000000e+00,0.000000000000000000e+00,-5.999381517430025568e+00,0.000000000000000000e+00,0.000000000000000000e+00,0.000000000000000000e+00,0.000000000000000000e+00,-6.881198836284750264e+00,-5.881972022930585631e+00,0.000000000000000000e+00,0.000000000000000000e+00,-6.909702880849986073e+00,-7.872397049088123211e+00,0.000000000000000000e+00,0.000000000000000000e+00,0.000000000000000000e+00,-6.454266250166568852e+00,0.000000000000000000e+00,-6.051918852129138493e+00,0.000000000000000000e+00,0.000000000000000000e+00,0.000000000000000000e+00,-6.828937849191995646e+00,-8.247418265154173866e+00,0.000000000000000000e+00,0.000000000000000000e+00,0.000000000000000000e+00,-6.792955865349423306e+00,-7.614481154337725322e+00,0.000000000000000000e+00,0.000000000000000000e+00,-7.717032909288213283e+00,0.000000000000000000e+00,-7.132154081433736970e+00,0.000000000000000000e+00,0.000000000000000000e+00,-5.687044305599641802e+00,-8.982700754545481558e+00,-6.291742380296674320e+00,-1.139823321111236609e+01,-5.957206887427170194e+00,-6.208539156283355176e+00,0.000000000000000000e+00,-6.268656152712825502e+00,-4.539624285155909433e+00,-4.153763164175011013e+00,0.000000000000000000e+00,0.000000000000000000e+00,-1.273107121794316932e+01,0.000000000000000000e+00,-1.392250363712220995e+01,0.000000000000000000e+00,0.000000000000000000e+00,0.000000000000000000e+00,0.000000000000000000e+00,0.000000000000000000e+00,-5.807200801210637309e+00,0.000000000000000000e+00,0.000000000000000000e+00,0.000000000000000000e+00,0.000000000000000000e+00,0.000000000000000000e+00,0.000000000000000000e+00,0.000000000000000000e+00,-5.072344916183762820e+00,-3.690306020755012462e+00,0.000000000000000000e+00,0.000000000000000000e+00,0.000000000000000000e+00,0.000000000000000000e+00,-1.369393625711044749e+01,0.000000000000000000e+00,0.000000000000000000e+00,0.000000000000000000e+00,0.000000000000000000e+00,0.000000000000000000e+00,-6.273501987410559089e+00,-6.278238144432667589e+00,-8.626723422322655210e+00,-5.607505399754755260e+00,-8.206598862421218499e+00,-7.083110127196817984e+00,-6.221189223864862505e+00,-6.720115551728582659e+00,-7.519258126024434219e+00,-7.510528367106468650e+00,-6.732794199057294371e+00,-5.913401779959965410e+00
0.000000000000000000e+00,0.000000000000000000e+00,0.000000000000000000e+00,0.000000000000000000e+00,0.000000000000000000e+00,0.000000000000000000e+00,0.000000000000000000e+00,0.000000000000000000e+00,0.000000000000000000e+00,0.000000000000000000e+00,0.000000000000000000e+00,0.000000000000000000e+00,0.000000000000000000e+00,0.000000000000000000e+00,-6.765142264403261940e+00,-5.843589734772545619e+00,-5.886940847299634960e+00,-1.092581936721866143e+01,-6.628310682813649102e+00,-2.044047143788138143e+01,-1.703784044413971444e+01,-7.435114039876292047e+00,-5.366730169556680252e+00,-9.903413048404704710e+00,0.000000000000000000e+00,-1.278240823234752632e+01,-5.814225401353210643e+00,-1.293348261892562334e+01,-1.193857750763351433e+01,-1.623411968397802596e+01,-1.214197090963462600e+01,-7.383316242832277609e+00,-7.831629918350309083e+00,-8.042173538795728049e+00,-7.432668630681146027e+00,-5.650378632200565576e+00,-9.245659443059169647e+00,-6.021444975029953461e+00,-7.433700694559826516e+00,0.000000000000000000e+00,-5.517276726612754700e+00,-1.308894882764428935e+01,-6.738222176312922862e+00,0.000000000000000000e+00,-4.708084500568695319e+00,-7.626069261324307291e+00,-1.961798751163705390e+01,-9.342843147690702565e+00,-1.654742507066616852e+01,-6.655736036812861300e+00,0.000000000000000000e+00,0.000000000000000000e+00,-6.592249194801659051e+00,-7.956691213732250745e+00,-6.951306165169901519e+00,-6.596305829520717090e+00,-9.119755409592690043e+00,-8.939890058953201546e+00,-6.257822977797458108e+00,-5.511399696753719546e+00,-7.580206746125342399e+00,0.000000000000000000e+00,-6.055773634295848140e+00,-8.417743511988700078e+00,-1.112234330735546450e+01,-6.194824829378942077e+00,-6.410997929700491760e+00,-1.532721699159678863e+01,-1.394648368442572739e+01,-1.128378303269406580e+01,-4.589499365488888927e+00,-2.678631834749467533e+00,-7.102744695882230452e+00,-5.563357673908761569e+00,-3.751828170745178603e+00,0.000000000000000000e+00,-2.261248460746432265e+00,-5.394131384728332534e+00,0.000000000000000000e+00,0.000000000000000000e+00,0.000000000000000000e+00,0.000000000000000000e+00,-5.270460682512143613e+00,-6.319283297468698990e+00,0.000000000000000000e+00,0.000000000000000000e+00,-5.774363893656420110e+00,-5.668053280910240410e+00,0.000000000000000000e+00,0.000000000000000000e+00,-2.990350533609618555e+00,-6.220380265167850808e+00,-5.799648095516066526e+00,-6.252615940140038298e+00,-4.255647655104517035e+00,-6.476500652655657220e+00,-7.015746984331841851e+00,0.000000000000000000e+00,-5.887923968306299827e+00,0.000000000000000000e+00,0.000000000000000000e+00,-6.468723693048030299e+00,0.000000000000000000e+00,0.000000000000000000e+00,0.000000000000000000e+00,0.000000000000000000e+00,-3.499254406992097888e+00,-6.437585614172138371e+00,0.000000000000000000e+00,0.000000000000000000e+00,0.000000000000000000e+00,0.000000000000000000e+00,0.000000000000000000e+00,0.000000000000000000e+00,0.000000000000000000e+00,0.000000000000000000e+00,0.000000000000000000e+00,0.000000000000000000e+00,-2.859697243975950265e+00,-2.032811722256975173e+01,-2.297383088009294738e+01,-6.840923931225557197e+00,-7.992247443525751116e+00,-8.296863952831820654e+00,-6.735613603815008510e+00,-6.758539345796632070e+00,-7.265017647535666256e+00,-7.307346647022391117e+00,-6.334886672550078757e+00,-6.828814848116548042e+00,-6.826939526576410344e+00,-5.981211374164394634e+00,-5.440593173995367238e+00,0.000000000000000000e+00,0.000000000000000000e+00,0.000000000000000000e+00,0.000000000000000000e+00,0.000000000000000000e+00,-5.886418145981478389e+00,-6.953148436256556764e+00,-6.344760634710064018e+00,-9.095533687190059169e+00,-8.735330791395956140e+00,-8.112038903678508106e+00,-2.199451046528463038e+01,-2.497001534267994316e+01,-2.463966702717963386e+01,-3.047257348699434232e+01,-1.993839590510509296e+01,-8.230107527249536759e+00,-9.174463493310348383e+00,0.000000000000000000e+00,0.000000000000000000e+00,-6.222041469849514783e+00,-1.626518153244442644e+01,-3.297503251112599543e+01,-1.356436147665381320e+01,-1.188429673033915179e+01,-1.759703032683269797e+01,-1.251014263839645047e+01,-3.169445599588026496e+01,-2.243961599319990086e+01,-3.853642050547217224e+01,-3.381144764655957857e+01,-3.145595146600652825e+01,-2.039216168746451174e+01,-1.211011845243662322e+01,-1.567958038502134066e+01,-1.370708361775830220e+01,-1.376640349772428529e+01,0.000000000000000000e+00,0.000000000000000000e+00,0.000000000000000000e+00,-7.394151022039684662e+00,-7.506441243327723889e+00,0.000000000000000000e+00,-5.884487134323079793e+00,0.000000000000000000e+00,0.000000000000000000e+00,0.000000000000000000e+00,0.000000000000000000e+00,-5.899490161205070748e+00,-8.330311234427069778e+00,0.000000000000000000e+00,0.000000000000000000e+00,0.000000000000000000e+00,0.000000000000000000e+00,-1.392963639519925145e+01,-5.983859369066052203e+00,0.000000000000000000e+00,0.000000000000000000e+00,0.000000000000000000e+00,0.000000000000000000e+00,0.000000000000000000e+00,0.000000000000000000e+00,0.000000000000000000e+00,0.000000000000000000e+00,0.000000000000000000e+00,-8.352796926366476526e+00,-7.438146330674034523e+00,0.000000000000000000e+00,0.000000000000000000e+00,-5.357512687000616225e+00,-7.101337407541207902e+00,0.000000000000000000e+00,-6.522005378985848978e+00,0.000000000000000000e+00,-1.007381064766777889e+01,-7.482143570400675792e+00,0.000000000000000000e+00,0.000000000000000000e+00,0.000000000000000000e+00,0.000000000000000000e+00,0.000000000000000000e+00,0.000000000000000000e+00,0.000000000000000000e+00,-6.060488490312633481e+00,0.000000000000000000e+00,-2.079969941704608516e+01,0.000000000000000000e+00,-4.622038437217764084e+00,-9.584515602036326243e+00,0.000000000000000000e+00,-6.677880429710477017e+00,0.000000000000000000e+00,0.000000000000000000e+00,0.000000000000000000e+00,-7.523085162536721882e+00,0.000000000000000000e+00,0.000000000000000000e+00,0.000000000000000000e+00,0.000000000000000000e+00,0.000000000000000000e+00,0.000000000000000000e+00,0.000000000000000000e+00,0.000000000000000000e+00,0.000000000000000000e+00,0.000000000000000000e+00,0.000000000000000000e+00,0.000000000000000000e+00,0.000000000000000000e+00,0.000000000000000000e+00,0.000000000000000000e+00,0.000000000000000000e+00,0.000000000000000000e+00,0.000000000000000000e+00,0.000000000000000000e+00,0.000000000000000000e+00,0.000000000000000000e+00,0.000000000000000000e+00,-1.584327441425242178e+01,0.000000000000000000e+00,0.000000000000000000e+00,0.000000000000000000e+00,0.000000000000000000e+00,0.000000000000000000e+00,-7.853151722512801136e+00,-6.233738577097434508e+00,-2.028631015990328379e+01,-7.005697548555348320e+00,-1.533778340832807530e+01,0.000000000000000000e+00,-6.811306235029690903e+00,-7.677205023136090212e+00,0.000000000000000000e+00,-5.365156296853993645e+00,-6.260483047003885027e+00,-1.051960518746355255e+01
